{"learner":{"attributes":{"scikit_learn":"{\"_estimator_type\": \"regressor\"}"},"feature_names":["batting_wrc_plus","adj_pitch_factor","xFIP_bullpen"],"feature_types":["int","float","float"],"gradient_booster":{"model":{"gbtree_model_param":{"num_parallel_tree":"1","num_trees":"100"},"iteration_indptr":[0,1,2,3,4,5,6,7,8,9,10,11,12,13,14,15,16,17,18,19,20,21,22,23,24,25,26,27,28,29,30,31,32,33,34,35,36,37,38,39,40,41,42,43,44,45,46,47,48,49,50,51,52,53,54,55,56,57,58,59,60,61,62,63,64,65,66,67,68,69,70,71,72,73,74,75,76,77,78,79,80,81,82,83,84,85,86,87,88,89,90,91,92,93,94,95,96,97,98,99,100],"tree_info":[0,0,0,0,0,0,0,0,0,0,0,0,0,0,0,0,0,0,0,0,0,0,0,0,0,0,0,0,0,0,0,0,0,0,0,0,0,0,0,0,0,0,0,0,0,0,0,0,0,0,0,0,0,0,0,0,0,0,0,0,0,0,0,0,0,0,0,0,0,0,0,0,0,0,0,0,0,0,0,0,0,0,0,0,0,0,0,0,0,0,0,0,0,0,0,0,0,0,0,0],"trees":[{"base_weights":[2.2303674E-7,-8.109472E-1,1.185231E0,-4.4819027E-1,-1.522222E0,-7.1514267E-1,2.916286E0,5.4296493E-3,-1.1272221E-1,-1.6681331E-1,-3.9633323E-2,-1.6944999E-1,4.430002E-2,3.865867E-1,3.6155574E-2],"categories":[],"categories_nodes":[],"categories_segments":[],"categories_sizes":[],"default_left":[0,0,0,1,0,0,0,0,0,0,0,0,0,0,0],"id":0,"left_children":[1,3,5,7,9,11,13,-1,-1,-1,-1,-1,-1,-1,-1],"loss_changes":[3.0757114E1,4.220132E0,4.485102E1,4.838067E0,3.2454205E-1,8.690313E0,1.5583736E1,0E0,0E0,0E0,0E0,0E0,0E0,0E0,0E0],"parents":[2147483647,0,0,1,1,2,2,3,3,4,4,5,5,6,6],"right_children":[2,4,6,8,10,12,14,-1,-1,-1,-1,-1,-1,-1,-1],"split_conditions":[1.06E2,9.1E1,3.53E0,4.1708913E0,6.0495048E0,3.049505E0,4.773168E0,5.4296493E-3,-1.1272221E-1,-1.6681331E-1,-3.9633323E-2,-1.6944999E-1,4.430002E-2,3.865867E-1,3.6155574E-2],"split_indices":[0,0,2,1,1,1,1,0,0,0,0,0,0,0,0],"split_type":[0,0,0,0,0,0,0,0,0,0,0,0,0,0,0],"sum_hessian":[3E1,1.8E1,1.2E1,1.3E1,5E0,6E0,6E0,8E0,5E0,4E0,1E0,3E0,3E0,4E0,2E0],"tree_param":{"num_deleted":"0","num_feature":"3","num_nodes":"15","size_leaf_vector":"1"}},{"base_weights":[-5.206831E-4,-7.46365E-1,1.0895995E0,-1.4213072E-1,-4.0379232E-1,-6.6150707E-1,2.685049E0,2.9163186E-2,-9.6181445E-2,-1.5674125E-1,4.0977515E-2,3.5565975E-1,3.3745196E-2],"categories":[],"categories_nodes":[],"categories_segments":[],"categories_sizes":[],"default_left":[0,0,0,0,1,0,0,0,0,0,0,0,0],"id":1,"left_children":[1,3,5,-1,7,9,11,-1,-1,-1,-1,-1,-1],"loss_changes":[2.60181E1,3.8192043E0,3.8095608E1,0E0,5.7133646E0,7.435649E0,1.3122131E1,0E0,0E0,0E0,0E0,0E0,0E0],"parents":[2147483647,0,0,1,1,2,2,4,4,5,5,6,6],"right_children":[2,4,6,-1,8,10,12,-1,-1,-1,-1,-1,-1],"split_conditions":[1.06E2,3.73E0,3.53E0,-1.4213072E-1,4.1362376E0,3.049505E0,4.773168E0,2.9163186E-2,-9.6181445E-2,-1.5674125E-1,4.0977515E-2,3.5565975E-1,3.3745196E-2],"split_indices":[0,2,2,0,1,1,1,0,0,0,0,0,0],"split_type":[0,0,0,0,0,0,0,0,0,0,0,0,0],"sum_hessian":[3E1,1.8E1,1.2E1,5E0,1.3E1,6E0,6E0,6E0,7E0,3E0,3E0,4E0,2E0],"tree_param":{"num_deleted":"0","num_feature":"3","num_nodes":"13","size_leaf_vector":"1"}},{"base_weights":[1.6117173E-3,-6.827364E-1,1.0016888E0,-3.6559656E-1,-1.3089399E0,-6.118941E-1,2.4721732E0,-1.3738586E-1,-8.306465E-3,-1.4393575E-1,-3.2842588E-2,-1.4498566E-1,3.7904203E-2,3.2720694E-1,3.1495508E-2],"categories":[],"categories_nodes":[],"categories_segments":[],"categories_sizes":[],"default_left":[0,0,0,0,0,0,0,0,0,0,0,0,0,0,0],"id":2,"left_children":[1,3,5,7,9,11,13,-1,-1,-1,-1,-1,-1,-1,-1],"loss_changes":[2.1900316E1,3.2947445E0,3.235844E1,3.8740075E0,2.9453564E-1,6.3621283E0,1.1048298E1,0E0,0E0,0E0,0E0,0E0,0E0,0E0,0E0],"parents":[2147483647,0,0,1,1,2,2,3,3,4,4,5,5,6,6],"right_children":[2,4,6,8,10,12,14,-1,-1,-1,-1,-1,-1,-1,-1],"split_conditions":[1.06E2,9.1E1,3.53E0,6.5E1,6.0495048E0,3.049505E0,4.773168E0,-1.3738586E-1,-8.306465E-3,-1.4393575E-1,-3.2842588E-2,-1.4498566E-1,3.7904203E-2,3.2720694E-1,3.1495508E-2],"split_indices":[0,0,2,0,1,1,1,0,0,0,0,0,0,0,0],"split_type":[0,0,0,0,0,0,0,0,0,0,0,0,0,0,0],"sum_hessian":[3E1,1.8E1,1.2E1,1.3E1,5E0,6E0,6E0,2E0,1.1E1,4E0,1E0,3E0,3E0,4E0,2E0],"tree_param":{"num_deleted":"0","num_feature":"3","num_nodes":"15","size_leaf_vector":"1"}},{"base_weights":[-8.3494955E-4,-6.3143486E-1,9.208753E-1,-1.2292197E0,-3.301389E-1,-5.66002E-1,2.276199E0,-6.739362E-2,-1.5598577E-1,2.7375454E-2,-8.1727825E-2,-1.3411175E-1,3.5061385E-2,3.010304E-1,2.9395804E-2],"categories":[],"categories_nodes":[],"categories_segments":[],"categories_sizes":[],"default_left":[0,0,0,0,1,0,0,0,0,0,0,0,0,0,0],"id":3,"left_children":[1,3,5,7,9,11,13,-1,-1,-1,-1,-1,-1,-1,-1],"loss_changes":[1.8599617E1,3.0162802E0,2.7485935E1,5.0341606E-2,4.342258E0,5.443595E0,9.301308E0,0E0,0E0,0E0,0E0,0E0,0E0,0E0,0E0],"parents":[2147483647,0,0,1,1,2,2,3,3,4,4,5,5,6,6],"right_children":[2,4,6,8,10,12,14,-1,-1,-1,-1,-1,-1,-1,-1],"split_conditions":[1.06E2,3.73E0,3.53E0,8.7E1,4.1362376E0,3.049505E0,4.773168E0,-6.739362E-2,-1.5598577E-1,2.7375454E-2,-8.1727825E-2,-1.3411175E-1,3.5061385E-2,3.010304E-1,2.9395804E-2],"split_indices":[0,2,2,0,1,1,1,0,0,0,0,0,0,0,0],"split_type":[0,0,0,0,0,0,0,0,0,0,0,0,0,0,0],"sum_hessian":[3E1,1.8E1,1.2E1,5E0,1.3E1,6E0,6E0,3E0,2E0,6E0,7E0,3E0,3E0,4E0,2E0],"tree_param":{"num_deleted":"0","num_feature":"3","num_nodes":"15","size_leaf_vector":"1"}},{"base_weights":[-2.2467105E-3,-5.829087E-1,8.465859E-1,-1.1435275E0,-3.0100715E-1,-5.235518E-1,2.0957828E0,-6.2339094E-2,-1.4558671E-1,2.5029007E-2,-7.457663E-2,-1.2405335E-1,3.243178E-2,2.7694795E-1,2.7436098E-2],"categories":[],"categories_nodes":[],"categories_segments":[],"categories_sizes":[],"default_left":[0,0,0,0,1,0,0,0,0,0,0,0,0,0,0],"id":4,"left_children":[1,3,5,7,9,11,13,-1,-1,-1,-1,-1,-1,-1,-1],"loss_changes":[1.5772913E1,2.6585364E0,2.3347687E1,6.718111E-2,3.6193802E0,4.6576757E0,7.8297615E0,0E0,0E0,0E0,0E0,0E0,0E0,0E0,0E0],"parents":[2147483647,0,0,1,1,2,2,3,3,4,4,5,5,6,6],"right_children":[2,4,6,8,10,12,14,-1,-1,-1,-1,-1,-1,-1,-1],"split_conditions":[1.06E2,3.73E0,3.53E0,8.7E1,4.1362376E0,3.049505E0,4.773168E0,-6.2339094E-2,-1.4558671E-1,2.5029007E-2,-7.457663E-2,-1.2405335E-1,3.243178E-2,2.7694795E-1,2.7436098E-2],"split_indices":[0,2,2,0,1,1,1,0,0,0,0,0,0,0,0],"split_type":[0,0,0,0,0,0,0,0,0,0,0,0,0,0,0],"sum_hessian":[3E1,1.8E1,1.2E1,5E0,1.3E1,6E0,6E0,3E0,2E0,6E0,7E0,3E0,3E0,4E0,2E0],"tree_param":{"num_deleted":"0","num_feature":"3","num_nodes":"15","size_leaf_vector":"1"}},{"base_weights":[-3.464291E-3,-1.5256375E0,2.7854794E-1,-2.0338462E-1,-5.08883E-2,-3.9927763E-1,1.4707792E0,6.288931E-3,-7.753001E-2,2.1675603E-1,-1.162827E-2],"categories":[],"categories_nodes":[],"categories_segments":[],"categories_sizes":[],"default_left":[0,0,0,0,0,1,0,0,0,0,0],"id":5,"left_children":[1,3,5,-1,-1,7,9,-1,-1,-1,-1],"loss_changes":[1.373238E1,1.5486279E0,2.240662E1,0E0,0E0,3.1768909E0,1.1310396E1,0E0,0E0,0E0,0E0],"parents":[2147483647,0,0,1,1,2,2,5,5,6,6],"right_children":[2,4,6,-1,-1,8,10,-1,-1,-1,-1],"split_conditions":[3.049505E0,1.14E2,1.06E2,-2.0338462E-1,-5.08883E-2,4.1362376E0,4.773168E0,6.288931E-3,-7.753001E-2,2.1675603E-1,-1.162827E-2],"split_indices":[1,0,0,0,0,1,1,0,0,0,0],"split_type":[0,0,0,0,0,0,0,0,0,0,0],"sum_hessian":[3E1,4E0,2.6E1,2E0,2E0,1.7E1,9E0,8E0,9E0,6E0,3E0],"tree_param":{"num_deleted":"0","num_feature":"3","num_nodes":"11","size_leaf_vector":"1"}},{"base_weights":[-7.0013E-3,-1.4239283E0,2.556519E-1,-1.8982564E-1,-4.7495734E-2,-3.6330777E-1,1.3442141E0,5.7299086E-3,-7.055232E-2,2.6215485E-1,4.222782E-2],"categories":[],"categories_nodes":[],"categories_segments":[],"categories_sizes":[],"default_left":[0,0,0,0,0,1,0,0,0,0,0],"id":6,"left_children":[1,3,5,-1,-1,7,9,-1,-1,-1,-1],"loss_changes":[1.1901002E1,1.3490267E0,1.8680319E1,0E0,0E0,2.6313126E0,1.066918E1,0E0,0E0,0E0,0E0],"parents":[2147483647,0,0,1,1,2,2,5,5,6,6],"right_children":[2,4,6,-1,-1,8,10,-1,-1,-1,-1],"split_conditions":[3.049505E0,1.14E2,1.06E2,-1.8982564E-1,-4.7495734E-2,4.1362376E0,4.504257E0,5.7299086E-3,-7.055232E-2,2.6215485E-1,4.222782E-2],"split_indices":[1,0,0,0,0,1,1,0,0,0,0],"split_type":[0,0,0,0,0,0,0,0,0,0,0],"sum_hessian":[3E1,4E0,2.6E1,2E0,2E0,1.7E1,9E0,8E0,9E0,3E0,6E0],"tree_param":{"num_deleted":"0","num_feature":"3","num_nodes":"11","size_leaf_vector":"1"}},{"base_weights":[-6.228885E-3,-1.0831072E0,2.955462E-1,-3.1225076E-2,-1.3289998E0,-3.1335336E-1,1.2402309E0,-1.7717062E-1,-4.432934E-2,2.0094382E-2,-6.420261E-2,2.424932E-1,3.8608298E-2],"categories":[],"categories_nodes":[],"categories_segments":[],"categories_sizes":[],"default_left":[0,0,0,0,0,1,0,0,0,0,0,0,0],"id":7,"left_children":[1,3,5,-1,7,9,11,-1,-1,-1,-1,-1,-1],"loss_changes":[1.0394336E1,9.118538E-1,1.4769083E1,0E0,1.1751528E0,2.833578E0,9.182877E0,0E0,0E0,0E0,0E0,0E0,0E0],"parents":[2147483647,0,0,1,1,2,2,4,4,5,5,6,6],"right_children":[2,4,6,-1,8,10,12,-1,-1,-1,-1,-1,-1],"split_conditions":[3.3378217E0,9.1E1,1.06E2,-3.1225076E-2,1.14E2,4.1362376E0,4.504257E0,-1.7717062E-1,-4.432934E-2,2.0094382E-2,-6.420261E-2,2.424932E-1,3.8608298E-2],"split_indices":[1,0,0,0,0,1,1,0,0,0,0,0,0],"split_type":[0,0,0,0,0,0,0,0,0,0,0,0,0],"sum_hessian":[3E1,6E0,2.4E1,2E0,4E0,1.5E1,9E0,2E0,2E0,6E0,9E0,3E0,6E0],"tree_param":{"num_deleted":"0","num_feature":"3","num_nodes":"13","size_leaf_vector":"1"}},{"base_weights":[-6.1133755E-3,-1.0109001E0,2.7547145E-1,-2.9143397E-2,-1.2403997E0,-2.8477472E-1,1.1443181E0,-1.6535924E-1,-4.137405E-2,1.8372005E-2,-5.842436E-2,1.730848E-1,-1.6818846E-2],"categories":[],"categories_nodes":[],"categories_segments":[],"categories_sizes":[],"default_left":[0,0,0,0,0,1,0,0,0,0,0,0,0],"id":8,"left_children":[1,3,5,-1,7,9,11,-1,-1,-1,-1,-1,-1],"loss_changes":[9.049388E0,7.9432535E-1,1.2495073E1,0E0,1.0236897E0,2.352131E0,7.9893503E0,0E0,0E0,0E0,0E0,0E0,0E0],"parents":[2147483647,0,0,1,1,2,2,4,4,5,5,6,6],"right_children":[2,4,6,-1,8,10,12,-1,-1,-1,-1,-1,-1],"split_conditions":[3.3378217E0,9.1E1,1.06E2,-2.9143397E-2,1.14E2,4.1362376E0,4.773168E0,-1.6535924E-1,-4.137405E-2,1.8372005E-2,-5.842436E-2,1.730848E-1,-1.6818846E-2],"split_indices":[1,0,0,0,0,1,1,0,0,0,0,0,0],"split_type":[0,0,0,0,0,0,0,0,0,0,0,0,0],"sum_hessian":[3E1,6E0,2.4E1,2E0,4E0,1.5E1,9E0,2E0,2E0,6E0,9E0,6E0,3E0],"tree_param":{"num_deleted":"0","num_feature":"3","num_nodes":"13","size_leaf_vector":"1"}},{"base_weights":[-9.362098E-3,-9.435068E-1,2.525729E-1,-2.7200509E-2,-1.1577065E0,-2.5880048E-1,1.045513E0,-1.3773239E-1,-1.39618395E-2,-1.0064491E-1,-8.010431E-3,2.8327063E-1,5.3219087E-2],"categories":[],"categories_nodes":[],"categories_segments":[],"categories_sizes":[],"default_left":[0,0,0,0,0,0,0,0,0,0,0,0,0],"id":9,"left_children":[1,3,5,-1,7,9,11,-1,-1,-1,-1,-1,-1],"loss_changes":[7.823545E0,6.91946E-1,1.0407791E1,0E0,9.2564964E-1,2.0570097E0,7.6665173E0,0E0,0E0,0E0,0E0,0E0,0E0],"parents":[2147483647,0,0,1,1,2,2,4,4,5,5,6,6],"right_children":[2,4,6,-1,8,10,12,-1,-1,-1,-1,-1,-1],"split_conditions":[3.3378217E0,9.1E1,1.06E2,-2.7200509E-2,1.28E2,6.5E1,1.11E2,-1.3773239E-1,-1.39618395E-2,-1.0064491E-1,-8.010431E-3,2.8327063E-1,5.3219087E-2],"split_indices":[1,0,0,0,0,0,0,0,0,0,0,0,0],"split_type":[0,0,0,0,0,0,0,0,0,0,0,0,0],"sum_hessian":[3E1,6E0,2.4E1,2E0,4E0,1.5E1,9E0,3E0,1E0,2E0,1.3E1,1E0,8E0],"tree_param":{"num_deleted":"0","num_feature":"3","num_nodes":"13","size_leaf_vector":"1"}},{"base_weights":[-6.847274E-3,-6.444245E-1,3.2744783E-1,-8.7692726E-1,2.6789188E-1,2.82277E-1,-8.378448E-2,-4.660412E-2,-1.2740247E-1,5.3447533E-2,-1.326375E-2,-2.2932837E-2,1.2680028E-1],"categories":[],"categories_nodes":[],"categories_segments":[],"categories_sizes":[],"default_left":[0,0,0,0,0,0,0,0,0,0,0,0,0],"id":10,"left_children":[1,3,5,7,9,-1,11,-1,-1,-1,-1,-1,-1],"loss_changes":[6.818323E0,2.5681982E0,2.1785803E1,8.747082E-1,3.9121497E-1,0E0,4.028932E0,0E0,0E0,0E0,0E0,0E0,0E0],"parents":[2147483647,0,0,1,1,2,2,3,3,4,4,6,6],"right_children":[2,4,6,8,10,-1,12,-1,-1,-1,-1,-1,-1],"split_conditions":[3.950495E0,1.28E2,4.100891E0,9.1E1,1.46E2,2.82277E-1,1.57E2,-4.660412E-2,-1.2740247E-1,5.3447533E-2,-1.326375E-2,-2.2932837E-2,1.2680028E-1],"split_indices":[1,0,1,0,0,0,0,0,0,0,0,0,0],"split_type":[0,0,0,0,0,0,0,0,0,0,0,0,0],"sum_hessian":[3E1,1E1,2E1,8E0,2E0,2E0,1.8E1,5E0,3E0,1E0,1E0,1.7E1,1E0],"tree_param":{"num_deleted":"0","num_feature":"3","num_nodes":"13","size_leaf_vector":"1"}},{"base_weights":[1.9769208E-3,-5.9214777E-1,3.1309095E-1,-8.0856854E-1,2.544972E-1,2.6345852E-1,-6.9939226E-2,-4.2720437E-2,-1.1784728E-1,5.0775148E-2,-1.2600565E-2,-3.1290606E-2,6.729492E-2],"categories":[],"categories_nodes":[],"categories_segments":[],"categories_sizes":[],"default_left":[0,0,0,0,0,0,0,0,0,0,0,0,0],"id":11,"left_children":[1,3,5,7,9,-1,11,-1,-1,-1,-1,-1,-1],"loss_changes":[5.915452E0,2.2213256E0,1.8857508E1,7.661648E-1,3.5307145E-1,0E0,3.6400173E0,0E0,0E0,0E0,0E0,0E0,0E0],"parents":[2147483647,0,0,1,1,2,2,3,3,4,4,6,6],"right_children":[2,4,6,8,10,-1,12,-1,-1,-1,-1,-1,-1],"split_conditions":[3.950495E0,1.28E2,4.100891E0,9.1E1,1.46E2,2.6345852E-1,1.23E2,-4.2720437E-2,-1.1784728E-1,5.0775148E-2,-1.2600565E-2,-3.1290606E-2,6.729492E-2],"split_indices":[1,0,1,0,0,0,0,0,0,0,0,0,0],"split_type":[0,0,0,0,0,0,0,0,0,0,0,0,0],"sum_hessian":[3E1,1E1,2E1,8E0,2E0,2E0,1.8E1,5E0,3E0,1E0,1E0,1.4E1,4E0],"tree_param":{"num_deleted":"0","num_feature":"3","num_nodes":"13","size_leaf_vector":"1"}},{"base_weights":[7.4910657E-3,-5.440597E-1,2.9604188E-1,-7.4555266E-1,2.4177241E-1,2.458946E-1,-6.1050426E-2,-3.916041E-2,-1.0900873E-1,4.8236396E-2,-1.1970532E-2,2.4319325E-2,-6.173529E-2],"categories":[],"categories_nodes":[],"categories_segments":[],"categories_sizes":[],"default_left":[0,0,0,0,0,0,1,0,0,0,0,0,0],"id":12,"left_children":[1,3,5,7,9,-1,11,-1,-1,-1,-1,-1,-1],"loss_changes":[5.0947275E0,1.9219902E0,1.6369606E1,6.7064524E-1,3.1864697E-1,0E0,3.3659146E0,0E0,0E0,0E0,0E0,0E0,0E0],"parents":[2147483647,0,0,1,1,2,2,3,3,4,4,6,6],"right_children":[2,4,6,8,10,-1,12,-1,-1,-1,-1,-1,-1],"split_conditions":[3.950495E0,1.28E2,4.100891E0,9.1E1,1.46E2,2.458946E-1,5.7722774E0,-3.916041E-2,-1.0900873E-1,4.8236396E-2,-1.1970532E-2,2.4319325E-2,-6.173529E-2],"split_indices":[1,0,1,0,0,0,1,0,0,0,0,0,0],"split_type":[0,0,0,0,0,0,0,0,0,0,0,0,0],"sum_hessian":[3E1,1E1,2E1,8E0,2E0,2E0,1.8E1,5E0,3E0,1E0,1E0,1.2E1,6E0],"tree_param":{"num_deleted":"0","num_feature":"3","num_nodes":"13","size_leaf_vector":"1"}},{"base_weights":[9.857308E-3,-3.0512992E-1,4.6946502E-1,-7.122236E-2,-1.08866215E-1,-4.1895667E-1,1.2908202E0,-9.013795E-2,2.1433225E-3,-9.177969E-2,-1.828505E-2,1.7035048E-1,1.727392E-2],"categories":[],"categories_nodes":[],"categories_segments":[],"categories_sizes":[],"default_left":[0,0,0,0,0,0,0,0,0,0,0,0,0],"id":13,"left_children":[1,3,5,-1,7,9,11,-1,-1,-1,-1,-1,-1],"loss_changes":[4.631135E0,1.4405199E0,1.0027025E1,0E0,1.4650159E0,6.5663517E-1,2.9356413E0,0E0,0E0,0E0,0E0,0E0,0E0],"parents":[2147483647,0,0,1,1,2,2,4,4,5,5,6,6],"right_children":[2,4,6,-1,8,10,12,-1,-1,-1,-1,-1,-1],"split_conditions":[1.06E2,3.73E0,3.53E0,-7.122236E-2,6.4E1,1.14E2,4.773168E0,-9.013795E-2,2.1433225E-3,-9.177969E-2,-1.828505E-2,1.7035048E-1,1.727392E-2],"split_indices":[0,2,2,0,0,0,1,0,0,0,0,0,0],"split_type":[0,0,0,0,0,0,0,0,0,0,0,0,0],"sum_hessian":[3E1,1.8E1,1.2E1,5E0,1.3E1,6E0,6E0,1E0,1.2E1,1E0,5E0,4E0,2E0],"tree_param":{"num_deleted":"0","num_feature":"3","num_nodes":"13","size_leaf_vector":"1"}},{"base_weights":[6.237468E-3,-8.1223816E-1,1.5757601E-1,-1.1610251E-1,-1.9270523E-2,-2.0209326E-1,7.892231E-1,-8.369449E-2,-7.0427745E-3,1.6820249E-1,1.6630452E-2],"categories":[],"categories_nodes":[],"categories_segments":[],"categories_sizes":[],"default_left":[0,0,0,0,0,0,0,0,0,0,0],"id":14,"left_children":[1,3,5,-1,-1,7,9,-1,-1,-1,-1],"loss_changes":[3.9678633E0,8.56689E-1,6.293466E0,0E0,0E0,1.445641E0,5.2817E0,0E0,0E0,0E0,0E0],"parents":[2147483647,0,0,1,1,2,2,5,5,6,6],"right_children":[2,4,6,-1,-1,8,10,-1,-1,-1,-1],"split_conditions":[3.049505E0,1.14E2,1.06E2,-1.1610251E-1,-1.9270523E-2,6.5E1,4.504257E0,-8.369449E-2,-7.0427745E-3,1.6820249E-1,1.6630452E-2],"split_indices":[1,0,0,0,0,0,1,0,0,0,0],"split_type":[0,0,0,0,0,0,0,0,0,0,0],"sum_hessian":[3E1,4E0,2.6E1,2E0,2E0,1.7E1,9E0,2E0,1.5E1,3E0,6E0],"tree_param":{"num_deleted":"0","num_feature":"3","num_nodes":"11","size_leaf_vector":"1"}},{"base_weights":[4.2822054E-3,-4.551332E-1,2.4472445E-1,-6.2035054E-1,1.9222991E-1,2.1837986E-1,-7.432538E-2,-3.3043243E-2,-9.001401E-2,3.832872E-2,-9.494233E-3,-1.968218E-2,1.065305E-1],"categories":[],"categories_nodes":[],"categories_segments":[],"categories_sizes":[],"default_left":[0,0,0,0,0,0,0,0,0,0,0,0,0],"id":15,"left_children":[1,3,5,7,9,-1,11,-1,-1,-1,-1,-1,-1],"loss_changes":[3.5357313E0,1.2957618E0,1.31542E1,4.3260884E-1,2.0098922E-1,0E0,2.8620872E0,0E0,0E0,0E0,0E0,0E0,0E0],"parents":[2147483647,0,0,1,1,2,2,3,3,4,4,6,6],"right_children":[2,4,6,8,10,-1,12,-1,-1,-1,-1,-1,-1],"split_conditions":[3.950495E0,1.28E2,4.100891E0,9.1E1,1.46E2,2.1837986E-1,1.57E2,-3.3043243E-2,-9.001401E-2,3.832872E-2,-9.494233E-3,-1.968218E-2,1.065305E-1],"split_indices":[1,0,1,0,0,0,0,0,0,0,0,0,0],"split_type":[0,0,0,0,0,0,0,0,0,0,0,0,0],"sum_hessian":[3E1,1E1,2E1,8E0,2E0,2E0,1.8E1,5E0,3E0,1E0,1E0,1.7E1,1E0],"tree_param":{"num_deleted":"0","num_feature":"3","num_nodes":"13","size_leaf_vector":"1"}},{"base_weights":[1.0660695E-2,-2.4918155E-1,3.8961008E-1,-5.8347326E-2,-8.811499E-2,-3.722504E-1,1.095812E0,-8.046222E-2,2.8894958E-3,-7.688488E-2,-1.7800923E-2,1.4361821E-1,1.6325777E-2],"categories":[],"categories_nodes":[],"categories_segments":[],"categories_sizes":[],"default_left":[0,0,0,0,0,0,0,0,0,0,0,0,0],"id":16,"left_children":[1,3,5,-1,7,9,11,-1,-1,-1,-1,-1,-1],"loss_changes":[3.1495624E0,9.716083E-1,7.4022717E0,0E0,1.196988E0,4.0238798E-1,1.9874268E0,0E0,0E0,0E0,0E0,0E0,0E0],"parents":[2147483647,0,0,1,1,2,2,4,4,5,5,6,6],"right_children":[2,4,6,-1,8,10,12,-1,-1,-1,-1,-1,-1],"split_conditions":[1.06E2,3.73E0,3.53E0,-5.8347326E-2,6.4E1,1.14E2,4.773168E0,-8.046222E-2,2.8894958E-3,-7.688488E-2,-1.7800923E-2,1.4361821E-1,1.6325777E-2],"split_indices":[0,2,2,0,0,0,1,0,0,0,0,0,0],"split_type":[0,0,0,0,0,0,0,0,0,0,0,0,0],"sum_hessian":[3E1,1.8E1,1.2E1,5E0,1.3E1,6E0,6E0,1E0,1.2E1,1E0,5E0,4E0,2E0],"tree_param":{"num_deleted":"0","num_feature":"3","num_nodes":"13","size_leaf_vector":"1"}},{"base_weights":[7.3151435E-3,-6.68015E-1,1.3210535E-1,-9.785367E-2,-1.34821655E-2,-1.6234046E-1,6.488973E-1,-7.2175734E-2,-4.7303513E-3,1.9449802E-1,2.8877914E-2],"categories":[],"categories_nodes":[],"categories_segments":[],"categories_sizes":[],"default_left":[0,0,0,0,0,0,0,0,0,0,0],"id":17,"left_children":[1,3,5,-1,-1,7,9,-1,-1,-1,-1],"loss_changes":[2.7007606E0,6.959126E-1,4.213857E0,0E0,0E0,1.1242232E0,4.105759E0,0E0,0E0,0E0,0E0],"parents":[2147483647,0,0,1,1,2,2,5,5,6,6],"right_children":[2,4,6,-1,-1,8,10,-1,-1,-1,-1],"split_conditions":[3.049505E0,1.14E2,1.06E2,-9.785367E-2,-1.34821655E-2,6.5E1,1.11E2,-7.2175734E-2,-4.7303513E-3,1.9449802E-1,2.8877914E-2],"split_indices":[1,0,0,0,0,0,0,0,0,0,0],"split_type":[0,0,0,0,0,0,0,0,0,0,0],"sum_hessian":[3E1,4E0,2.6E1,2E0,2E0,1.7E1,9E0,2E0,1.5E1,1E0,8E0],"tree_param":{"num_deleted":"0","num_feature":"3","num_nodes":"11","size_leaf_vector":"1"}},{"base_weights":[7.7170017E-3,-3.714487E-1,2.0596012E-1,-5.1711076E-1,1.8935378E-1,1.9261199E-1,-7.648406E-2,-2.8095016E-2,-7.42074E-2,3.585844E-2,-7.4553727E-3,-1.8359894E-2,9.257918E-2],"categories":[],"categories_nodes":[],"categories_segments":[],"categories_sizes":[],"default_left":[0,0,0,0,0,0,0,0,0,0,0,0,0],"id":18,"left_children":[1,3,5,7,9,-1,11,-1,-1,-1,-1,-1,-1],"loss_changes":[2.4066803E0,9.9648094E-1,1.0350149E1,2.6966143E-1,1.6071749E-1,0E0,2.2097883E0,0E0,0E0,0E0,0E0,0E0,0E0],"parents":[2147483647,0,0,1,1,2,2,3,3,4,4,6,6],"right_children":[2,4,6,8,10,-1,12,-1,-1,-1,-1,-1,-1],"split_conditions":[3.950495E0,1.28E2,4.100891E0,9.1E1,1.46E2,1.9261199E-1,1.57E2,-2.8095016E-2,-7.42074E-2,3.585844E-2,-7.4553727E-3,-1.8359894E-2,9.257918E-2],"split_indices":[1,0,1,0,0,0,0,0,0,0,0,0,0],"split_type":[0,0,0,0,0,0,0,0,0,0,0,0,0],"sum_hessian":[3E1,1E1,2E1,8E0,2E0,2E0,1.8E1,5E0,3E0,1E0,1E0,1.7E1,1E0],"tree_param":{"num_deleted":"0","num_feature":"3","num_nodes":"13","size_leaf_vector":"1"}},{"base_weights":[1.3168858E-2,1.5148124E-1,-4.8268524E-1,-3.410219E-1,5.0255144E-1,-7.1912326E-2,-3.2342502E-1,3.1207514E-3,-5.581826E-2,1.797712E-1,1.6501045E-2,-4.6905936E-3,-5.843088E-2],"categories":[],"categories_nodes":[],"categories_segments":[],"categories_sizes":[],"default_left":[1,0,0,0,0,0,0,0,0,0,0,0,0],"id":19,"left_children":[1,3,5,7,9,-1,11,-1,-1,-1,-1,-1,-1],"loss_changes":[2.1991832E0,4.4939604E0,3.1003594E-2,9.0658903E-1,6.260906E0,0E0,4.0542847E-1,0E0,0E0,0E0,0E0,0E0,0E0],"parents":[2147483647,0,0,1,1,2,2,3,3,4,4,6,6],"right_children":[2,4,6,8,10,-1,12,-1,-1,-1,-1,-1,-1],"split_conditions":[5.7722774E0,3.950495E0,6.4E1,3.51E0,4.100891E0,-7.1912326E-2,9.7E1,3.1207514E-3,-5.581826E-2,1.797712E-1,1.6501045E-2,-4.6905936E-3,-5.843088E-2],"split_indices":[1,1,0,2,1,0,0,0,0,0,0,0,0],"split_type":[0,0,0,0,0,0,0,0,0,0,0,0,0],"sum_hessian":[3E1,2.4E1,6E0,1E1,1.4E1,1E0,5E0,4E0,6E0,2E0,1.2E1,3E0,2E0],"tree_param":{"num_deleted":"0","num_feature":"3","num_nodes":"13","size_leaf_vector":"1"}},{"base_weights":[1.2127484E-2,-3.3562696E-1,1.9370706E-1,-4.6137783E-1,-1.5393825E-1,-1.4551969E-1,8.929491E-1,-5.1893007E-2,-8.68082E-3,6.217923E-3,-6.1726283E-2,-6.831671E-2,-5.831865E-3,1.4590278E-1,3.747121E-2],"categories":[],"categories_nodes":[],"categories_segments":[],"categories_sizes":[],"default_left":[0,0,0,0,0,0,0,0,0,0,0,0,0,0,0],"id":20,"left_children":[1,3,5,7,9,11,13,-1,-1,-1,-1,-1,-1,-1,-1],"loss_changes":[2.0225117E0,1.8029892E-1,5.111175E0,8.4296465E-2,6.391762E-1,6.634098E-1,1.5068254E0,0E0,0E0,0E0,0E0,0E0,0E0,0E0,0E0],"parents":[2147483647,0,0,1,1,2,2,3,3,4,4,5,5,6,6],"right_children":[2,4,6,8,10,12,14,-1,-1,-1,-1,-1,-1,-1,-1],"split_conditions":[3.56E0,1.14E2,1.06E2,3.53E0,4.69E0,6.4E1,4.504257E0,-5.1893007E-2,-8.68082E-3,6.217923E-3,-6.1726283E-2,-6.831671E-2,-5.831865E-3,1.4590278E-1,3.747121E-2],"split_indices":[2,0,0,2,1,0,1,0,0,0,0,0,0,0,0],"split_type":[0,0,0,0,0,0,0,0,0,0,0,0,0,0,0],"sum_hessian":[3E1,1E1,2E1,5E0,5E0,1.4E1,6E0,4E0,1E0,4E0,1E0,1E0,1.3E1,2E0,4E0],"tree_param":{"num_deleted":"0","num_feature":"3","num_nodes":"15","size_leaf_vector":"1"}},{"base_weights":[1.0693504E-2,-5.4732835E-1,1.1363483E-1,-8.073755E-2,-1.0483845E-2,3.106179E-1,-3.9302716E-1,-2.4520892E-3,8.163912E-2,-6.4900875E-2,-2.6374284E-2],"categories":[],"categories_nodes":[],"categories_segments":[],"categories_sizes":[],"default_left":[0,0,1,0,0,0,0,0,0,0,0],"id":21,"left_children":[1,3,5,-1,-1,7,9,-1,-1,-1,-1],"loss_changes":[1.8429445E0,4.9069715E-1,2.8167844E0,0E0,0E0,3.4101038E0,9.358394E-2,0E0,0E0,0E0,0E0],"parents":[2147483647,0,0,1,1,2,2,5,5,6,6],"right_children":[2,4,6,-1,-1,8,10,-1,-1,-1,-1],"split_conditions":[3.049505E0,1.14E2,4.773168E0,-8.073755E-2,-1.0483845E-2,9.5E1,6.4E1,-2.4520892E-3,8.163912E-2,-6.4900875E-2,-2.6374284E-2],"split_indices":[1,0,1,0,0,0,0,0,0,0,0],"split_type":[0,0,0,0,0,0,0,0,0,0,0],"sum_hessian":[3E1,4E0,2.6E1,2E0,2E0,1.9E1,7E0,1.2E1,7E0,1E0,6E0],"tree_param":{"num_deleted":"0","num_feature":"3","num_nodes":"11","size_leaf_vector":"1"}},{"base_weights":[6.291505E-3,-3.1492546E-1,1.7424843E-1,-1.6345893E-1,-4.6399355E-2,-1.1786092E-1,7.753044E-1,-3.188075E-2,1.4994169E-2,-4.1087985E-2,2.604413E-3,1.5477686E-1,3.8859893E-2],"categories":[],"categories_nodes":[],"categories_segments":[],"categories_sizes":[],"default_left":[0,0,0,0,0,0,0,0,0,0,0,0,0],"id":22,"left_children":[1,3,5,7,-1,9,11,-1,-1,-1,-1,-1,-1],"loss_changes":[1.7273444E0,1.7252326E-1,3.7784333E0,3.886069E-1,0E0,6.4320457E-1,1.489552E0,0E0,0E0,0E0,0E0,0E0,0E0],"parents":[2147483647,0,0,1,1,2,2,3,3,5,5,6,6],"right_children":[2,4,6,8,-1,10,12,-1,-1,-1,-1,-1,-1],"split_conditions":[3.56E0,3.950495E0,1.06E2,1.28E2,-4.6399355E-2,3.6E0,1.11E2,-3.188075E-2,1.4994169E-2,-4.1087985E-2,2.604413E-3,1.5477686E-1,3.8859893E-2],"split_indices":[2,1,0,0,0,1,0,0,0,0,0,0,0],"split_type":[0,0,0,0,0,0,0,0,0,0,0,0,0],"sum_hessian":[3E1,1E1,2E1,6E0,4E0,1.4E1,6E0,4E0,2E0,4E0,1E1,1E0,5E0],"tree_param":{"num_deleted":"0","num_feature":"3","num_nodes":"13","size_leaf_vector":"1"}},{"base_weights":[8.6258E-3,1.3308139E-1,-3.658192E-1,-2.6697496E-1,4.3790555E-1,-6.1786056E-2,-2.4154748E-1,3.0469466E-3,-4.4129595E-2,1.552318E-1,1.2281033E-2,-9.846771E-3,-5.5001307E-2],"categories":[],"categories_nodes":[],"categories_segments":[],"categories_sizes":[],"default_left":[1,0,0,0,0,0,0,0,0,0,0,0,0],"id":23,"left_children":[1,3,5,7,9,-1,11,-1,-1,-1,-1,-1,-1],"loss_changes":[1.4933386E0,3.043634E0,1.0133016E-1,5.8380485E-1,4.725404E0,0E0,2.5478777E-1,0E0,0E0,0E0,0E0,0E0,0E0],"parents":[2147483647,0,0,1,1,2,2,3,3,4,4,6,6],"right_children":[2,4,6,8,10,-1,12,-1,-1,-1,-1,-1,-1],"split_conditions":[4.773168E0,3.950495E0,6.4E1,3.51E0,4.100891E0,-6.1786056E-2,1.23E2,3.0469466E-3,-4.4129595E-2,1.552318E-1,1.2281033E-2,-9.846771E-3,-5.5001307E-2],"split_indices":[1,1,0,2,1,0,0,0,0,0,0,0,0],"split_type":[0,0,0,0,0,0,0,0,0,0,0,0,0],"sum_hessian":[3E1,2.3E1,7E0,1E1,1.3E1,1E0,6E0,4E0,6E0,2E0,1.1E1,5E0,1E0],"tree_param":{"num_deleted":"0","num_feature":"3","num_nodes":"13","size_leaf_vector":"1"}},{"base_weights":[7.756618E-3,-2.806199E-1,1.5844162E-1,-1.3865805E-1,-4.232425E-2,-1.03751436E-1,6.9764936E-1,-3.2676186E-2,8.411027E-3,-5.8696747E-2,-2.7309759E-3,1.3927646E-1,3.496694E-2],"categories":[],"categories_nodes":[],"categories_segments":[],"categories_sizes":[],"default_left":[0,0,0,0,0,0,0,0,0,0,0,0,0],"id":24,"left_children":[1,3,5,7,-1,9,11,-1,-1,-1,-1,-1,-1],"loss_changes":[1.3915362E0,1.6403067E-1,3.0412889E0,3.2080898E-1,0E0,5.380378E-1,1.2061961E0,0E0,0E0,0E0,0E0,0E0,0E0],"parents":[2147483647,0,0,1,1,2,2,3,3,5,5,6,6],"right_children":[2,4,6,8,-1,10,12,-1,-1,-1,-1,-1,-1],"split_conditions":[3.56E0,3.950495E0,1.06E2,3.049505E0,-4.232425E-2,6.4E1,1.11E2,-3.2676186E-2,8.411027E-3,-5.8696747E-2,-2.7309759E-3,1.3927646E-1,3.496694E-2],"split_indices":[2,1,0,1,0,0,0,0,0,0,0,0,0],"split_type":[0,0,0,0,0,0,0,0,0,0,0,0,0],"sum_hessian":[3E1,1E1,2E1,6E0,4E0,1.4E1,6E0,3E0,3E0,1E0,1.3E1,1E0,5E0],"tree_param":{"num_deleted":"0","num_feature":"3","num_nodes":"13","size_leaf_vector":"1"}},{"base_weights":[8.472135E-3,-4.5628375E-1,9.422426E-2,-6.880054E-2,-7.2467565E-3,2.6138046E-1,-3.354443E-1,8.985263E-5,6.519911E-2,-5.576191E-2,-2.2404518E-2],"categories":[],"categories_nodes":[],"categories_segments":[],"categories_sizes":[],"default_left":[0,0,1,0,0,0,0,0,0,0,0],"id":25,"left_children":[1,3,5,-1,-1,7,9,-1,-1,-1,-1],"loss_changes":[1.278461E0,3.948344E-1,2.0268662E0,0E0,0E0,2.0343544E0,7.306874E-2,0E0,0E0,0E0,0E0],"parents":[2147483647,0,0,1,1,2,2,5,5,6,6],"right_children":[2,4,6,-1,-1,8,10,-1,-1,-1,-1],"split_conditions":[3.049505E0,1.14E2,4.773168E0,-6.880054E-2,-7.2467565E-3,9.5E1,6.4E1,8.985263E-5,6.519911E-2,-5.576191E-2,-2.2404518E-2],"split_indices":[1,0,1,0,0,0,0,0,0,0,0],"split_type":[0,0,0,0,0,0,0,0,0,0,0],"sum_hessian":[3E1,4E0,2.6E1,2E0,2E0,1.9E1,7E0,1.2E1,7E0,1E0,6E0],"tree_param":{"num_deleted":"0","num_feature":"3","num_nodes":"11","size_leaf_vector":"1"}},{"base_weights":[4.7564777E-3,-2.6088947E-1,1.4367786E-1,-1.2569924E-1,-3.9797794E-2,-8.324065E-2,6.094064E-1,-2.9391661E-2,7.394296E-3,4.0672715E-3,-3.3920195E-2,1.2905268E-1,2.8079852E-2],"categories":[],"categories_nodes":[],"categories_segments":[],"categories_sizes":[],"default_left":[0,0,0,0,0,0,0,0,0,0,0,0,0],"id":26,"left_children":[1,3,5,7,-1,9,11,-1,-1,-1,-1,-1,-1],"loss_changes":[1.1815051E0,1.5383774E-1,2.2700582E0,2.568161E-1,0E0,4.8955157E-1,1.2043731E0,0E0,0E0,0E0,0E0,0E0,0E0],"parents":[2147483647,0,0,1,1,2,2,3,3,5,5,6,6],"right_children":[2,4,6,8,-1,10,12,-1,-1,-1,-1,-1,-1],"split_conditions":[3.56E0,3.950495E0,1.06E2,1.14E2,-3.9797794E-2,9.1E1,1.11E2,-2.9391661E-2,7.394296E-3,4.0672715E-3,-3.3920195E-2,1.2905268E-1,2.8079852E-2],"split_indices":[2,1,0,0,0,0,0,0,0,0,0,0,0],"split_type":[0,0,0,0,0,0,0,0,0,0,0,0,0],"sum_hessian":[3E1,1E1,2E1,6E0,4E0,1.4E1,6E0,3E0,3E0,1E1,4E0,1E0,5E0],"tree_param":{"num_deleted":"0","num_feature":"3","num_nodes":"13","size_leaf_vector":"1"}},{"base_weights":[6.3931826E-3,-4.1527245E-2,7.22003E-2,-3.2190797E-1,1.6327702E-1,-1.6117299E-2,-4.8256997E-2,1.22600034E-1,2.8646216E-3],"categories":[],"categories_nodes":[],"categories_segments":[],"categories_sizes":[],"default_left":[0,0,0,0,0,0,0,0,0],"id":27,"left_children":[1,3,-1,5,7,-1,-1,-1,-1],"loss_changes":[1.093045E0,1.7752552E0,0E0,2.579348E-1,2.540235E0,0E0,0E0,0E0,0E0],"parents":[2147483647,0,0,1,1,3,3,4,4],"right_children":[2,4,-1,6,8,-1,-1,-1,-1],"split_conditions":[2.19E2,3.73E0,7.22003E-2,3.51E0,3.75E0,-1.6117299E-2,-4.8256997E-2,1.22600034E-1,2.8646216E-3],"split_indices":[0,2,0,2,2,0,0,0,0],"split_type":[0,0,0,0,0,0,0,0,0],"sum_hessian":[3E1,2.9E1,1E0,1.2E1,1.7E1,7E0,5E0,1E0,1.6E1],"tree_param":{"num_deleted":"0","num_feature":"3","num_nodes":"9","size_leaf_vector":"1"}},{"base_weights":[1.0053469E-2,1.1411404E-1,-3.0338493E-1,-2.023285E-1,3.5459647E-1,-5.3320408E-2,-1.9438161E-1,4.1914512E-3,-3.4788374E-2,1.2953572E-1,8.98566E-3,9.348035E-4,-3.4951586E-2],"categories":[],"categories_nodes":[],"categories_segments":[],"categories_sizes":[],"default_left":[1,0,0,0,0,0,0,0,0,0,0,0,0],"id":28,"left_children":[1,3,5,7,9,-1,11,-1,-1,-1,-1,-1,-1],"loss_changes":[1.0457344E0,1.8981178E0,9.676331E-2,4.056407E-1,3.370399E0,0E0,2.2450542E-1,0E0,0E0,0E0,0E0,0E0,0E0],"parents":[2147483647,0,0,1,1,2,2,3,3,4,4,6,6],"right_children":[2,4,6,8,10,-1,12,-1,-1,-1,-1,-1,-1],"split_conditions":[4.773168E0,3.950495E0,6.4E1,3.51E0,4.100891E0,-5.3320408E-2,9.7E1,4.1914512E-3,-3.4788374E-2,1.2953572E-1,8.98566E-3,9.348035E-4,-3.4951586E-2],"split_indices":[1,1,0,2,1,0,0,0,0,0,0,0,0],"split_type":[0,0,0,0,0,0,0,0,0,0,0,0,0],"sum_hessian":[3E1,2.3E1,7E0,1E1,1.3E1,1E0,6E0,4E0,6E0,2E0,1.1E1,3E0,3E0],"tree_param":{"num_deleted":"0","num_feature":"3","num_nodes":"13","size_leaf_vector":"1"}},{"base_weights":[9.712292E-3,-3.5391286E-2,6.814098E-2,-2.880069E-1,1.4901951E-1,-1.4704359E-2,-4.2795684E-2,1.0999327E-1,2.8381515E-3],"categories":[],"categories_nodes":[],"categories_segments":[],"categories_sizes":[],"default_left":[0,0,0,0,0,0,0,0,0],"id":29,"left_children":[1,3,-1,5,7,-1,-1,-1,-1],"loss_changes":[9.6329087E-1,1.4404699E0,0E0,1.9353318E-1,2.0336747E0,0E0,0E0,0E0,0E0],"parents":[2147483647,0,0,1,1,3,3,4,4],"right_children":[2,4,-1,6,8,-1,-1,-1,-1],"split_conditions":[2.19E2,3.73E0,6.814098E-2,3.51E0,3.75E0,-1.4704359E-2,-4.2795684E-2,1.0999327E-1,2.8381515E-3],"split_indices":[0,2,0,2,2,0,0,0,0],"split_type":[0,0,0,0,0,0,0,0,0],"sum_hessian":[3E1,2.9E1,1E0,1.2E1,1.7E1,7E0,5E0,1E0,1.6E1],"tree_param":{"num_deleted":"0","num_feature":"3","num_nodes":"9","size_leaf_vector":"1"}},{"base_weights":[1.2724049E-2,1.1118661E-1,-2.8425413E-1,-1.6863257E-1,3.2310262E-1,-5.0796296E-2,-1.797296E-1,5.0324867E-3,-3.0094037E-2,1.1713896E-1,8.410567E-3,6.5183046E-4,-3.210451E-2],"categories":[],"categories_nodes":[],"categories_segments":[],"categories_sizes":[],"default_left":[1,0,0,0,0,0,0,0,0,0,0,0,0],"id":30,"left_children":[1,3,5,7,9,-1,11,-1,-1,-1,-1,-1,-1],"loss_changes":[9.380834E-1,1.4776417E0,9.576851E-2,3.3381227E-1,2.7398114E0,0E0,1.8633069E-1,0E0,0E0,0E0,0E0,0E0,0E0],"parents":[2147483647,0,0,1,1,2,2,3,3,4,4,6,6],"right_children":[2,4,6,8,10,-1,12,-1,-1,-1,-1,-1,-1],"split_conditions":[4.773168E0,3.950495E0,6.4E1,3.51E0,4.100891E0,-5.0796296E-2,9.7E1,5.0324867E-3,-3.0094037E-2,1.1713896E-1,8.410567E-3,6.5183046E-4,-3.210451E-2],"split_indices":[1,1,0,2,1,0,0,0,0,0,0,0,0],"split_type":[0,0,0,0,0,0,0,0,0,0,0,0,0],"sum_hessian":[3E1,2.3E1,7E0,1E1,1.3E1,1E0,6E0,4E0,6E0,2E0,1.1E1,3E0,3E0],"tree_param":{"num_deleted":"0","num_feature":"3","num_nodes":"13","size_leaf_vector":"1"}},{"base_weights":[1.204005E-2,-3.0434223E-2,6.431341E-2,-2.5835127E-1,1.3586332E-1,-3.457154E-2,-9.880722E-3,9.863668E-2,2.781213E-3],"categories":[],"categories_nodes":[],"categories_segments":[],"categories_sizes":[],"default_left":[0,0,0,0,0,0,0,0,0],"id":31,"left_children":[1,3,-1,5,7,-1,-1,-1,-1],"loss_changes":[8.505364E-1,1.1721618E0,0E0,1.4704037E-1,1.6267292E0,0E0,0E0,0E0,0E0],"parents":[2147483647,0,0,1,1,3,3,4,4],"right_children":[2,4,-1,6,8,-1,-1,-1,-1],"split_conditions":[2.19E2,3.73E0,6.431341E-2,1.14E2,3.75E0,-3.457154E-2,-9.880722E-3,9.863668E-2,2.781213E-3],"split_indices":[0,2,0,0,2,0,0,0,0],"split_type":[0,0,0,0,0,0,0,0,0],"sum_hessian":[3E1,2.9E1,1E0,1.2E1,1.7E1,7E0,5E0,1E0,1.6E1],"tree_param":{"num_deleted":"0","num_feature":"3","num_nodes":"9","size_leaf_vector":"1"}},{"base_weights":[1.47482315E-2,1.0803669E-1,-2.6696068E-1,-1.6598639E-1,2.835163E-1,-4.839554E-2,-1.6682495E-1,5.9141587E-3,-3.2592863E-2,8.258494E-2,7.911226E-3,-5.583906E-3,-4.1637015E-2],"categories":[],"categories_nodes":[],"categories_segments":[],"categories_sizes":[],"default_left":[1,0,0,0,0,0,0,0,0,0,0,0,0],"id":32,"left_children":[1,3,5,7,9,-1,11,-1,-1,-1,-1,-1,-1],"loss_changes":[8.4352744E-1,1.201111E0,9.309554E-2,3.7935072E-1,1.5974913E0,0E0,1.7062224E-1,0E0,0E0,0E0,0E0,0E0,0E0],"parents":[2147483647,0,0,1,1,2,2,3,3,4,4,6,6],"right_children":[2,4,6,8,10,-1,12,-1,-1,-1,-1,-1,-1],"split_conditions":[4.773168E0,3.8223763E0,6.4E1,3.51E0,4.100891E0,-4.839554E-2,1.23E2,5.9141587E-3,-3.2592863E-2,8.258494E-2,7.911226E-3,-5.583906E-3,-4.1637015E-2],"split_indices":[1,1,0,2,1,0,0,0,0,0,0,0,0],"split_type":[0,0,0,0,0,0,0,0,0,0,0,0,0],"sum_hessian":[3E1,2.3E1,7E0,9E0,1.4E1,1E0,6E0,4E0,5E0,3E0,1.1E1,5E0,1E0],"tree_param":{"num_deleted":"0","num_feature":"3","num_nodes":"13","size_leaf_vector":"1"}},{"base_weights":[1.2247597E-2,-2.7812239E-2,6.0702134E-2,-2.3832506E-1,1.2576991E-1,-1.196951E-2,-3.567775E-2,8.957558E-2,2.778512E-3],"categories":[],"categories_nodes":[],"categories_segments":[],"categories_sizes":[],"default_left":[0,0,0,0,0,0,0,0,0],"id":33,"left_children":[1,3,-1,5,7,-1,-1,-1,-1],"loss_changes":[7.555053E-1,9.999045E-1,0E0,1.3997155E-1,1.3331558E0,0E0,0E0,0E0,0E0],"parents":[2147483647,0,0,1,1,3,3,4,4],"right_children":[2,4,-1,6,8,-1,-1,-1,-1],"split_conditions":[2.19E2,3.73E0,6.0702134E-2,3.51E0,3.75E0,-1.196951E-2,-3.567775E-2,8.957558E-2,2.778512E-3],"split_indices":[0,2,0,2,2,0,0,0,0],"split_type":[0,0,0,0,0,0,0,0,0],"sum_hessian":[3E1,2.9E1,1E0,1.2E1,1.7E1,7E0,5E0,1E0,1.6E1],"tree_param":{"num_deleted":"0","num_feature":"3","num_nodes":"9","size_leaf_vector":"1"}},{"base_weights":[1.4423136E-2,1.02897994E-1,-2.5280434E-1,-2.9763573E-1,1.9788653E-1,-4.6114683E-2,-1.5716301E-1,-4.4851627E-2,-4.7543286E-3,2.4626274E-3,4.546986E-2,-5.350121E-3,-3.895669E-2],"categories":[],"categories_nodes":[],"categories_segments":[],"categories_sizes":[],"default_left":[1,0,0,0,0,0,0,0,0,0,0,0,0],"id":34,"left_children":[1,3,5,7,9,-1,11,-1,-1,-1,-1,-1,-1],"loss_changes":[7.5894344E-1,9.720047E-1,8.693397E-2,1.6734645E-1,8.787091E-1,0E0,1.4779752E-1,0E0,0E0,0E0,0E0,0E0,0E0],"parents":[2147483647,0,0,1,1,2,2,3,3,4,4,6,6],"right_children":[2,4,6,8,10,-1,12,-1,-1,-1,-1,-1,-1],"split_conditions":[4.773168E0,3.049505E0,6.4E1,1.14E2,9.5E1,-4.6114683E-2,1.23E2,-4.4851627E-2,-4.7543286E-3,2.4626274E-3,4.546986E-2,-5.350121E-3,-3.895669E-2],"split_indices":[1,1,0,0,0,0,0,0,0,0,0,0,0],"split_type":[0,0,0,0,0,0,0,0,0,0,0,0,0],"sum_hessian":[3E1,2.3E1,7E0,4E0,1.9E1,1E0,6E0,2E0,2E0,1.2E1,7E0,5E0,1E0],"tree_param":{"num_deleted":"0","num_feature":"3","num_nodes":"13","size_leaf_vector":"1"}},{"base_weights":[1.0009931E-2,9.2538364E-2,-2.388266E-1,-1.3657676E-1,2.3911256E-1,-4.380895E-2,-1.4777626E-1,5.630107E-3,-2.745455E-2,7.371425E-2,5.317652E-3,1.0060251E-3,-2.6866872E-2],"categories":[],"categories_nodes":[],"categories_segments":[],"categories_sizes":[],"default_left":[1,0,0,0,0,0,0,0,0,0,0,0,0],"id":35,"left_children":[1,3,5,7,9,-1,11,-1,-1,-1,-1,-1,-1],"loss_changes":[6.5871936E-1,8.3863395E-1,8.040437E-2,2.815683E-1,1.349827E0,0E0,1.3627158E-1,0E0,0E0,0E0,0E0,0E0,0E0],"parents":[2147483647,0,0,1,1,2,2,3,3,4,4,6,6],"right_children":[2,4,6,8,10,-1,12,-1,-1,-1,-1,-1,-1],"split_conditions":[4.773168E0,3.8223763E0,6.4E1,3.51E0,4.100891E0,-4.380895E-2,9.7E1,5.630107E-3,-2.745455E-2,7.371425E-2,5.317652E-3,1.0060251E-3,-2.6866872E-2],"split_indices":[1,1,0,2,1,0,0,0,0,0,0,0,0],"split_type":[0,0,0,0,0,0,0,0,0,0,0,0,0],"sum_hessian":[3E1,2.3E1,7E0,9E0,1.4E1,1E0,6E0,4E0,5E0,3E0,1.1E1,3E0,3E0],"tree_param":{"num_deleted":"0","num_feature":"3","num_nodes":"13","size_leaf_vector":"1"}},{"base_weights":[8.6068995E-3,-2.7857952E-2,5.512762E-2,-2.215285E-1,1.1356289E-1,-2.968058E-2,-8.423737E-3,7.913756E-2,2.7140041E-3],"categories":[],"categories_nodes":[],"categories_segments":[],"categories_sizes":[],"default_left":[0,0,0,0,0,0,0,0,0],"id":36,"left_children":[1,3,-1,5,7,-1,-1,-1,-1],"loss_changes":[6.2879646E-1,8.4682894E-1,0E0,1.09351575E-1,1.0329351E0,0E0,0E0,0E0,0E0],"parents":[2147483647,0,0,1,1,3,3,4,4],"right_children":[2,4,-1,6,8,-1,-1,-1,-1],"split_conditions":[2.19E2,3.73E0,5.512762E-2,1.14E2,3.75E0,-2.968058E-2,-8.423737E-3,7.913756E-2,2.7140041E-3],"split_indices":[0,2,0,0,2,0,0,0,0],"split_type":[0,0,0,0,0,0,0,0,0],"sum_hessian":[3E1,2.9E1,1E0,1.2E1,1.7E1,7E0,5E0,1E0,1.6E1],"tree_param":{"num_deleted":"0","num_feature":"3","num_nodes":"9","size_leaf_vector":"1"}},{"base_weights":[1.093568E-2,8.248198E-2,-2.4614906E-1,-2.538218E-1,1.5862659E-1,-4.1754197E-2,-1.4799325E-1,-3.805251E-2,-4.2511225E-3,6.89215E-3,5.2264284E-2,7.270217E-4,-3.0568013E-2],"categories":[],"categories_nodes":[],"categories_segments":[],"categories_sizes":[],"default_left":[1,0,0,0,0,0,0,0,0,0,0,0,0],"id":37,"left_children":[1,3,5,7,9,-1,11,-1,-1,-1,-1,-1,-1],"loss_changes":[5.905001E-1,6.8045586E-1,5.596909E-2,1.1769208E-1,6.4971495E-1,0E0,1.491204E-1,0E0,0E0,0E0,0E0,0E0,0E0],"parents":[2147483647,0,0,1,1,2,2,3,3,4,4,6,6],"right_children":[2,4,6,8,10,-1,12,-1,-1,-1,-1,-1,-1],"split_conditions":[5.7722774E0,3.049505E0,6.4E1,1.14E2,1.35E2,-4.1754197E-2,9.7E1,-3.805251E-2,-4.2511225E-3,6.89215E-3,5.2264284E-2,7.270217E-4,-3.0568013E-2],"split_indices":[1,1,0,0,0,0,0,0,0,0,0,0,0],"split_type":[0,0,0,0,0,0,0,0,0,0,0,0,0],"sum_hessian":[3E1,2.4E1,6E0,4E0,2E1,1E0,5E0,2E0,2E0,1.7E1,3E0,3E0,2E0],"tree_param":{"num_deleted":"0","num_feature":"3","num_nodes":"13","size_leaf_vector":"1"}},{"base_weights":[8.076225E-3,8.1401125E-2,-2.12908E-1,-1.0140379E-1,2.192192E-1,-3.9666485E-2,-1.2999061E-1,5.2656652E-3,-1.969607E-2,8.7665014E-2,3.659318E-3,-3.926933E-3,-3.3715915E-2],"categories":[],"categories_nodes":[],"categories_segments":[],"categories_sizes":[],"default_left":[1,0,0,0,0,0,0,0,0,0,0,0,0],"id":38,"left_children":[1,3,5,7,9,-1,11,-1,-1,-1,-1,-1,-1],"loss_changes":[5.19644E-1,6.268813E-1,7.033041E-2,1.7230827E-1,1.6488165E0,0E0,1.1832215E-1,0E0,0E0,0E0,0E0,0E0,0E0],"parents":[2147483647,0,0,1,1,2,2,3,3,4,4,6,6],"right_children":[2,4,6,8,10,-1,12,-1,-1,-1,-1,-1,-1],"split_conditions":[4.773168E0,3.950495E0,6.4E1,3.51E0,4.100891E0,-3.9666485E-2,1.23E2,5.2656652E-3,-1.969607E-2,8.7665014E-2,3.659318E-3,-3.926933E-3,-3.3715915E-2],"split_indices":[1,1,0,2,1,0,0,0,0,0,0,0,0],"split_type":[0,0,0,0,0,0,0,0,0,0,0,0,0],"sum_hessian":[3E1,2.3E1,7E0,1E1,1.3E1,1E0,6E0,4E0,6E0,2E0,1.1E1,5E0,1E0],"tree_param":{"num_deleted":"0","num_feature":"3","num_nodes":"13","size_leaf_vector":"1"}},{"base_weights":[7.2552427E-3,-2.5552945E-2,4.9575042E-2,-1.9625579E-1,9.915205E-2,-9.244161E-3,-3.0196538E-2,7.045283E-2,2.2098836E-3],"categories":[],"categories_nodes":[],"categories_segments":[],"categories_sizes":[],"default_left":[0,0,0,0,0,0,0,0,0],"id":39,"left_children":[1,3,-1,5,7,-1,-1,-1,-1],"loss_changes":[5.0949377E-1,6.5808403E-1,0E0,1.1474985E-1,8.240621E-1,0E0,0E0,0E0,0E0],"parents":[2147483647,0,0,1,1,3,3,4,4],"right_children":[2,4,-1,6,8,-1,-1,-1,-1],"split_conditions":[2.19E2,3.73E0,4.9575042E-2,3.950495E0,3.75E0,-9.244161E-3,-3.0196538E-2,7.045283E-2,2.2098836E-3],"split_indices":[0,2,0,1,2,0,0,0,0],"split_type":[0,0,0,0,0,0,0,0,0],"sum_hessian":[3E1,2.9E1,1E0,1.2E1,1.7E1,7E0,5E0,1E0,1.6E1],"tree_param":{"num_deleted":"0","num_feature":"3","num_nodes":"9","size_leaf_vector":"1"}},{"base_weights":[9.200669E-3,7.82721E-2,-1.991637E-1,-2.2373278E-1,1.4985971E-1,-3.7793662E-2,-1.1963378E-1,-3.3586316E-2,-3.7024815E-3,1.7491635E-3,3.462254E-2,-3.7838419E-3,-3.0520296E-2],"categories":[],"categories_nodes":[],"categories_segments":[],"categories_sizes":[],"default_left":[1,0,0,0,0,0,0,0,0,0,0,0,0],"id":40,"left_children":[1,3,5,7,9,-1,11,-1,-1,-1,-1,-1,-1],"loss_changes":[4.6174175E-1,5.52404E-1,6.8528384E-2,9.22429E-2,5.1379484E-1,0E0,9.470249E-2,0E0,0E0,0E0,0E0,0E0,0E0],"parents":[2147483647,0,0,1,1,2,2,3,3,4,4,6,6],"right_children":[2,4,6,8,10,-1,12,-1,-1,-1,-1,-1,-1],"split_conditions":[4.773168E0,3.049505E0,6.4E1,1.14E2,9.5E1,-3.7793662E-2,1.23E2,-3.3586316E-2,-3.7024815E-3,1.7491635E-3,3.462254E-2,-3.7838419E-3,-3.0520296E-2],"split_indices":[1,1,0,0,0,0,0,0,0,0,0,0,0],"split_type":[0,0,0,0,0,0,0,0,0,0,0,0,0],"sum_hessian":[3E1,2.3E1,7E0,4E0,1.9E1,1E0,6E0,2E0,2E0,1.2E1,7E0,5E0,1E0],"tree_param":{"num_deleted":"0","num_feature":"3","num_nodes":"13","size_leaf_vector":"1"}},{"base_weights":[5.925321E-3,-2.4120629E-2,4.5365192E-2,-1.8010773E-1,8.9876756E-2,-7.979594E-3,-2.8383885E-2,6.519909E-2,1.8458816E-3],"categories":[],"categories_nodes":[],"categories_segments":[],"categories_sizes":[],"default_left":[0,0,0,0,0,0,0,0,0],"id":41,"left_children":[1,3,-1,5,7,-1,-1,-1,-1],"loss_changes":[4.2796588E-1,5.4965115E-1,0E0,1.12621695E-1,7.105757E-1,0E0,0E0,0E0,0E0],"parents":[2147483647,0,0,1,1,3,3,4,4],"right_children":[2,4,-1,6,8,-1,-1,-1,-1],"split_conditions":[2.19E2,3.73E0,4.5365192E-2,3.950495E0,3.75E0,-7.979594E-3,-2.8383885E-2,6.519909E-2,1.8458816E-3],"split_indices":[0,2,0,1,2,0,0,0,0],"split_type":[0,0,0,0,0,0,0,0,0],"sum_hessian":[3E1,2.9E1,1E0,1.2E1,1.7E1,7E0,5E0,1E0,1.6E1],"tree_param":{"num_deleted":"0","num_feature":"3","num_nodes":"9","size_leaf_vector":"1"}},{"base_weights":[7.785901E-3,7.208876E-2,-1.8609592E-1,-2.0243362E-1,1.3711491E-1,-3.599627E-2,-1.0983457E-1,-3.0815257E-2,-2.9236793E-3,5.922022E-3,4.338887E-2,9.4664097E-4,-2.0167692E-2],"categories":[],"categories_nodes":[],"categories_segments":[],"categories_sizes":[],"default_left":[1,0,0,0,0,0,0,0,0,0,0,0,0],"id":42,"left_children":[1,3,5,7,9,-1,11,-1,-1,-1,-1,-1,-1],"loss_changes":[3.9989728E-1,4.561839E-1,6.6538185E-2,8.2541525E-2,4.3664712E-1,0E0,7.860731E-2,0E0,0E0,0E0,0E0,0E0,0E0],"parents":[2147483647,0,0,1,1,2,2,3,3,4,4,6,6],"right_children":[2,4,6,8,10,-1,12,-1,-1,-1,-1,-1,-1],"split_conditions":[4.773168E0,3.049505E0,6.4E1,1.14E2,1.35E2,-3.599627E-2,9.7E1,-3.0815257E-2,-2.9236793E-3,5.922022E-3,4.338887E-2,9.4664097E-4,-2.0167692E-2],"split_indices":[1,1,0,0,0,0,0,0,0,0,0,0,0],"split_type":[0,0,0,0,0,0,0,0,0,0,0,0,0],"sum_hessian":[3E1,2.3E1,7E0,4E0,1.9E1,1E0,6E0,2E0,2E0,1.6E1,3E0,3E0,3E0],"tree_param":{"num_deleted":"0","num_feature":"3","num_nodes":"13","size_leaf_vector":"1"}},{"base_weights":[5.728441E-3,-3.205251E-2,3.9281275E-2,3.0673575E-1,-3.3763875E-3,6.4368406E-3,5.169189E-2,-3.6253408E-3,4.092746E-2],"categories":[],"categories_nodes":[],"categories_segments":[],"categories_sizes":[],"default_left":[0,0,0,0,0,0,0,0,0],"id":43,"left_children":[1,-1,3,5,7,-1,-1,-1,-1],"loss_changes":[3.5193926E-1,0E0,3.318962E-1,1.7049289E-1,3.675727E-1,0E0,0E0,0E0,0E0],"parents":[2147483647,0,0,2,2,3,3,4,4],"right_children":[2,-1,4,6,8,-1,-1,-1,-1],"split_conditions":[6.5E1,-3.205251E-2,7.4E1,7.3E1,2.19E2,6.4368406E-3,5.169189E-2,-3.6253408E-3,4.092746E-2],"split_indices":[0,0,0,0,0,0,0,0,0],"split_type":[0,0,0,0,0,0,0,0,0],"sum_hessian":[3E1,2E0,2.8E1,3E0,2.5E1,2E0,1E0,2.4E1,1E0],"tree_param":{"num_deleted":"0","num_feature":"3","num_nodes":"9","size_leaf_vector":"1"}},{"base_weights":[7.2000525E-3,6.0440917E-2,-1.8397447E-1,-2.9571285E-4,3.034466E-1,-3.2593835E-2,-1.0599077E-1,-1.8622957E-2,1.5467382E-2,-2.723837E-3,3.929274E-2,1.1475384E-3,-2.2728205E-2],"categories":[],"categories_nodes":[],"categories_segments":[],"categories_sizes":[],"default_left":[1,0,0,0,0,0,0,0,0,0,0,0,0],"id":44,"left_children":[1,3,5,7,9,-1,11,-1,-1,-1,-1,-1,-1],"loss_changes":[3.2664678E-1,3.690734E-1,4.2949647E-2,6.339006E-1,1.5865248E-1,0E0,8.809388E-2,0E0,0E0,0E0,0E0,0E0,0E0],"parents":[2147483647,0,0,1,1,2,2,3,3,4,4,6,6],"right_children":[2,4,6,8,10,-1,12,-1,-1,-1,-1,-1,-1],"split_conditions":[5.7722774E0,1.35E2,6.4E1,3.73E0,2.8043563E0,-3.2593835E-2,9.7E1,-1.8622957E-2,1.5467382E-2,-2.723837E-3,3.929274E-2,1.1475384E-3,-2.2728205E-2],"split_indices":[1,0,0,2,1,0,0,0,0,0,0,0,0],"split_type":[0,0,0,0,0,0,0,0,0,0,0,0,0],"sum_hessian":[3E1,2.4E1,6E0,2E1,4E0,1E0,5E0,9E0,1.1E1,1E0,3E0,3E0,2E0],"tree_param":{"num_deleted":"0","num_feature":"3","num_nodes":"13","size_leaf_vector":"1"}},{"base_weights":[5.8104033E-3,6.092855E-2,-1.6027033E-1,1.2596678E-2,3.9505276E-1,-3.096415E-2,-9.46971E-2,-1.243257E-2,1.6082138E-2,1.0923982E-2,4.833393E-2,-2.6316603E-3,-2.5249004E-2],"categories":[],"categories_nodes":[],"categories_segments":[],"categories_sizes":[],"default_left":[1,0,0,0,0,0,0,0,0,0,0,0,0],"id":45,"left_children":[1,3,5,7,9,-1,11,-1,-1,-1,-1,-1,-1],"loss_changes":[2.9354095E-1,3.8259602E-1,4.9035862E-2,4.664904E-1,2.2900403E-2,0E0,6.8885036E-2,0E0,0E0,0E0,0E0,0E0,0E0],"parents":[2147483647,0,0,1,1,2,2,3,3,4,4,6,6],"right_children":[2,4,6,8,10,-1,12,-1,-1,-1,-1,-1,-1],"split_conditions":[4.773168E0,5.5E0,6.4E1,9.5E1,6.6E1,-3.096415E-2,1.23E2,-1.243257E-2,1.6082138E-2,1.0923982E-2,4.833393E-2,-2.6316603E-3,-2.5249004E-2],"split_indices":[1,2,0,0,0,0,0,0,0,0,0,0,0],"split_type":[0,0,0,0,0,0,0,0,0,0,0,0,0],"sum_hessian":[3E1,2.3E1,7E0,2.1E1,2E0,1E0,6E0,1.1E1,1E1,1E0,1E0,5E0,1E0],"tree_param":{"num_deleted":"0","num_feature":"3","num_nodes":"13","size_leaf_vector":"1"}},{"base_weights":[5.3604343E-3,-1.853579E-2,3.6112357E-2,8.977473E-2,-1.3283129E-1,-5.8035264E-3,5.4771353E-2,-1.5714465E-2,1.0377789E-2],"categories":[],"categories_nodes":[],"categories_segments":[],"categories_sizes":[],"default_left":[0,1,0,1,0,0,0,0,0],"id":46,"left_children":[1,3,-1,5,7,-1,-1,-1,-1],"loss_changes":[2.7023694E-1,3.8330704E-1,0E0,1.1147935E0,1.0259959E-1,0E0,0E0,0E0,0E0],"parents":[2147483647,0,0,1,1,3,3,4,4],"right_children":[2,4,-1,6,8,-1,-1,-1,-1],"split_conditions":[2.19E2,4.1362376E0,3.6112357E-2,3.950495E0,5.88E0,-5.8035264E-3,5.4771353E-2,-1.5714465E-2,1.0377789E-2],"split_indices":[0,1,0,1,2,0,0,0,0],"split_type":[0,0,0,0,0,0,0,0,0],"sum_hessian":[3E1,2.9E1,1E0,1.5E1,1.4E1,1.2E1,3E0,1.3E1,1E0],"tree_param":{"num_deleted":"0","num_feature":"3","num_nodes":"9","size_leaf_vector":"1"}},{"base_weights":[7.396775E-3,-1.52278105E-2,3.4306716E-2,-1.3916518E-1,7.51285E-2,-8.671096E-3,-2.8510896E-2,5.750823E-2,1.1891085E-3],"categories":[],"categories_nodes":[],"categories_segments":[],"categories_sizes":[],"default_left":[0,0,0,0,0,0,0,0,0],"id":47,"left_children":[1,3,-1,5,7,-1,-1,-1,-1],"loss_changes":[2.4065068E-1,3.46411E-1,0E0,7.479772E-2,5.622458E-1,0E0,0E0,0E0,0E0],"parents":[2147483647,0,0,1,1,3,3,4,4],"right_children":[2,4,-1,6,8,-1,-1,-1,-1],"split_conditions":[2.19E2,3.73E0,3.4306716E-2,3.56E0,3.75E0,-8.671096E-3,-2.8510896E-2,5.750823E-2,1.1891085E-3],"split_indices":[0,2,0,2,2,0,0,0,0],"split_type":[0,0,0,0,0,0,0,0,0],"sum_hessian":[3E1,2.9E1,1E0,1.2E1,1.7E1,1E1,2E0,1E0,1.6E1],"tree_param":{"num_deleted":"0","num_feature":"3","num_nodes":"9","size_leaf_vector":"1"}},{"base_weights":[8.457811E-3,-2.5464868E-2,3.5384074E-2,2.625469E-1,-9.2497695E-4,6.2601245E-3,4.3119192E-2,-2.703509E-3,3.259139E-2],"categories":[],"categories_nodes":[],"categories_segments":[],"categories_sizes":[],"default_left":[0,0,0,0,0,0,0,0,0],"id":48,"left_children":[1,-1,3,5,7,-1,-1,-1,-1],"loss_changes":[2.2862925E-1,0E0,2.3943678E-1,1.07886195E-1,2.306899E-1,0E0,0E0,0E0,0E0],"parents":[2147483647,0,0,2,2,3,3,4,4],"right_children":[2,-1,4,6,8,-1,-1,-1,-1],"split_conditions":[6.5E1,-2.5464868E-2,7.4E1,7.3E1,2.19E2,6.2601245E-3,4.3119192E-2,-2.703509E-3,3.259139E-2],"split_indices":[0,0,0,0,0,0,0,0,0],"split_type":[0,0,0,0,0,0,0,0,0],"sum_hessian":[3E1,2E0,2.8E1,3E0,2.5E1,2E0,1E0,2.4E1,1E0],"tree_param":{"num_deleted":"0","num_feature":"3","num_nodes":"9","size_leaf_vector":"1"}},{"base_weights":[9.3476195E-3,5.6222633E-2,-1.3244587E-1,-1.6377142E-1,1.08410016E-1,-2.7416432E-2,-7.303405E-2,-2.5592793E-2,-1.7024437E-3,1.417536E-3,2.4799008E-2,-9.766142E-4,-2.2632075E-2],"categories":[],"categories_nodes":[],"categories_segments":[],"categories_sizes":[],"default_left":[1,0,0,0,0,0,0,0,0,0,0,0,0],"id":49,"left_children":[1,3,5,7,9,-1,11,-1,-1,-1,-1,-1,-1],"loss_changes":[2.1349017E-1,2.9329637E-1,4.7334686E-2,6.326142E-2,2.595502E-1,0E0,6.5676615E-2,0E0,0E0,0E0,0E0,0E0,0E0],"parents":[2147483647,0,0,1,1,2,2,3,3,4,4,6,6],"right_children":[2,4,6,8,10,-1,12,-1,-1,-1,-1,-1,-1],"split_conditions":[4.773168E0,3.049505E0,6.4E1,1.14E2,9.5E1,-2.7416432E-2,1.23E2,-2.5592793E-2,-1.7024437E-3,1.417536E-3,2.4799008E-2,-9.766142E-4,-2.2632075E-2],"split_indices":[1,1,0,0,0,0,0,0,0,0,0,0,0],"split_type":[0,0,0,0,0,0,0,0,0,0,0,0,0],"sum_hessian":[3E1,2.3E1,7E0,4E0,1.9E1,1E0,6E0,2E0,2E0,1.2E1,7E0,5E0,1E0],"tree_param":{"num_deleted":"0","num_feature":"3","num_nodes":"13","size_leaf_vector":"1"}},{"base_weights":[6.732037E-3,5.0555363E-2,-1.2557945E-1,9.416857E-3,3.3538595E-1,-2.604561E-2,-6.9103345E-2,-5.5914447E-3,2.4272619E-2,9.415555E-3,4.089234E-2,-8.9523394E-4,-2.1500468E-2],"categories":[],"categories_nodes":[],"categories_segments":[],"categories_sizes":[],"default_left":[1,0,0,0,0,0,0,0,0,0,0,0,0],"id":50,"left_children":[1,3,5,7,9,-1,11,-1,-1,-1,-1,-1,-1],"loss_changes":[1.8609692E-1,2.7806184E-1,4.294008E-2,3.489048E-1,1.4715999E-2,0E0,5.950799E-2,0E0,0E0,0E0,0E0,0E0,0E0],"parents":[2147483647,0,0,1,1,2,2,3,3,4,4,6,6],"right_children":[2,4,6,8,10,-1,12,-1,-1,-1,-1,-1,-1],"split_conditions":[4.773168E0,5.5E0,6.4E1,1.35E2,6.6E1,-2.604561E-2,1.23E2,-5.5914447E-3,2.4272619E-2,9.415555E-3,4.089234E-2,-8.9523394E-4,-2.1500468E-2],"split_indices":[1,2,0,0,0,0,0,0,0,0,0,0,0],"split_type":[0,0,0,0,0,0,0,0,0,0,0,0,0],"sum_hessian":[3E1,2.3E1,7E0,2.1E1,2E0,1E0,6E0,1.7E1,4E0,1E0,1E0,5E0,1E0],"tree_param":{"num_deleted":"0","num_feature":"3","num_nodes":"13","size_leaf_vector":"1"}},{"base_weights":[6.7216237E-3,8.054427E-2,-6.7521125E-2,-4.4837575E-2,4.678992E-1,-1.10033445E-1,2.8508186E-2,-1.5435298E-2,2.0986267E-3,6.177022E-2,9.245157E-4,-2.0179955E-2,-4.3970444E-3],"categories":[],"categories_nodes":[],"categories_segments":[],"categories_sizes":[],"default_left":[1,1,0,0,0,0,0,0,0,0,0,0,0],"id":51,"left_children":[1,3,5,7,9,11,-1,-1,-1,-1,-1,-1,-1],"loss_changes":[1.7534313E-1,7.980559E-1,2.712081E-1,9.695272E-2,2.6912016E-1,8.206196E-2,0E0,0E0,0E0,0E0,0E0,0E0,0E0],"parents":[2147483647,0,0,1,1,2,2,3,3,4,4,5,5],"right_children":[2,4,6,8,10,12,-1,-1,-1,-1,-1,-1,-1],"split_conditions":[4.1362376E0,3.950495E0,1.57E2,3.049505E0,4.100891E0,3.64E0,2.8508186E-2,-1.5435298E-2,2.0986267E-3,6.177022E-2,9.245157E-4,-2.0179955E-2,-4.3970444E-3],"split_indices":[1,1,0,1,1,2,0,0,0,0,0,0,0],"split_type":[0,0,0,0,0,0,0,0,0,0,0,0,0],"sum_hessian":[3E1,1.5E1,1.5E1,1.2E1,3E0,1.4E1,1E0,4E0,8E0,2E0,1E0,5E0,9E0],"tree_param":{"num_deleted":"0","num_feature":"3","num_nodes":"13","size_leaf_vector":"1"}},{"base_weights":[7.768473E-3,-2.1026786E-2,3.0056078E-2,-5.8492742E-2,9.600188E-2,-1.0850511E-2,2.7082777E-2,5.071907E-2,3.8603158E-3],"categories":[],"categories_nodes":[],"categories_segments":[],"categories_sizes":[],"default_left":[0,0,0,0,0,0,0,0,0],"id":52,"left_children":[1,-1,3,5,7,-1,-1,-1,-1],"loss_changes":[1.5696457E-1,0E0,1.7495868E-1,2.4349743E-1,3.816499E-1,0E0,0E0,0E0,0E0],"parents":[2147483647,0,0,2,2,3,3,4,4],"right_children":[2,-1,4,6,8,-1,-1,-1,-1],"split_conditions":[6.5E1,-2.1026786E-2,3.73E0,2.19E2,3.75E0,-1.0850511E-2,2.7082777E-2,5.071907E-2,3.8603158E-3],"split_indices":[0,0,2,0,2,0,0,0,0],"split_type":[0,0,0,0,0,0,0,0,0],"sum_hessian":[3E1,2E0,2.8E1,1.2E1,1.6E1,1.1E1,1E0,1E0,1.5E1],"tree_param":{"num_deleted":"0","num_feature":"3","num_nodes":"9","size_leaf_vector":"1"}},{"base_weights":[8.59754E-3,4.8333284E-2,-1.1168438E-1,-6.708089E-2,1.2205385E-1,-2.347213E-2,-6.0576063E-2,5.552759E-3,-1.5807448E-2,4.484119E-2,3.09668E-4,-1.5695589E-2,9.367037E-4],"categories":[],"categories_nodes":[],"categories_segments":[],"categories_sizes":[],"default_left":[1,0,0,0,0,0,0,0,0,0,0,0,0],"id":53,"left_children":[1,3,5,7,9,-1,11,-1,-1,-1,-1,-1,-1],"loss_changes":[1.5356232E-1,2.1238902E-1,3.6087178E-2,1.2034335E-1,5.8095086E-1,0E0,4.865793E-2,0E0,0E0,0E0,0E0,0E0,0E0],"parents":[2147483647,0,0,1,1,2,2,3,3,4,4,6,6],"right_children":[2,4,6,8,10,-1,12,-1,-1,-1,-1,-1,-1],"split_conditions":[4.773168E0,3.8223763E0,6.4E1,3.51E0,4.100891E0,-2.347213E-2,3.98E0,5.552759E-3,-1.5807448E-2,4.484119E-2,3.09668E-4,-1.5695589E-2,9.367037E-4],"split_indices":[1,1,0,2,1,0,2,0,0,0,0,0,0],"split_type":[0,0,0,0,0,0,0,0,0,0,0,0,0],"sum_hessian":[3E1,2.3E1,7E0,9E0,1.4E1,1E0,6E0,4E0,5E0,3E0,1.1E1,2E0,4E0],"tree_param":{"num_deleted":"0","num_feature":"3","num_nodes":"13","size_leaf_vector":"1"}},{"base_weights":[7.6302444E-3,4.4954006E-2,-1.0529482E-1,1.0604149E-2,2.8186832E-2,-2.2298528E-2,-5.6626864E-2,-4.730595E-3,2.1695968E-2,3.0772209E-3,-1.2986923E-2],"categories":[],"categories_nodes":[],"categories_segments":[],"categories_sizes":[],"default_left":[1,0,0,0,0,0,0,0,0,0,0],"id":54,"left_children":[1,3,5,7,-1,-1,9,-1,-1,-1,-1],"loss_changes":[1.3539186E-1,1.9232237E-1,3.319508E-2,2.7316496E-1,0E0,0E0,4.8805565E-2,0E0,0E0,0E0,0E0],"parents":[2147483647,0,0,1,1,2,2,3,3,6,6],"right_children":[2,4,6,8,-1,-1,10,-1,-1,-1,-1],"split_conditions":[4.773168E0,5.5E0,6.4E1,1.35E2,2.8186832E-2,-2.2298528E-2,9.7E1,-4.730595E-3,2.1695968E-2,3.0772209E-3,-1.2986923E-2],"split_indices":[1,2,0,0,0,0,0,0,0,0,0],"split_type":[0,0,0,0,0,0,0,0,0,0,0],"sum_hessian":[3E1,2.3E1,7E0,2.1E1,2E0,1E0,6E0,1.7E1,4E0,3E0,3E0],"tree_param":{"num_deleted":"0","num_feature":"3","num_nodes":"11","size_leaf_vector":"1"}},{"base_weights":[7.2848066E-3,6.962312E-2,-5.5508807E-2,-3.5846446E-2,3.9499342E-1,-9.20472E-2,2.4628354E-2,-1.3072331E-2,2.0845865E-3,5.2061576E-2,9.063244E-4,-1.6651707E-2,-3.8160563E-3],"categories":[],"categories_nodes":[],"categories_segments":[],"categories_sizes":[],"default_left":[1,1,0,0,0,0,0,0,0,0,0,0,0],"id":55,"left_children":[1,3,5,7,9,11,-1,-1,-1,-1,-1,-1,-1],"loss_changes":[1.2521258E-1,5.6322575E-1,1.9910182E-1,7.2649285E-2,1.8920732E-1,5.3839564E-2,0E0,0E0,0E0,0E0,0E0,0E0,0E0],"parents":[2147483647,0,0,1,1,2,2,3,3,4,4,5,5],"right_children":[2,4,6,8,10,12,-1,-1,-1,-1,-1,-1,-1],"split_conditions":[4.1362376E0,3.950495E0,1.57E2,3.049505E0,4.100891E0,3.64E0,2.4628354E-2,-1.3072331E-2,2.0845865E-3,5.2061576E-2,9.063244E-4,-1.6651707E-2,-3.8160563E-3],"split_indices":[1,1,0,1,1,2,0,0,0,0,0,0,0],"split_type":[0,0,0,0,0,0,0,0,0,0,0,0,0],"sum_hessian":[3E1,1.5E1,1.5E1,1.2E1,3E0,1.4E1,1E0,4E0,8E0,2E0,1E0,5E0,9E0],"tree_param":{"num_deleted":"0","num_feature":"3","num_nodes":"13","size_leaf_vector":"1"}},{"base_weights":[8.044669E-3,4.1673627E-2,-9.384778E-2,-5.82394E-2,1.05504066E-1,-2.0992791E-2,-4.7275204E-2,4.8694275E-3,-1.3764423E-2,3.8354754E-2,4.0309035E-4,-1.3636629E-2,1.5634488E-3],"categories":[],"categories_nodes":[],"categories_segments":[],"categories_sizes":[],"default_left":[1,0,0,0,0,0,0,0,0,0,0,0,0],"id":56,"left_children":[1,3,5,7,9,-1,11,-1,-1,-1,-1,-1,-1],"loss_changes":[1.1013362E-1,1.5920432E-1,3.3324823E-2,9.1612995E-2,4.2166322E-1,0E0,4.1364867E-2,0E0,0E0,0E0,0E0,0E0,0E0],"parents":[2147483647,0,0,1,1,2,2,3,3,4,4,6,6],"right_children":[2,4,6,8,10,-1,12,-1,-1,-1,-1,-1,-1],"split_conditions":[4.773168E0,3.8223763E0,6.4E1,3.51E0,4.100891E0,-2.0992791E-2,3.98E0,4.8694275E-3,-1.3764423E-2,3.8354754E-2,4.0309035E-4,-1.3636629E-2,1.5634488E-3],"split_indices":[1,1,0,2,1,0,2,0,0,0,0,0,0],"split_type":[0,0,0,0,0,0,0,0,0,0,0,0,0],"sum_hessian":[3E1,2.3E1,7E0,9E0,1.4E1,1E0,6E0,4E0,5E0,3E0,1.1E1,2E0,4E0],"tree_param":{"num_deleted":"0","num_feature":"3","num_nodes":"13","size_leaf_vector":"1"}},{"base_weights":[7.136841E-3,-8.209765E-3,2.3376752E-2,-9.229298E-2,5.29731E-2,-4.9477136E-3,-2.1852009E-2,4.1656733E-2,7.0812425E-4],"categories":[],"categories_nodes":[],"categories_segments":[],"categories_sizes":[],"default_left":[0,0,0,0,0,0,0,0,0],"id":57,"left_children":[1,3,-1,5,7,-1,-1,-1,-1],"loss_changes":[1.0973753E-1,1.5922259E-1,0E0,5.9447013E-2,2.9739845E-1,0E0,0E0,0E0,0E0],"parents":[2147483647,0,0,1,1,3,3,4,4],"right_children":[2,4,-1,6,8,-1,-1,-1,-1],"split_conditions":[2.19E2,3.73E0,2.3376752E-2,3.56E0,3.75E0,-4.9477136E-3,-2.1852009E-2,4.1656733E-2,7.0812425E-4],"split_indices":[0,2,0,2,2,0,0,0,0],"split_type":[0,0,0,0,0,0,0,0,0],"sum_hessian":[3E1,2.9E1,1E0,1.2E1,1.7E1,1E1,2E0,1E0,1.6E1],"tree_param":{"num_deleted":"0","num_feature":"3","num_nodes":"9","size_leaf_vector":"1"}},{"base_weights":[7.679343E-3,-6.869964E-3,2.2207929E-2,4.197772E-2,-1.087631E-1,-2.863164E-3,1.3930482E-2,-1.624432E-2,-4.590249E-3],"categories":[],"categories_nodes":[],"categories_segments":[],"categories_sizes":[],"default_left":[0,1,0,1,0,0,0,0,0],"id":58,"left_children":[1,3,-1,5,7,-1,-1,-1,-1],"loss_changes":[9.822616E-2,1.5388294E-1,0E0,1.4830485E-1,2.6287094E-2,0E0,0E0,0E0,0E0],"parents":[2147483647,0,0,1,1,3,3,4,4],"right_children":[2,4,-1,6,8,-1,-1,-1,-1],"split_conditions":[2.19E2,4.504257E0,2.2207929E-2,3.950495E0,5.9352474E0,-2.863164E-3,1.3930482E-2,-1.624432E-2,-4.590249E-3],"split_indices":[0,1,0,1,1,0,0,0,0],"split_type":[0,0,0,0,0,0,0,0,0],"sum_hessian":[3E1,2.9E1,1E0,2E1,9E0,1.2E1,8E0,4E0,5E0],"tree_param":{"num_deleted":"0","num_feature":"3","num_nodes":"9","size_leaf_vector":"1"}},{"base_weights":[7.312686E-3,-1.6364915E-2,2.4746234E-2,-1.07077956E-1,5.012122E-2,-1.7518938E-2,-3.2738846E-4,1.5880937E-2,-1.036787E-3],"categories":[],"categories_nodes":[],"categories_segments":[],"categories_sizes":[],"default_left":[0,0,0,0,0,0,0,0,0],"id":59,"left_children":[1,-1,3,5,7,-1,-1,-1,-1],"loss_changes":[9.644431E-2,0E0,1.0237296E-1,3.4777667E-2,1.6600768E-1,0E0,0E0,0E0,0E0],"parents":[2147483647,0,0,2,2,3,3,4,4],"right_children":[2,-1,4,6,8,-1,-1,-1,-1],"split_conditions":[6.5E1,-1.6364915E-2,3.049505E0,1.14E2,4.100891E0,-1.7518938E-2,-3.2738846E-4,1.5880937E-2,-1.036787E-3],"split_indices":[0,0,1,0,1,0,0,0,0],"split_type":[0,0,0,0,0,0,0,0,0],"sum_hessian":[3E1,2E0,2.8E1,4E0,2.4E1,2E0,2E0,8E0,1.6E1],"tree_param":{"num_deleted":"0","num_feature":"3","num_nodes":"9","size_leaf_vector":"1"}},{"base_weights":[5.9566265E-3,-7.9443855E-3,2.114935E-2,5.542919E-2,-7.501324E-2,-3.0413482E-3,3.205606E-2,-9.616472E-3,4.1647595E-3],"categories":[],"categories_nodes":[],"categories_segments":[],"categories_sizes":[],"default_left":[0,1,0,1,0,0,0,0,0],"id":60,"left_children":[1,3,-1,5,7,-1,-1,-1,-1],"loss_changes":[9.0252474E-2,1.3166972E-1,0E0,3.7390274E-1,4.1018263E-2,0E0,0E0,0E0,0E0],"parents":[2147483647,0,0,1,1,3,3,4,4],"right_children":[2,4,-1,6,8,-1,-1,-1,-1],"split_conditions":[2.19E2,4.1362376E0,2.114935E-2,3.950495E0,5.78E0,-3.0413482E-3,3.205606E-2,-9.616472E-3,4.1647595E-3],"split_indices":[0,1,0,1,2,0,0,0,0],"split_type":[0,0,0,0,0,0,0,0,0],"sum_hessian":[3E1,2.9E1,1E0,1.5E1,1.4E1,1.2E1,3E0,1.2E1,2E0],"tree_param":{"num_deleted":"0","num_feature":"3","num_nodes":"9","size_leaf_vector":"1"}},{"base_weights":[6.8032662E-3,-6.3645365E-3,2.0091867E-2,5.706903E-2,-6.543572E-2,-2.760614E-3,4.0497176E-2,-1.3072765E-2,-2.387324E-3],"categories":[],"categories_nodes":[],"categories_segments":[],"categories_sizes":[],"default_left":[0,1,0,1,0,0,0,0,0],"id":61,"left_children":[1,3,-1,5,7,-1,-1,-1,-1],"loss_changes":[8.051703E-2,1.16147235E-1,0E0,4.5306057E-1,4.0298216E-2,0E0,0E0,0E0,0E0],"parents":[2147483647,0,0,1,1,3,3,4,4],"right_children":[2,4,-1,6,8,-1,-1,-1,-1],"split_conditions":[2.19E2,4.100891E0,2.0091867E-2,3.950495E0,3.64E0,-2.760614E-3,4.0497176E-2,-1.3072765E-2,-2.387324E-3],"split_indices":[0,1,0,1,2,0,0,0,0],"split_type":[0,0,0,0,0,0,0,0,0],"sum_hessian":[3E1,2.9E1,1E0,1.4E1,1.5E1,1.2E1,2E0,5E0,1E1],"tree_param":{"num_deleted":"0","num_feature":"3","num_nodes":"9","size_leaf_vector":"1"}},{"base_weights":[7.4896426E-3,-1.4117503E-1,2.2610484E-2,-1.7747914E-2,-3.42834E-3,-9.529786E-2,4.5287732E-2,-1.5964206E-2,8.122921E-5,1.3243789E-2,-3.5145704E-4],"categories":[],"categories_nodes":[],"categories_segments":[],"categories_sizes":[],"default_left":[0,0,0,0,0,0,0,0,0,0,0],"id":62,"left_children":[1,3,5,-1,-1,7,9,-1,-1,-1,-1],"loss_changes":[7.287802E-2,5.5572353E-3,8.18571E-2,0E0,0E0,3.1050332E-2,1.0679368E-1,0E0,0E0,0E0,0E0],"parents":[2147483647,0,0,1,1,2,2,5,5,6,6],"right_children":[2,4,6,-1,-1,8,10,-1,-1,-1,-1],"split_conditions":[6.5E1,6.4E1,3.049505E0,-1.7747914E-2,-3.42834E-3,1.14E2,4.100891E0,-1.5964206E-2,8.122921E-5,1.3243789E-2,-3.5145704E-4],"split_indices":[0,0,1,0,0,0,1,0,0,0,0],"split_type":[0,0,0,0,0,0,0,0,0,0,0],"sum_hessian":[3E1,2E0,2.8E1,1E0,1E0,4E0,2.4E1,2E0,2E0,8E0,1.6E1],"tree_param":{"num_deleted":"0","num_feature":"3","num_nodes":"11","size_leaf_vector":"1"}},{"base_weights":[5.961141E-3,-6.576729E-3,1.9104863E-2,-7.060608E-2,4.003207E-2,-2.1454706E-3,-1.4495735E-2,3.3793546E-2,2.629785E-4],"categories":[],"categories_nodes":[],"categories_segments":[],"categories_sizes":[],"default_left":[0,0,0,0,0,0,0,0,0],"id":63,"left_children":[1,3,-1,5,7,-1,-1,-1,-1],"loss_changes":[7.319516E-2,9.235644E-2,0E0,4.4398054E-2,1.996721E-1,0E0,0E0,0E0,0E0],"parents":[2147483647,0,0,1,1,3,3,4,4],"right_children":[2,4,-1,6,8,-1,-1,-1,-1],"split_conditions":[2.19E2,3.73E0,1.9104863E-2,3.52E0,3.75E0,-2.1454706E-3,-1.4495735E-2,3.3793546E-2,2.629785E-4],"split_indices":[0,2,0,2,2,0,0,0,0],"split_type":[0,0,0,0,0,0,0,0,0],"sum_hessian":[3E1,2.9E1,1E0,1.2E1,1.7E1,8E0,4E0,1E0,1.6E1],"tree_param":{"num_deleted":"0","num_feature":"3","num_nodes":"9","size_leaf_vector":"1"}},{"base_weights":[6.5430133E-3,-3.6837585E-2,5.527149E-2,3.885099E-3,-1.7015758E-1,1.4376517E-1,-1.9698195E-2,-1.3348873E-2,3.7904799E-3,-2.0585176E-2,-3.1537532E-3,-4.92349E-3,3.0082393E-2,-6.7534507E-3,1.8149614E-2],"categories":[],"categories_nodes":[],"categories_segments":[],"categories_sizes":[],"default_left":[0,0,0,0,0,0,0,0,0,0,0,0,0,0,0],"id":64,"left_children":[1,3,5,7,9,11,13,-1,-1,-1,-1,-1,-1,-1,-1],"loss_changes":[6.756605E-2,9.2956595E-2,1.0234706E-1,7.04877E-2,1.3299651E-2,2.269975E-1,9.887681E-2,0E0,0E0,0E0,0E0,0E0,0E0,0E0,0E0],"parents":[2147483647,0,0,1,1,2,2,3,3,4,4,5,5,6,6],"right_children":[2,4,6,8,10,12,14,-1,-1,-1,-1,-1,-1,-1,-1],"split_conditions":[9.5E1,9.1E1,4.504257E0,6.5E1,4.1708913E0,3.049505E0,1.57E2,-1.3348873E-2,3.7904799E-3,-2.0585176E-2,-3.1537532E-3,-4.92349E-3,3.0082393E-2,-6.7534507E-3,1.8149614E-2],"split_indices":[0,0,1,0,1,1,0,0,0,0,0,0,0,0,0],"split_type":[0,0,0,0,0,0,0,0,0,0,0,0,0,0,0],"sum_hessian":[3E1,1.6E1,1.4E1,1.3E1,3E0,6E0,8E0,2E0,1.1E1,2E0,1E0,3E0,3E0,7E0,1E0],"tree_param":{"num_deleted":"0","num_feature":"3","num_nodes":"15","size_leaf_vector":"1"}},{"base_weights":[5.9938277E-3,-3.5112437E-2,5.218134E-2,2.8139183E-3,-1.5907657E-1,-1.8533865E-2,1.3564642E-1,-1.620623E-2,2.7963032E-3,-1.9212835E-2,-2.9960633E-3,-6.3955965E-3,1.7242147E-2,2.9925505E-2,1.0351944E-3],"categories":[],"categories_nodes":[],"categories_segments":[],"categories_sizes":[],"default_left":[0,0,0,0,0,0,0,0,0,0,0,0,0,0,0],"id":65,"left_children":[1,3,5,7,9,11,13,-1,-1,-1,-1,-1,-1,-1,-1],"loss_changes":[6.068869E-2,8.0373265E-2,9.104781E-2,6.258262E-2,1.1313751E-2,8.90897E-2,1.4039692E-1,0E0,0E0,0E0,0E0,0E0,0E0,0E0,0E0],"parents":[2147483647,0,0,1,1,2,2,3,3,4,4,5,5,6,6],"right_children":[2,4,6,8,10,12,14,-1,-1,-1,-1,-1,-1,-1,-1],"split_conditions":[9.5E1,9.1E1,3.64E0,6.4E1,4.1708913E0,2.19E2,4.504257E0,-1.620623E-2,2.7963032E-3,-1.9212835E-2,-2.9960633E-3,-6.3955965E-3,1.7242147E-2,2.9925505E-2,1.0351944E-3],"split_indices":[0,0,2,0,1,0,1,0,0,0,0,0,0,0,0],"split_type":[0,0,0,0,0,0,0,0,0,0,0,0,0,0,0],"sum_hessian":[3E1,1.6E1,1.4E1,1.3E1,3E0,8E0,6E0,1E0,1.2E1,2E0,1E0,7E0,1E0,2E0,4E0],"tree_param":{"num_deleted":"0","num_feature":"3","num_nodes":"15","size_leaf_vector":"1"}},{"base_weights":[5.594111E-3,-3.369639E-2,4.9750406E-2,1.5747206E-3,-1.4872119E-1,1.2808728E-1,-1.6706096E-2,-1.5395916E-2,2.5381877E-3,-1.7931981E-2,-2.846265E-3,-4.074556E-3,2.648983E-2,-5.9744418E-3,1.6380025E-2],"categories":[],"categories_nodes":[],"categories_segments":[],"categories_sizes":[],"default_left":[0,0,0,0,0,0,0,0,0,0,0,0,0,0,0],"id":66,"left_children":[1,3,5,7,9,11,13,-1,-1,-1,-1,-1,-1,-1,-1],"loss_changes":[5.5459023E-2,6.920409E-2,8.022976E-2,5.574724E-2,9.615071E-3,1.7248076E-1,7.970436E-2,0E0,0E0,0E0,0E0,0E0,0E0,0E0,0E0],"parents":[2147483647,0,0,1,1,2,2,3,3,4,4,5,5,6,6],"right_children":[2,4,6,8,10,12,14,-1,-1,-1,-1,-1,-1,-1,-1],"split_conditions":[9.5E1,9.1E1,4.504257E0,6.4E1,4.1708913E0,3.049505E0,1.57E2,-1.5395916E-2,2.5381877E-3,-1.7931981E-2,-2.846265E-3,-4.074556E-3,2.648983E-2,-5.9744418E-3,1.6380025E-2],"split_indices":[0,0,1,0,1,1,0,0,0,0,0,0,0,0,0],"split_type":[0,0,0,0,0,0,0,0,0,0,0,0,0,0,0],"sum_hessian":[3E1,1.6E1,1.4E1,1.3E1,3E0,6E0,8E0,1E0,1.2E1,2E0,1E0,3E0,3E0,7E0,1E0],"tree_param":{"num_deleted":"0","num_feature":"3","num_nodes":"15","size_leaf_vector":"1"}},{"base_weights":[5.008348E-3,-3.230536E-2,4.6963327E-2,4.988228E-4,-1.3904366E-1,-1.6888963E-2,1.2235008E-1,-4.184048E-3,8.507767E-3,-1.673652E-2,-2.7039528E-3,-1.5162691E-2,4.326858E-3,2.616447E-2,1.4303302E-3],"categories":[],"categories_nodes":[],"categories_segments":[],"categories_sizes":[],"default_left":[0,0,0,0,0,0,0,0,0,0,0,0,0,0,0],"id":67,"left_children":[1,3,5,7,9,11,13,-1,-1,-1,-1,-1,-1,-1,-1],"loss_changes":[5.0047535E-2,5.959423E-2,7.427062E-2,5.3693824E-2,8.163035E-3,7.951021E-2,1.01609945E-1,0E0,0E0,0E0,0E0,0E0,0E0,0E0,0E0],"parents":[2147483647,0,0,1,1,2,2,3,3,4,4,5,5,6,6],"right_children":[2,4,6,8,10,12,14,-1,-1,-1,-1,-1,-1,-1,-1],"split_conditions":[9.5E1,9.1E1,3.64E0,4.56E0,4.1708913E0,1.14E2,4.504257E0,-4.184048E-3,8.507767E-3,-1.673652E-2,-2.7039528E-3,-1.5162691E-2,4.326858E-3,2.616447E-2,1.4303302E-3],"split_indices":[0,0,2,2,1,0,1,0,0,0,0,0,0,0,0],"split_type":[0,0,0,0,0,0,0,0,0,0,0,0,0,0,0],"sum_hessian":[3E1,1.6E1,1.4E1,1.3E1,3E0,8E0,6E0,9E0,4E0,2E0,1E0,2E0,6E0,2E0,4E0],"tree_param":{"num_deleted":"0","num_feature":"3","num_nodes":"15","size_leaf_vector":"1"}},{"base_weights":[4.560536E-3,-1.5051508E-2,1.4746892E-2,-3.1649934E-3,1.319654E-1,2.7338804E-3,-1.14484755E-2,1.7836427E-2,-3.6156178E-4],"categories":[],"categories_nodes":[],"categories_segments":[],"categories_sizes":[],"default_left":[0,0,0,0,0,0,0,0,0],"id":68,"left_children":[1,-1,3,5,7,-1,-1,-1,-1],"loss_changes":[5.118895E-2,0E0,6.3405804E-2,9.48131E-2,2.5808133E-2,0E0,0E0,0E0,0E0],"parents":[2147483647,0,0,2,2,3,3,4,4],"right_children":[2,-1,4,6,8,-1,-1,-1,-1],"split_conditions":[6.4E1,-1.5051508E-2,5.52E0,4.44E0,7.4E1,2.7338804E-3,-1.14484755E-2,1.7836427E-2,-3.6156178E-4],"split_indices":[0,0,2,2,0,0,0,0,0],"split_type":[0,0,0,0,0,0,0,0,0],"sum_hessian":[3E1,1E0,2.9E1,2.6E1,3E0,2.1E1,5E0,2E0,1E0],"tree_param":{"num_deleted":"0","num_feature":"3","num_nodes":"9","size_leaf_vector":"1"}},{"base_weights":[3.9015163E-3,-6.107072E-3,1.5207958E-2,4.3389216E-2,-5.212815E-2,-2.0897947E-3,3.0750385E-2,-1.0283021E-2,-1.973356E-3],"categories":[],"categories_nodes":[],"categories_segments":[],"categories_sizes":[],"default_left":[0,1,0,1,0,0,0,0,0],"id":69,"left_children":[1,3,-1,5,7,-1,-1,-1,-1],"loss_changes":[4.6903413E-2,7.059798E-2,0E0,2.611139E-1,2.4250358E-2,0E0,0E0,0E0,0E0],"parents":[2147483647,0,0,1,1,3,3,4,4],"right_children":[2,4,-1,6,8,-1,-1,-1,-1],"split_conditions":[2.19E2,4.100891E0,1.5207958E-2,3.950495E0,3.64E0,-2.0897947E-3,3.0750385E-2,-1.0283021E-2,-1.973356E-3],"split_indices":[0,1,0,1,2,0,0,0,0],"split_type":[0,0,0,0,0,0,0,0,0],"sum_hessian":[3E1,2.9E1,1E0,1.4E1,1.5E1,1.2E1,2E0,5E0,1E1],"tree_param":{"num_deleted":"0","num_feature":"3","num_nodes":"9","size_leaf_vector":"1"}},{"base_weights":[4.531118E-3,-1.4200258E-2,1.4148994E-2,-1.5287444E-3,1.1643648E-1,2.6280626E-3,-1.0324164E-2,1.5688086E-2,-2.4483204E-4],"categories":[],"categories_nodes":[],"categories_segments":[],"categories_sizes":[],"default_left":[0,0,0,0,0,0,0,0,0],"id":70,"left_children":[1,-1,3,5,7,-1,-1,-1,-1],"loss_changes":[4.5698825E-2,0E0,4.8287097E-2,7.908469E-2,1.9616976E-2,0E0,0E0,0E0,0E0],"parents":[2147483647,0,0,2,2,3,3,4,4],"right_children":[2,-1,4,6,8,-1,-1,-1,-1],"split_conditions":[6.4E1,-1.4200258E-2,5.52E0,4.44E0,7.4E1,2.6280626E-3,-1.0324164E-2,1.5688086E-2,-2.4483204E-4],"split_indices":[0,0,2,2,0,0,0,0,0],"split_type":[0,0,0,0,0,0,0,0,0],"sum_hessian":[3E1,1E0,2.9E1,2.6E1,3E0,2.1E1,5E0,2E0,1E0],"tree_param":{"num_deleted":"0","num_feature":"3","num_nodes":"9","size_leaf_vector":"1"}},{"base_weights":[3.8698527E-3,-5.5452385E-3,1.43161295E-2,4.022801E-2,-4.811108E-2,-1.840574E-3,2.8089825E-2,-9.04775E-3,-1.3643479E-3],"categories":[],"categories_nodes":[],"categories_segments":[],"categories_sizes":[],"default_left":[0,1,0,1,0,0,0,0,0],"id":71,"left_children":[1,3,-1,5,7,-1,-1,-1,-1],"loss_changes":[4.1448556E-2,6.0386717E-2,0E0,2.1684112E-1,2.2129875E-2,0E0,0E0,0E0,0E0],"parents":[2147483647,0,0,1,1,3,3,4,4],"right_children":[2,4,-1,6,8,-1,-1,-1,-1],"split_conditions":[2.19E2,4.100891E0,1.43161295E-2,3.950495E0,3.98E0,-1.840574E-3,2.8089825E-2,-9.04775E-3,-1.3643479E-3],"split_indices":[0,1,0,1,2,0,0,0,0],"split_type":[0,0,0,0,0,0,0,0,0],"sum_hessian":[3E1,2.9E1,1E0,1.4E1,1.5E1,1.2E1,2E0,6E0,9E0],"tree_param":{"num_deleted":"0","num_feature":"3","num_nodes":"9","size_leaf_vector":"1"}},{"base_weights":[4.4555548E-3,-1.3422037E-2,1.3552098E-2,2.277738E-2,-1.26990555E-2,1.5315296E-4,1.2445116E-2],"categories":[],"categories_nodes":[],"categories_segments":[],"categories_sizes":[],"default_left":[0,0,1,0,0,0,0],"id":72,"left_children":[1,-1,3,5,-1,-1,-1],"loss_changes":[4.092458E-2,0E0,4.1788887E-2,6.2453628E-2,0E0,0E0,0E0],"parents":[2147483647,0,0,2,2,3,3],"right_children":[2,-1,4,6,-1,-1,-1],"split_conditions":[6.4E1,-1.3422037E-2,7.94E0,1.35E2,-1.26990555E-2,1.5315296E-4,1.2445116E-2],"split_indices":[0,0,1,0,0,0,0],"split_type":[0,0,0,0,0,0,0],"sum_hessian":[3E1,1E0,2.9E1,2.8E1,1E0,2.4E1,4E0],"tree_param":{"num_deleted":"0","num_feature":"3","num_nodes":"7","size_leaf_vector":"1"}},{"base_weights":[3.573806E-3,-1.2750936E-2,1.2193557E-2,-2.7597556E-2,4.424544E-2,-4.9686646E-3,1.2978029E-2,2.3252964E-2,1.7944574E-3],"categories":[],"categories_nodes":[],"categories_segments":[],"categories_sizes":[],"default_left":[0,0,0,0,0,0,0,0,0],"id":73,"left_children":[1,-1,3,5,7,-1,-1,-1,-1],"loss_changes":[3.658182E-2,0E0,3.9482467E-2,5.511701E-2,8.0011986E-2,0E0,0E0,0E0,0E0],"parents":[2147483647,0,0,2,2,3,3,4,4],"right_children":[2,-1,4,6,8,-1,-1,-1,-1],"split_conditions":[6.4E1,-1.2750936E-2,3.73E0,2.19E2,3.75E0,-4.9686646E-3,1.2978029E-2,2.3252964E-2,1.7944574E-3],"split_indices":[0,0,2,0,2,0,0,0,0],"split_type":[0,0,0,0,0,0,0,0,0],"sum_hessian":[3E1,1E0,2.9E1,1.3E1,1.6E1,1.2E1,1E0,1E0,1.5E1],"tree_param":{"num_deleted":"0","num_feature":"3","num_nodes":"9","size_leaf_vector":"1"}},{"base_weights":[3.8715063E-3,-1.2113392E-2,1.2076152E-2,-1.5231989E-3,1.0085273E-1,2.4008637E-3,-9.488607E-3,1.3621538E-2,-2.6175976E-4],"categories":[],"categories_nodes":[],"categories_segments":[],"categories_sizes":[],"default_left":[0,0,0,0,0,0,0,0,0],"id":74,"left_children":[1,-1,3,5,7,-1,-1,-1,-1],"loss_changes":[3.3257212E-2,0E0,3.6372732E-2,6.663867E-2,1.4992494E-2,0E0,0E0,0E0,0E0],"parents":[2147483647,0,0,2,2,3,3,4,4],"right_children":[2,-1,4,6,8,-1,-1,-1,-1],"split_conditions":[6.4E1,-1.2113392E-2,5.52E0,4.44E0,7.4E1,2.4008637E-3,-9.488607E-3,1.3621538E-2,-2.6175976E-4],"split_indices":[0,0,2,2,0,0,0,0,0],"split_type":[0,0,0,0,0,0,0,0,0],"sum_hessian":[3E1,1E0,2.9E1,2.6E1,3E0,2.1E1,5E0,2E0,1E0],"tree_param":{"num_deleted":"0","num_feature":"3","num_nodes":"9","size_leaf_vector":"1"}},{"base_weights":[3.2959715E-3,1.1362978E-2,-1.1935711E-2,-8.3518345E-3,1.1160741E-1,3.1143785E-3,-4.442978E-3,-2.511251E-3,1.5206552E-2],"categories":[],"categories_nodes":[],"categories_segments":[],"categories_sizes":[],"default_left":[1,0,0,1,0,0,0,0,0],"id":75,"left_children":[1,3,-1,5,7,-1,-1,-1,-1],"loss_changes":[3.202899E-2,6.022113E-2,0E0,3.8431652E-2,3.14759E-2,0E0,0E0,0E0,0E0],"parents":[2147483647,0,0,1,1,3,3,4,4],"right_children":[2,4,-1,6,8,-1,-1,-1,-1],"split_conditions":[7.94E0,1.35E2,-1.1935711E-2,4.100891E0,2.8043563E0,3.1143785E-3,-4.442978E-3,-2.511251E-3,1.5206552E-2],"split_indices":[1,0,0,1,1,0,0,0,0],"split_type":[0,0,0,0,0,0,0,0,0],"sum_hessian":[3E1,2.9E1,1E0,2.5E1,4E0,1.2E1,1.3E1,1E0,3E0],"tree_param":{"num_deleted":"0","num_feature":"3","num_nodes":"9","size_leaf_vector":"1"}},{"base_weights":[2.9480804E-3,1.0605633E-2,-1.1338926E-2,-7.5677037E-3,1.0298586E-1,-6.0232985E-3,1.5005451E-3,-2.3856878E-3,1.4066077E-2],"categories":[],"categories_nodes":[],"categories_segments":[],"categories_sizes":[],"default_left":[1,0,0,0,0,0,0,0,0],"id":76,"left_children":[1,3,-1,5,7,-1,-1,-1,-1],"loss_changes":[2.8819203E-2,5.114508E-2,0E0,3.181318E-2,2.7249664E-2,0E0,0E0,0E0,0E0],"parents":[2147483647,0,0,1,1,3,3,4,4],"right_children":[2,4,-1,6,8,-1,-1,-1,-1],"split_conditions":[7.94E0,1.35E2,-1.1338926E-2,3.8223763E0,2.8043563E0,-6.0232985E-3,1.5005451E-3,-2.3856878E-3,1.4066077E-2],"split_indices":[1,0,0,1,1,0,0,0,0],"split_type":[0,0,0,0,0,0,0,0,0],"sum_hessian":[3E1,2.9E1,1E0,2.5E1,4E0,7E0,1.8E1,1E0,3E0],"tree_param":{"num_deleted":"0","num_feature":"3","num_nodes":"9","size_leaf_vector":"1"}},{"base_weights":[2.5184038E-3,-1.136061E-2,1.01760905E-2,-2.7322352E-2,4.0458567E-2,-7.4523226E-3,3.0524698E-3,2.1739578E-2,1.5812755E-3],"categories":[],"categories_nodes":[],"categories_segments":[],"categories_sizes":[],"default_left":[0,0,0,0,0,0,0,0,0],"id":77,"left_children":[1,-1,3,5,7,-1,-1,-1,-1],"loss_changes":[2.872266E-2,0E0,3.5171796E-2,4.050084E-2,7.069532E-2,0E0,0E0,0E0,0E0],"parents":[2147483647,0,0,2,2,3,3,4,4],"right_children":[2,-1,4,6,8,-1,-1,-1,-1],"split_conditions":[6.4E1,-1.136061E-2,3.73E0,1.14E2,3.75E0,-7.4523226E-3,3.0524698E-3,2.1739578E-2,1.5812755E-3],"split_indices":[0,0,2,0,2,0,0,0,0],"split_type":[0,0,0,0,0,0,0,0,0],"sum_hessian":[3E1,1E0,2.9E1,1.3E1,1.6E1,7E0,6E0,1E0,1.5E1],"tree_param":{"num_deleted":"0","num_feature":"3","num_nodes":"9","size_leaf_vector":"1"}},{"base_weights":[2.51049E-3,9.87724E-3,-1.0924602E-2,-6.4638993E-3,9.287572E-2,3.0591406E-3,-4.041069E-3,-2.4190308E-3,1.281898E-2],"categories":[],"categories_nodes":[],"categories_segments":[],"categories_sizes":[],"default_left":[1,0,0,1,0,0,0,0,0],"id":78,"left_children":[1,3,-1,5,7,-1,-1,-1,-1],"loss_changes":[2.6600802E-2,4.128903E-2,0E0,3.3941843E-2,2.3771353E-2,0E0,0E0,0E0,0E0],"parents":[2147483647,0,0,1,1,3,3,4,4],"right_children":[2,4,-1,6,8,-1,-1,-1,-1],"split_conditions":[7.94E0,1.35E2,-1.0924602E-2,4.100891E0,2.8043563E0,3.0591406E-3,-4.041069E-3,-2.4190308E-3,1.281898E-2],"split_indices":[1,0,0,1,1,0,0,0,0],"split_type":[0,0,0,0,0,0,0,0,0],"sum_hessian":[3E1,2.9E1,1E0,2.5E1,4E0,1.2E1,1.3E1,1E0,3E0],"tree_param":{"num_deleted":"0","num_feature":"3","num_nodes":"9","size_leaf_vector":"1"}},{"base_weights":[2.2108594E-3,-1.059053E-2,9.3449075E-3,-3.616037E-3,9.449506E-2,1.9028593E-3,-8.604368E-3,1.2585036E-2,2.1457672E-5],"categories":[],"categories_nodes":[],"categories_segments":[],"categories_sizes":[],"default_left":[0,0,0,0,0,0,0,0,0],"id":79,"left_children":[1,-1,3,5,7,-1,-1,-1,-1],"loss_changes":[2.4900159E-2,0E0,3.345049E-2,5.2033965E-2,1.1797771E-2,0E0,0E0,0E0,0E0],"parents":[2147483647,0,0,2,2,3,3,4,4],"right_children":[2,-1,4,6,8,-1,-1,-1,-1],"split_conditions":[6.4E1,-1.059053E-2,5.52E0,4.44E0,7.4E1,1.9028593E-3,-8.604368E-3,1.2585036E-2,2.1457672E-5],"split_indices":[0,0,2,2,0,0,0,0,0],"split_type":[0,0,0,0,0,0,0,0,0],"sum_hessian":[3E1,1E0,2.9E1,2.6E1,3E0,2.1E1,5E0,2E0,1E0],"tree_param":{"num_deleted":"0","num_feature":"3","num_nodes":"9","size_leaf_vector":"1"}},{"base_weights":[1.8386265E-3,8.882256E-3,-1.0473514E-2,-2.1982122E-2,4.5725983E-2,4.596097E-4,-1.0951037E-2,-2.9768492E-3,7.890062E-3],"categories":[],"categories_nodes":[],"categories_segments":[],"categories_sizes":[],"default_left":[1,0,0,0,1,0,0,0,0],"id":80,"left_children":[1,3,-1,5,7,-1,-1,-1,-1],"loss_changes":[2.4200935E-2,3.511992E-2,0E0,4.005118E-2,3.7411775E-2,0E0,0E0,0E0,0E0],"parents":[2147483647,0,0,1,1,3,3,4,4],"right_children":[2,4,-1,6,8,-1,-1,-1,-1],"split_conditions":[7.94E0,9.5E1,-1.0473514E-2,9.1E1,3.3378217E0,4.596097E-4,-1.0951037E-2,-2.9768492E-3,7.890062E-3],"split_indices":[1,0,0,0,1,0,0,0,0],"split_type":[0,0,0,0,0,0,0,0,0],"sum_hessian":[3E1,2.9E1,1E0,1.6E1,1.3E1,1.3E1,3E0,4E0,9E0],"tree_param":{"num_deleted":"0","num_feature":"3","num_nodes":"9","size_leaf_vector":"1"}},{"base_weights":[1.1369606E-3,2.9832609E-2,-2.424961E-2,-1.8164974E-2,2.2787793E-2,-3.7593096E-2,9.462309E-3,1.6336192E-3,-9.987664E-3,-1.0187221E-2,-2.1133781E-3],"categories":[],"categories_nodes":[],"categories_segments":[],"categories_sizes":[],"default_left":[1,1,0,1,0,0,0,0,0,0,0],"id":81,"left_children":[1,3,5,7,-1,9,-1,-1,-1,-1,-1],"loss_changes":[2.3306437E-2,1.4672486E-1,3.0522168E-2,3.8280524E-2,0E0,1.4774898E-2,0E0,0E0,0E0,0E0,0E0],"parents":[2147483647,0,0,1,1,2,2,3,3,5,5],"right_children":[2,4,6,8,-1,10,-1,-1,-1,-1,-1],"split_conditions":[4.100891E0,3.950495E0,1.57E2,3.46E0,2.2787793E-2,4.1708913E0,9.462309E-3,1.6336192E-3,-9.987664E-3,-1.0187221E-2,-2.1133781E-3],"split_indices":[1,1,0,1,0,1,0,0,0,0,0],"split_type":[0,0,0,0,0,0,0,0,0,0,0],"sum_hessian":[3E1,1.4E1,1.6E1,1.2E1,2E0,1.5E1,1E0,9E0,3E0,2E0,1.3E1],"tree_param":{"num_deleted":"0","num_feature":"3","num_nodes":"11","size_leaf_vector":"1"}},{"base_weights":[1.3972905E-3,-9.978319E-3,8.096079E-3,-2.5967555E-2,3.5672244E-2,-8.953313E-5,-1.176006E-2,1.8870592E-2,1.4313519E-3],"categories":[],"categories_nodes":[],"categories_segments":[],"categories_sizes":[],"default_left":[0,0,0,0,0,0,0,0,0],"id":82,"left_children":[1,-1,3,5,7,-1,-1,-1,-1],"loss_changes":[2.1819236E-2,0E0,2.9106654E-2,3.2058924E-2,5.2865226E-2,0E0,0E0,0E0,0E0],"parents":[2147483647,0,0,2,2,3,3,4,4],"right_children":[2,-1,4,6,8,-1,-1,-1,-1],"split_conditions":[6.4E1,-9.978319E-3,3.73E0,3.6E0,3.75E0,-8.953313E-5,-1.176006E-2,1.8870592E-2,1.4313519E-3],"split_indices":[0,0,2,2,2,0,0,0,0],"split_type":[0,0,0,0,0,0,0,0,0],"sum_hessian":[3E1,1E0,2.9E1,1.3E1,1.6E1,1.1E1,2E0,1E0,1.5E1],"tree_param":{"num_deleted":"0","num_feature":"3","num_nodes":"9","size_leaf_vector":"1"}},{"base_weights":[1.2083323E-3,7.808403E-3,-9.83969E-3,-9.205763E-3,6.50272E-2,-7.451091E-3,1.1901429E-3,5.125344E-4,1.0867226E-2],"categories":[],"categories_nodes":[],"categories_segments":[],"categories_sizes":[],"default_left":[1,0,0,0,1,0,0,0,0],"id":83,"left_children":[1,3,-1,5,7,-1,-1,-1,-1],"loss_changes":[2.114777E-2,2.980453E-2,0E0,3.3968586E-2,1.7743956E-2,0E0,0E0,0E0,0E0],"parents":[2147483647,0,0,1,1,3,3,4,4],"right_children":[2,4,-1,6,8,-1,-1,-1,-1],"split_conditions":[7.94E0,1.23E2,-9.83969E-3,3.6E0,3.3378217E0,-7.451091E-3,1.1901429E-3,5.125344E-4,1.0867226E-2],"split_indices":[1,0,0,1,1,0,0,0,0],"split_type":[0,0,0,0,0,0,0,0,0],"sum_hessian":[3E1,2.9E1,1E0,2.3E1,6E0,5E0,1.8E1,3E0,3E0],"tree_param":{"num_deleted":"0","num_feature":"3","num_nodes":"9","size_leaf_vector":"1"}},{"base_weights":[9.351892E-4,2.806081E-2,-2.3054194E-2,-1.4958758E-2,2.0512534E-2,-3.5057977E-2,8.450317E-3,1.7126094E-3,-9.143121E-3,-9.682855E-3,-1.9317287E-3],"categories":[],"categories_nodes":[],"categories_segments":[],"categories_sizes":[],"default_left":[1,1,0,1,0,0,0,0,0,0,0],"id":84,"left_children":[1,3,5,7,-1,9,-1,-1,-1,-1,-1],"loss_changes":[2.0819452E-2,1.17327005E-1,2.491113E-2,3.346275E-2,0E0,1.3686515E-2,0E0,0E0,0E0,0E0,0E0],"parents":[2147483647,0,0,1,1,2,2,3,3,5,5],"right_children":[2,4,6,8,-1,10,-1,-1,-1,-1,-1],"split_conditions":[4.100891E0,3.950495E0,1.57E2,3.46E0,2.0512534E-2,4.1708913E0,8.450317E-3,1.7126094E-3,-9.143121E-3,-9.682855E-3,-1.9317287E-3],"split_indices":[1,1,0,1,0,1,0,0,0,0,0],"split_type":[0,0,0,0,0,0,0,0,0,0,0],"sum_hessian":[3E1,1.4E1,1.6E1,1.2E1,2E0,1.5E1,1E0,9E0,3E0,2E0,1.3E1],"tree_param":{"num_deleted":"0","num_feature":"3","num_nodes":"11","size_leaf_vector":"1"}},{"base_weights":[1.1615638E-3,-9.442329E-3,7.495169E-3,-2.3804775E-2,3.28307E-2,-8.7211534E-5,-1.0760049E-2,1.6841937E-2,1.38302E-3],"categories":[],"categories_nodes":[],"categories_segments":[],"categories_sizes":[],"default_left":[0,0,0,0,0,0,0,0,0],"id":85,"left_children":[1,-1,3,5,7,-1,-1,-1,-1],"loss_changes":[1.9475019E-2,0E0,2.457155E-2,2.6809381E-2,4.146702E-2,0E0,0E0,0E0,0E0],"parents":[2147483647,0,0,2,2,3,3,4,4],"right_children":[2,-1,4,6,8,-1,-1,-1,-1],"split_conditions":[6.4E1,-9.442329E-3,3.73E0,3.6E0,3.75E0,-8.7211534E-5,-1.0760049E-2,1.6841937E-2,1.38302E-3],"split_indices":[0,0,2,2,2,0,0,0,0],"split_type":[0,0,0,0,0,0,0,0,0],"sum_hessian":[3E1,1E0,2.9E1,1.3E1,1.6E1,1.1E1,2E0,1E0,1.5E1],"tree_param":{"num_deleted":"0","num_feature":"3","num_nodes":"9","size_leaf_vector":"1"}},{"base_weights":[9.788582E-4,7.17599E-3,-9.246754E-3,-7.916058E-3,5.7895012E-2,-6.680312E-3,1.109649E-3,3.1543375E-4,9.816194E-3],"categories":[],"categories_nodes":[],"categories_segments":[],"categories_sizes":[],"default_left":[1,0,0,0,1,0,0,0,0],"id":86,"left_children":[1,3,-1,5,7,-1,-1,-1,-1],"loss_changes":[1.8615635E-2,2.3421919E-2,0E0,2.7611515E-2,1.5120037E-2,0E0,0E0,0E0,0E0],"parents":[2147483647,0,0,1,1,3,3,4,4],"right_children":[2,4,-1,6,8,-1,-1,-1,-1],"split_conditions":[7.94E0,1.23E2,-9.246754E-3,3.6E0,3.3378217E0,-6.680312E-3,1.109649E-3,3.1543375E-4,9.816194E-3],"split_indices":[1,0,0,1,1,0,0,0,0],"split_type":[0,0,0,0,0,0,0,0,0],"sum_hessian":[3E1,2.9E1,1E0,2.3E1,6E0,5E0,1.8E1,3E0,3E0],"tree_param":{"num_deleted":"0","num_feature":"3","num_nodes":"9","size_leaf_vector":"1"}},{"base_weights":[7.298493E-4,2.634256E-2,-2.1912532E-2,-1.2212927E-2,1.8463548E-2,-3.270872E-2,7.5413226E-3,-3.0307642E-3,1.0246182E-2,-9.203506E-3,-1.7659595E-3],"categories":[],"categories_nodes":[],"categories_segments":[],"categories_sizes":[],"default_left":[1,1,0,0,0,0,0,0,0,0,0],"id":87,"left_children":[1,3,5,7,-1,9,-1,-1,-1,-1,-1],"loss_changes":[1.8555148E-2,9.380085E-2,2.0329371E-2,3.0080462E-2,0E0,1.2659648E-2,0E0,0E0,0E0,0E0,0E0],"parents":[2147483647,0,0,1,1,2,2,3,3,5,5],"right_children":[2,4,6,8,-1,10,-1,-1,-1,-1,-1],"split_conditions":[4.100891E0,3.950495E0,1.57E2,4.56E0,1.8463548E-2,4.1708913E0,7.5413226E-3,-3.0307642E-3,1.0246182E-2,-9.203506E-3,-1.7659595E-3],"split_indices":[1,1,0,2,0,1,0,0,0,0,0],"split_type":[0,0,0,0,0,0,0,0,0,0,0],"sum_hessian":[3E1,1.4E1,1.6E1,1.2E1,2E0,1.5E1,1E0,1.1E1,1E0,2E0,1.3E1],"tree_param":{"num_deleted":"0","num_feature":"3","num_nodes":"11","size_leaf_vector":"1"}},{"base_weights":[1.37461E-3,-8.937395E-3,7.378693E-3,-2.0899832E-2,3.023285E-2,-1.40279535E-5,-9.697143E-3,1.5021182E-2,1.3345927E-3],"categories":[],"categories_nodes":[],"categories_segments":[],"categories_sizes":[],"default_left":[0,0,0,0,0,0,0,0,0],"id":88,"left_children":[1,-1,3,5,7,-1,-1,-1,-1],"loss_changes":[1.7550182E-2,0E0,2.0020317E-2,2.2095371E-2,3.243857E-2,0E0,0E0,0E0,0E0],"parents":[2147483647,0,0,2,2,3,3,4,4],"right_children":[2,-1,4,6,8,-1,-1,-1,-1],"split_conditions":[6.4E1,-8.937395E-3,3.73E0,3.6E0,3.75E0,-1.40279535E-5,-9.697143E-3,1.5021182E-2,1.3345927E-3],"split_indices":[0,0,2,2,2,0,0,0,0],"split_type":[0,0,0,0,0,0,0,0,0],"sum_hessian":[3E1,1E0,2.9E1,1.3E1,1.6E1,1.1E1,2E0,1E0,1.5E1],"tree_param":{"num_deleted":"0","num_feature":"3","num_nodes":"9","size_leaf_vector":"1"}},{"base_weights":[1.1631558E-3,6.9988687E-3,-8.6954115E-3,2.460268E-2,-3.0669022E-2,-7.626231E-4,6.8421923E-3,8.088478E-3,-6.8668067E-3],"categories":[],"categories_nodes":[],"categories_segments":[],"categories_sizes":[],"default_left":[1,0,0,0,0,0,0,0,0],"id":89,"left_children":[1,3,-1,5,7,-1,-1,-1,-1],"loss_changes":[1.654962E-2,2.0647494E-2,0E0,3.0178975E-2,4.7943577E-2,0E0,0E0,0E0,0E0],"parents":[2147483647,0,0,1,1,3,3,4,4],"right_children":[2,4,-1,6,8,-1,-1,-1,-1],"split_conditions":[7.94E0,4.44E0,-8.6954115E-3,3.73E0,3.3378217E0,-7.626231E-4,6.8421923E-3,8.088478E-3,-6.8668067E-3],"split_indices":[1,2,0,2,1,0,0,0,0],"split_type":[0,0,0,0,0,0,0,0,0],"sum_hessian":[3E1,2.9E1,1E0,2E1,9E0,1.2E1,8E0,2E0,7E0],"tree_param":{"num_deleted":"0","num_feature":"3","num_nodes":"9","size_leaf_vector":"1"}},{"base_weights":[1.0018464E-3,6.542337E-3,-8.260644E-3,-7.1542114E-3,5.256731E-2,-6.1269584E-3,1.031139E-3,3.5349728E-4,8.845783E-3],"categories":[],"categories_nodes":[],"categories_segments":[],"categories_sizes":[],"default_left":[1,0,0,0,1,0,0,0,0],"id":90,"left_children":[1,3,-1,5,7,-1,-1,-1,-1],"loss_changes":[1.4900596E-2,1.9287577E-2,0E0,2.3315554E-2,1.2005875E-2,0E0,0E0,0E0,0E0],"parents":[2147483647,0,0,1,1,3,3,4,4],"right_children":[2,4,-1,6,8,-1,-1,-1,-1],"split_conditions":[7.94E0,1.23E2,-8.260644E-3,3.6E0,3.3378217E0,-6.1269584E-3,1.031139E-3,3.5349728E-4,8.845783E-3],"split_indices":[1,0,0,1,1,0,0,0,0],"split_type":[0,0,0,0,0,0,0,0,0],"sum_hessian":[3E1,2.9E1,1E0,2.3E1,6E0,5E0,1.8E1,3E0,3E0],"tree_param":{"num_deleted":"0","num_feature":"3","num_nodes":"9","size_leaf_vector":"1"}},{"base_weights":[7.6764246E-4,2.4399813E-2,-2.0129427E-2,-1.0199153E-2,1.6619539E-2,-2.9838562E-2,6.7608356E-3,-7.94468E-3,1.8519819E-3,-8.746839E-3,-1.5357988E-3],"categories":[],"categories_nodes":[],"categories_segments":[],"categories_sizes":[],"default_left":[1,1,0,0,0,0,0,0,0,0,0],"id":91,"left_children":[1,3,5,7,-1,9,-1,-1,-1,-1,-1],"loss_changes":[1.5800292E-2,7.528476E-2,1.649892E-2,2.7324714E-2,0E0,1.2008867E-2,0E0,0E0,0E0,0E0,0E0],"parents":[2147483647,0,0,1,1,2,2,3,3,5,5],"right_children":[2,4,6,8,-1,10,-1,-1,-1,-1,-1],"split_conditions":[4.100891E0,3.950495E0,1.57E2,8E1,1.6619539E-2,4.1708913E0,6.7608356E-3,-7.94468E-3,1.8519819E-3,-8.746839E-3,-1.5357988E-3],"split_indices":[1,1,0,0,0,1,0,0,0,0,0],"split_type":[0,0,0,0,0,0,0,0,0,0,0],"sum_hessian":[3E1,1.4E1,1.6E1,1.2E1,2E0,1.5E1,1E0,3E0,9E0,2E0,1.3E1],"tree_param":{"num_deleted":"0","num_feature":"3","num_nodes":"11","size_leaf_vector":"1"}},{"base_weights":[9.1683865E-4,-8.121955E-3,6.362037E-3,-3.2440512E-3,6.961262E-2,1.2669059E-3,-6.105145E-3,9.306638E-3,-3.7431717E-5],"categories":[],"categories_nodes":[],"categories_segments":[],"categories_sizes":[],"default_left":[0,0,0,0,0,0,0,0,0],"id":92,"left_children":[1,-1,3,5,7,-1,-1,-1,-1],"loss_changes":[1.4381439E-2,0E0,1.8453548E-2,2.5610643E-2,6.600661E-3,0E0,0E0,0E0,0E0],"parents":[2147483647,0,0,2,2,3,3,4,4],"right_children":[2,-1,4,6,8,-1,-1,-1,-1],"split_conditions":[6.4E1,-8.121955E-3,5.52E0,4.44E0,7.4E1,1.2669059E-3,-6.105145E-3,9.306638E-3,-3.7431717E-5],"split_indices":[0,0,2,2,0,0,0,0,0],"split_type":[0,0,0,0,0,0,0,0,0],"sum_hessian":[3E1,1E0,2.9E1,2.6E1,3E0,2.1E1,5E0,2E0,1E0],"tree_param":{"num_deleted":"0","num_feature":"3","num_nodes":"9","size_leaf_vector":"1"}},{"base_weights":[7.06092E-4,2.2417506E-2,-1.8492572E-2,-9.116256E-3,1.515913E-2,-2.759771E-2,6.3594817E-3,-2.6178767E-3,9.781695E-3,-5.7210824E-3,-4.108763E-4],"categories":[],"categories_nodes":[],"categories_segments":[],"categories_sizes":[],"default_left":[1,1,0,0,0,0,0,0,0,0,0],"id":93,"left_children":[1,3,5,7,-1,9,-1,-1,-1,-1,-1],"loss_changes":[1.33362925E-2,6.2481977E-2,1.4461161E-2,2.6279865E-2,0E0,1.0894228E-2,0E0,0E0,0E0,0E0,0E0],"parents":[2147483647,0,0,1,1,2,2,3,3,5,5],"right_children":[2,4,6,8,-1,10,-1,-1,-1,-1,-1],"split_conditions":[4.100891E0,3.950495E0,1.57E2,4.56E0,1.515913E-2,3.98E0,6.3594817E-3,-2.6178767E-3,9.781695E-3,-5.7210824E-3,-4.108763E-4],"split_indices":[1,1,0,2,0,2,0,0,0,0,0],"split_type":[0,0,0,0,0,0,0,0,0,0,0],"sum_hessian":[3E1,1.4E1,1.6E1,1.2E1,2E0,1.5E1,1E0,1.1E1,1E0,6E0,9E0],"tree_param":{"num_deleted":"0","num_feature":"3","num_nodes":"11","size_leaf_vector":"1"}},{"base_weights":[1.3629352E-3,-7.6953173E-3,6.538578E-3,1.1969636E-2,-7.548106E-3,-3.879621E-3,2.164402E-3],"categories":[],"categories_nodes":[],"categories_segments":[],"categories_sizes":[],"default_left":[0,0,1,0,0,0,0],"id":94,"left_children":[1,-1,3,5,-1,-1,-1],"loss_changes":[1.3068587E-2,0E0,1.4267083E-2,1.5082425E-2,0E0,0E0,0E0],"parents":[2147483647,0,0,2,2,3,3],"right_children":[2,-1,4,6,-1,-1,-1],"split_conditions":[6.4E1,-7.6953173E-3,7.94E0,3.049505E0,-7.548106E-3,-3.879621E-3,2.164402E-3],"split_indices":[0,0,1,1,0,0,0],"split_type":[0,0,0,0,0,0,0],"sum_hessian":[3E1,1E0,2.9E1,2.8E1,1E0,4E0,2.4E1],"tree_param":{"num_deleted":"0","num_feature":"3","num_nodes":"7","size_leaf_vector":"1"}},{"base_weights":[6.79566E-4,2.1255564E-2,-1.7515702E-2,-7.791803E-3,1.40042305E-2,-8.119345E-2,-3.612439E-3,1.9453753E-3,-7.395774E-3,-7.0800784E-4,-1.147101E-2,-3.1344653E-3,2.457133E-3],"categories":[],"categories_nodes":[],"categories_segments":[],"categories_sizes":[],"default_left":[1,1,0,1,0,0,0,0,0,0,0,0,0],"id":95,"left_children":[1,3,5,7,-1,9,11,-1,-1,-1,-1,-1,-1],"loss_changes":[1.1978266E-2,5.2847814E-2,1.4757277E-2,2.4874216E-2,0E0,6.639937E-3,1.2494154E-2,0E0,0E0,0E0,0E0,0E0,0E0],"parents":[2147483647,0,0,1,1,2,2,3,3,5,5,6,6],"right_children":[2,4,6,8,-1,10,12,-1,-1,-1,-1,-1,-1],"split_conditions":[4.100891E0,3.950495E0,4.1708913E0,3.46E0,1.40042305E-2,8.8E1,3.98E0,1.9453753E-3,-7.395774E-3,-7.0800784E-4,-1.147101E-2,-3.1344653E-3,2.457133E-3],"split_indices":[1,1,1,1,0,0,2,0,0,0,0,0,0],"split_type":[0,0,0,0,0,0,0,0,0,0,0,0,0],"sum_hessian":[3E1,1.4E1,1.6E1,1.2E1,2E0,2E0,1.4E1,9E0,3E0,1E0,1E0,7E0,7E0],"tree_param":{"num_deleted":"0","num_feature":"3","num_nodes":"13","size_leaf_vector":"1"}},{"base_weights":[4.7283404E-4,-7.4334145E-3,5.444205E-3,1.0469161E-2,-7.0139766E-3,-3.724878E-3,1.9593982E-3],"categories":[],"categories_nodes":[],"categories_segments":[],"categories_sizes":[],"default_left":[0,0,1,0,0,0,0],"id":96,"left_children":[1,-1,3,5,-1,-1,-1],"loss_changes":[1.1933381E-2,0E0,1.2128489E-2,1.3356964E-2,0E0,0E0,0E0],"parents":[2147483647,0,0,2,2,3,3],"right_children":[2,-1,4,6,-1,-1,-1],"split_conditions":[6.4E1,-7.4334145E-3,7.94E0,3.049505E0,-7.0139766E-3,-3.724878E-3,1.9593982E-3],"split_indices":[0,0,1,1,0,0,0],"split_type":[0,0,0,0,0,0,0],"sum_hessian":[3E1,1E0,2.9E1,2.8E1,1E0,4E0,2.4E1],"tree_param":{"num_deleted":"0","num_feature":"3","num_nodes":"7","size_leaf_vector":"1"}},{"base_weights":[-9.743244E-5,1.2344279E-2,-2.7459454E-2,-1.439705E-2,5.2570317E-2,7.924366E-3,-6.404069E-2,4.431804E-4,-8.491346E-3,-2.5203943E-3,6.5442594E-3,-1.8773707E-2,8.4809464E-4],"categories":[],"categories_nodes":[],"categories_segments":[],"categories_sizes":[],"default_left":[0,0,0,0,0,0,0,0,0,0,0,0,0],"id":97,"left_children":[1,3,5,7,9,-1,11,-1,-1,-1,-1,-1,-1],"loss_changes":[1.0892309E-2,2.4422206E-2,4.410814E-2,1.8964723E-2,1.0659598E-2,0E0,7.33575E-2,0E0,0E0,0E0,0E0,0E0,0E0],"parents":[2147483647,0,0,1,1,2,2,3,3,4,4,6,6],"right_children":[2,4,6,8,10,-1,12,-1,-1,-1,-1,-1,-1],"split_conditions":[4.44E0,3.73E0,3.3378217E0,3.6E0,7.5E1,7.924366E-3,5.5E0,4.431804E-4,-8.491346E-3,-2.5203943E-3,6.5442594E-3,-1.8773707E-2,8.4809464E-4],"split_indices":[2,2,1,2,0,0,2,0,0,0,0,0,0],"split_type":[0,0,0,0,0,0,0,0,0,0,0,0,0],"sum_hessian":[3E1,2.1E1,9E0,1.3E1,8E0,2E0,7E0,1.1E1,2E0,1E0,7E0,2E0,5E0],"tree_param":{"num_deleted":"0","num_feature":"3","num_nodes":"13","size_leaf_vector":"1"}},{"base_weights":[-5.4014113E-4,-7.1041468E-3,4.1779517E-3,-3.1986942E-3,5.2925825E-2,1.092695E-3,-5.4459614E-3,7.314428E-3,-3.8647652E-4],"categories":[],"categories_nodes":[],"categories_segments":[],"categories_sizes":[],"default_left":[0,0,0,0,0,0,0,0,0],"id":98,"left_children":[1,-1,3,5,7,-1,-1,-1,-1],"loss_changes":[1.0608394E-2,0E0,1.09571675E-2,2.0145603E-2,4.8755566E-3,0E0,0E0,0E0,0E0],"parents":[2147483647,0,0,2,2,3,3,4,4],"right_children":[2,-1,4,6,8,-1,-1,-1,-1],"split_conditions":[6.4E1,-7.1041468E-3,5.52E0,4.44E0,7.4E1,1.092695E-3,-5.4459614E-3,7.314428E-3,-3.8647652E-4],"split_indices":[0,0,2,2,0,0,0,0,0],"split_type":[0,0,0,0,0,0,0,0,0],"sum_hessian":[3E1,1E0,2.9E1,2.6E1,3E0,2.1E1,5E0,2E0,1E0],"tree_param":{"num_deleted":"0","num_feature":"3","num_nodes":"9","size_leaf_vector":"1"}},{"base_weights":[-6.322861E-4,1.847879E-2,-1.7457807E-2,-7.324494E-3,1.2413343E-2,-2.5942937E-2,5.915213E-3,-2.2710224E-3,8.865214E-3,-7.2912374E-3,-1.402499E-3],"categories":[],"categories_nodes":[],"categories_segments":[],"categories_sizes":[],"default_left":[1,1,0,0,0,0,0,0,0,0,0],"id":99,"left_children":[1,3,5,7,-1,9,-1,-1,-1,-1,-1],"loss_changes":[1.0290768E-2,4.1802764E-2,1.2585348E-2,2.1210028E-2,0E0,7.933874E-3,0E0,0E0,0E0,0E0,0E0],"parents":[2147483647,0,0,1,1,2,2,3,3,5,5],"right_children":[2,4,6,8,-1,10,-1,-1,-1,-1,-1],"split_conditions":[4.100891E0,3.950495E0,1.57E2,4.56E0,1.2413343E-2,4.1708913E0,5.915213E-3,-2.2710224E-3,8.865214E-3,-7.2912374E-3,-1.402499E-3],"split_indices":[1,1,0,2,0,1,0,0,0,0,0],"split_type":[0,0,0,0,0,0,0,0,0,0,0],"sum_hessian":[3E1,1.4E1,1.6E1,1.2E1,2E0,1.5E1,1E0,1.1E1,1E0,2E0,1.3E1],"tree_param":{"num_deleted":"0","num_feature":"3","num_nodes":"11","size_leaf_vector":"1"}}]},"name":"gbtree"},"learner_model_param":{"base_score":"4.7926664E0","boost_from_average":"1","num_class":"0","num_feature":"3","num_target":"1"},"objective":{"name":"reg:squarederror","reg_loss_param":{"scale_pos_weight":"1"}}},"version":[3,0,0]}