{"learner":{"attributes":{"scikit_learn":"{\"_estimator_type\": \"regressor\"}"},"feature_names":["xFIP","adj_pitch_factor","xFIP_bullpen","avg_last5","avg_last10"],"feature_types":["float","float","float","float","float"],"gradient_booster":{"model":{"gbtree_model_param":{"num_parallel_tree":"1","num_trees":"100"},"iteration_indptr":[0,1,2,3,4,5,6,7,8,9,10,11,12,13,14,15,16,17,18,19,20,21,22,23,24,25,26,27,28,29,30,31,32,33,34,35,36,37,38,39,40,41,42,43,44,45,46,47,48,49,50,51,52,53,54,55,56,57,58,59,60,61,62,63,64,65,66,67,68,69,70,71,72,73,74,75,76,77,78,79,80,81,82,83,84,85,86,87,88,89,90,91,92,93,94,95,96,97,98,99,100],"tree_info":[0,0,0,0,0,0,0,0,0,0,0,0,0,0,0,0,0,0,0,0,0,0,0,0,0,0,0,0,0,0,0,0,0,0,0,0,0,0,0,0,0,0,0,0,0,0,0,0,0,0,0,0,0,0,0,0,0,0,0,0,0,0,0,0,0,0,0,0,0,0,0,0,0,0,0,0,0,0,0,0,0,0,0,0,0,0,0,0,0,0,0,0,0,0,0,0,0,0,0,0],"trees":[{"base_weights":[-1.3154128E-7,1.9591836E0,-5.962734E-1,2.9047617E-1,-1.8571429E-1,-8.636365E-1,2.642857E-1,-1.0389623E-2,-1.4880954E-1],"categories":[],"categories_nodes":[],"categories_segments":[],"categories_sizes":[],"default_left":[0,0,0,0,0,0,0,0,0],"id":0,"left_children":[1,3,5,-1,-1,7,-1,-1,-1],"loss_changes":[3.5046265E1,3.0655003E1,2.2201017E1,0E0,0E0,1.0282776E1,0E0,0E0,0E0],"parents":[2147483647,0,0,1,1,2,2,5,5],"right_children":[2,4,6,-1,-1,8,-1,-1,-1],"split_conditions":[3.4E0,5.44E0,8.444445E0,2.9047617E-1,-1.8571429E-1,4.2E0,2.642857E-1,-1.0389623E-2,-1.4880954E-1],"split_indices":[3,0,4,0,0,4,0,0,0],"split_type":[0,0,0,0,0,0,0,0,0],"sum_hessian":[2.8E1,6E0,2.2E1,5E0,1E0,2.1E1,1E0,1E1,1.1E1],"tree_param":{"num_deleted":"0","num_feature":"5","num_nodes":"9","size_leaf_vector":"1"}},{"base_weights":[7.236037E-3,1.778231E0,-5.320771E-1,2.6626983E-1,-1.7642859E-1,-7.845091E-1,2.5107142E-1,-9.445095E-3,-1.3516867E-1],"categories":[],"categories_nodes":[],"categories_segments":[],"categories_sizes":[],"default_left":[0,0,0,0,0,0,0,0,0],"id":1,"left_children":[1,3,5,-1,-1,7,-1,-1,-1],"loss_changes":[2.8644659E1,2.6630436E1,1.9635935E1,0E0,0E0,8.482812E0,0E0,0E0,0E0],"parents":[2147483647,0,0,1,1,2,2,5,5],"right_children":[2,4,6,-1,-1,8,-1,-1,-1],"split_conditions":[3.4E0,5.44E0,8.444445E0,2.6626983E-1,-1.7642859E-1,4.2E0,2.5107142E-1,-9.445095E-3,-1.3516867E-1],"split_indices":[3,0,4,0,0,4,0,0,0],"split_type":[0,0,0,0,0,0,0,0,0],"sum_hessian":[2.8E1,6E0,2.2E1,5E0,1E0,2.1E1,1E0,1E1,1.1E1],"tree_param":{"num_deleted":"0","num_feature":"5","num_nodes":"9","size_leaf_vector":"1"}},{"base_weights":[1.3281378E-2,1.6132425E0,-4.7424078E-1,2.4408069E-1,-1.6760714E-1,-7.126316E-1,2.3851787E-1,-1.2765203E-1,-3.269551E-3],"categories":[],"categories_nodes":[],"categories_segments":[],"categories_sizes":[],"default_left":[0,0,0,0,0,1,0,0,0],"id":2,"left_children":[1,3,5,-1,-1,7,-1,-1,-1],"loss_changes":[2.3385544E1,2.3145798E1,1.7377918E1,0E0,0E0,8.393249E0,0E0,0E0,0E0],"parents":[2147483647,0,0,1,1,2,2,5,5],"right_children":[2,4,6,-1,-1,8,-1,-1,-1],"split_conditions":[3.4E0,5.44E0,8.444445E0,2.4408069E-1,-1.6760714E-1,3.72E0,2.3851787E-1,-1.2765203E-1,-3.269551E-3],"split_indices":[3,0,4,0,0,0,0,0,0],"split_type":[0,0,0,0,0,0,0,0,0],"sum_hessian":[2.8E1,6E0,2.2E1,5E0,1E0,2.1E1,1E0,1.1E1,1E1],"tree_param":{"num_deleted":"0","num_feature":"5","num_nodes":"9","size_leaf_vector":"1"}},{"base_weights":[1.8300598E-2,1.4628432E0,-4.2213848E-1,2.2374063E0,-1.5922678E-1,-6.473193E-1,2.2659197E-1,3.2424438E-1,1.3879101E-1,-1.5046987E-3,-1.172959E-1],"categories":[],"categories_nodes":[],"categories_segments":[],"categories_sizes":[],"default_left":[0,0,0,0,0,0,0,0,0,0,0],"id":3,"left_children":[1,3,5,7,-1,9,-1,-1,-1,-1,-1],"loss_changes":[1.906828E1,2.0127184E1,1.5388654E1,6.224346E-1,0E0,7.293994E0,0E0,0E0,0E0,0E0,0E0],"parents":[2147483647,0,0,1,1,2,2,3,3,5,5],"right_children":[2,4,6,8,-1,10,-1,-1,-1,-1,-1],"split_conditions":[3.4E0,5.44E0,8.444445E0,3.09E0,-1.5922678E-1,4.2E0,2.2659197E-1,3.2424438E-1,1.3879101E-1,-1.5046987E-3,-1.172959E-1],"split_indices":[3,0,4,0,0,4,0,0,0,0,0],"split_type":[0,0,0,0,0,0,0,0,0,0,0],"sum_hessian":[2.8E1,6E0,2.2E1,5E0,1E0,2.1E1,1E0,1E0,4E0,1E1,1.1E1],"tree_param":{"num_deleted":"0","num_feature":"5","num_nodes":"11","size_leaf_vector":"1"}},{"base_weights":[3.0663637E-2,1.3599601E0,-3.7523803E-1,2.0908382E0,-1.5126543E-1,-5.8798736E-1,2.1526237E-1,3.0803216E-1,1.2768772E-1,-1.1098802E-1,3.4803653E-3],"categories":[],"categories_nodes":[],"categories_segments":[],"categories_sizes":[],"default_left":[0,0,0,0,0,1,0,0,0,0,0],"id":4,"left_children":[1,3,5,7,-1,9,-1,-1,-1,-1,-1],"loss_changes":[1.6157656E1,1.7859434E1,1.3635137E1,8.9921E-1,0E0,7.1892915E0,0E0,0E0,0E0,0E0,0E0],"parents":[2147483647,0,0,1,1,2,2,3,3,5,5],"right_children":[2,4,6,8,-1,10,-1,-1,-1,-1,-1],"split_conditions":[3.4E0,5.44E0,8.444445E0,3.09E0,-1.5126543E-1,3.72E0,2.1526237E-1,3.0803216E-1,1.2768772E-1,-1.1098802E-1,3.4803653E-3],"split_indices":[3,0,4,0,0,0,0,0,0,0,0],"split_type":[0,0,0,0,0,0,0,0,0,0,0],"sum_hessian":[2.8E1,6E0,2.2E1,5E0,1E0,2.1E1,1E0,1E0,4E0,1.1E1,1E1],"tree_param":{"num_deleted":"0","num_feature":"5","num_nodes":"11","size_leaf_vector":"1"}},{"base_weights":[4.112172E-2,1.2646003E0,-3.3302924E-1,1.9543742E0,-1.4370216E-1,-5.340753E-1,2.0449924E-1,2.9263055E-1,1.17472686E-1,4.5594475E-3,-1.020933E-1],"categories":[],"categories_nodes":[],"categories_segments":[],"categories_sizes":[],"default_left":[0,0,0,0,0,0,0,0,0,0,0],"id":5,"left_children":[1,3,5,7,-1,9,-1,-1,-1,-1,-1],"loss_changes":[1.3696353E1,1.5853038E1,1.2088295E1,1.1089706E0,0E0,6.2553167E0,0E0,0E0,0E0,0E0,0E0],"parents":[2147483647,0,0,1,1,2,2,3,3,5,5],"right_children":[2,4,6,8,-1,10,-1,-1,-1,-1,-1],"split_conditions":[3.4E0,5.44E0,8.444445E0,3.09E0,-1.4370216E-1,4.2E0,2.0449924E-1,2.9263055E-1,1.17472686E-1,4.5594475E-3,-1.020933E-1],"split_indices":[3,0,4,0,0,4,0,0,0,0,0],"split_type":[0,0,0,0,0,0,0,0,0,0,0],"sum_hessian":[2.8E1,6E0,2.2E1,5E0,1E0,2.1E1,1E0,1E0,4E0,1E1,1.1E1],"tree_param":{"num_deleted":"0","num_feature":"5","num_nodes":"11","size_leaf_vector":"1"}},{"base_weights":[4.9884204E-2,1.1761976E0,-2.950757E-1,1.8272873E0,-1.3651705E-1,-9.67882E-1,4.0232024E-1,2.77999E-1,1.0807488E-1,-1.2696855E-1,3.6075655E-2,-9.696153E-2,7.736689E-2],"categories":[],"categories_nodes":[],"categories_segments":[],"categories_sizes":[],"default_left":[0,0,1,0,0,0,0,0,0,0,0,0,0],"id":6,"left_children":[1,3,5,7,-1,9,11,-1,-1,-1,-1,-1,-1],"loss_changes":[1.1614523E1,1.407717E1,1.1181283E1,1.2629051E0,0E0,5.2698994E0,6.863757E0,0E0,0E0,0E0,0E0,0E0,0E0],"parents":[2147483647,0,0,1,1,2,2,3,3,5,5,6,6],"right_children":[2,4,6,8,-1,10,12,-1,-1,-1,-1,-1,-1],"split_conditions":[3.4E0,5.44E0,3.72E0,3.09E0,-1.3651705E-1,4.84E0,3.48E0,2.77999E-1,1.0807488E-1,-1.2696855E-1,3.6075655E-2,-9.696153E-2,7.736689E-2],"split_indices":[3,0,0,0,0,2,2,0,0,0,0,0,0],"split_type":[0,0,0,0,0,0,0,0,0,0,0,0,0],"sum_hessian":[2.8E1,6E0,2.2E1,5E0,1E0,1.1E1,1.1E1,1E0,4E0,9E0,2E0,2E0,9E0],"tree_param":{"num_deleted":"0","num_feature":"5","num_nodes":"13","size_leaf_vector":"1"}},{"base_weights":[4.9691323E-2,1.094229E0,-2.703719E-1,1.7089044E0,-1.296912E-1,-4.5575786E-1,1.9040595E-1,2.640991E-1,9.942891E-2,6.8775224E-3,-8.986001E-2],"categories":[],"categories_nodes":[],"categories_segments":[],"categories_sizes":[],"default_left":[0,0,0,0,0,0,0,0,0,0,0],"id":7,"left_children":[1,3,5,7,-1,9,-1,-1,-1,-1,-1],"loss_changes":[9.991074E0,1.250473E1,1.01392975E1,1.3705902E0,0E0,5.1720796E0,0E0,0E0,0E0,0E0,0E0],"parents":[2147483647,0,0,1,1,2,2,3,3,5,5],"right_children":[2,4,6,8,-1,10,-1,-1,-1,-1,-1],"split_conditions":[3.4E0,5.44E0,8.444445E0,3.09E0,-1.296912E-1,4.2E0,1.9040595E-1,2.640991E-1,9.942891E-2,6.8775224E-3,-8.986001E-2],"split_indices":[3,0,4,0,0,4,0,0,0,0,0],"split_type":[0,0,0,0,0,0,0,0,0,0,0],"sum_hessian":[2.8E1,6E0,2.2E1,5E0,1E0,2.1E1,1E0,1E0,4E0,1E1,1.1E1],"tree_param":{"num_deleted":"0","num_feature":"5","num_nodes":"11","size_leaf_vector":"1"}},{"base_weights":[5.6489773E-2,3.2177863E-1,-1.0140805E0,1.5986018E0,-9.836443E-2,-1.3165331E0,2.4909092E-2,2.5089413E-1,9.147457E-2,-9.488823E-2,6.0645606E-2,-5.9325274E-2,-1.600969E-1],"categories":[],"categories_nodes":[],"categories_segments":[],"categories_sizes":[],"default_left":[0,0,0,0,0,0,0,0,0,0,0,0,0],"id":8,"left_children":[1,3,5,7,9,11,-1,-1,-1,-1,-1,-1,-1],"loss_changes":[8.562611E0,1.3032007E1,2.6202316E0,1.4402037E0,1.19652405E1,7.8855515E-2,0E0,0E0,0E0,0E0,0E0,0E0,0E0],"parents":[2147483647,0,0,1,1,2,2,3,3,4,4,5,5],"right_children":[2,4,6,8,10,12,-1,-1,-1,-1,-1,-1,-1],"split_conditions":[5.44E0,3.4E0,4.06E0,3.09E0,3.72E0,3.34E0,2.4909092E-2,2.5089413E-1,9.147457E-2,-9.488823E-2,6.0645606E-2,-5.9325274E-2,-1.600969E-1],"split_indices":[0,3,2,0,0,2,0,0,0,0,0,0,0],"split_type":[0,0,0,0,0,0,0,0,0,0,0,0,0],"sum_hessian":[2.8E1,2.3E1,5E0,5E0,1.8E1,4E0,1E0,1E0,4E0,8E0,1E1,2E0,2E0],"tree_param":{"num_deleted":"0","num_feature":"5","num_nodes":"13","size_leaf_vector":"1"}},{"base_weights":[5.47585E-2,3.0243936E-1,-9.450913E-1,1.4958031E0,-9.033022E-2,-1.2287642E0,2.366364E-2,2.3834942E-1,8.415661E-2,-8.645373E-2,5.513237E-2,-5.537026E-2,-1.4942376E-1],"categories":[],"categories_nodes":[],"categories_segments":[],"categories_sizes":[],"default_left":[0,0,0,0,0,0,0,0,0,0,0,0,0],"id":9,"left_children":[1,3,5,7,9,11,-1,-1,-1,-1,-1,-1,-1],"loss_changes":[7.4674983E0,1.1384323E1,2.3021145E0,1.478694E0,9.915327E0,6.869173E-2,0E0,0E0,0E0,0E0,0E0,0E0,0E0],"parents":[2147483647,0,0,1,1,2,2,3,3,4,4,5,5],"right_children":[2,4,6,8,10,12,-1,-1,-1,-1,-1,-1,-1],"split_conditions":[5.44E0,3.4E0,4.06E0,3.09E0,3.72E0,3.34E0,2.366364E-2,2.3834942E-1,8.415661E-2,-8.645373E-2,5.513237E-2,-5.537026E-2,-1.4942376E-1],"split_indices":[0,3,2,0,0,2,0,0,0,0,0,0,0],"split_type":[0,0,0,0,0,0,0,0,0,0,0,0,0],"sum_hessian":[2.8E1,2.3E1,5E0,5E0,1.8E1,4E0,1E0,1E0,4E0,8E0,1E1,2E0,2E0],"tree_param":{"num_deleted":"0","num_feature":"5","num_nodes":"13","size_leaf_vector":"1"}},{"base_weights":[5.3077657E-2,2.0753618E-1,-1.3547416E-1,1.3999739E0,-1.2710756E-1,2.2643195E-1,7.742409E-2,-4.974894E-2,9.434922E-2],"categories":[],"categories_nodes":[],"categories_segments":[],"categories_sizes":[],"default_left":[1,0,0,0,1,0,0,0,0],"id":10,"left_children":[1,3,-1,5,7,-1,-1,-1,-1],"loss_changes":[6.5871987E0,1.0952076E1,0E0,1.4919691E0,9.193052E0,0E0,0E0,0E0,0E0],"parents":[2147483647,0,0,1,1,3,3,4,4],"right_children":[2,4,-1,6,8,-1,-1,-1,-1],"split_conditions":[5.44E0,3.4E0,-1.3547416E-1,3.09E0,3.99E0,2.2643195E-1,7.742409E-2,-4.974894E-2,9.434922E-2],"split_indices":[0,3,0,0,0,0,0,0,0],"split_type":[0,0,0,0,0,0,0,0,0],"sum_hessian":[2.8E1,2.6E1,2E0,5E0,2.1E1,1E0,4E0,1.6E1,5E0],"tree_param":{"num_deleted":"0","num_feature":"5","num_nodes":"9","size_leaf_vector":"1"}},{"base_weights":[5.5114064E-2,-6.461706E-2,1.7037928E-1,-6.5589815E-1,4.9155313E-1,-3.0676473E-2,-1.4520407E-1,1.5783843E-1,-2.0970091E-2],"categories":[],"categories_nodes":[],"categories_segments":[],"categories_sizes":[],"default_left":[0,0,0,0,0,0,0,0,0],"id":11,"left_children":[1,3,-1,5,7,-1,-1,-1,-1],"loss_changes":[5.834641E0,9.530291E0,0E0,3.4460049E0,1.176316E1,0E0,0E0,0E0,0E0],"parents":[2147483647,0,0,1,1,3,3,4,4],"right_children":[2,4,-1,6,8,-1,-1,-1,-1],"split_conditions":[8.444445E0,4.06E0,1.7037928E-1,3.97E0,4.6E0,-3.0676473E-2,-1.4520407E-1,1.5783843E-1,-2.0970091E-2],"split_indices":[4,2,0,2,2,0,0,0,0],"split_type":[0,0,0,0,0,0,0,0,0],"sum_hessian":[2.8E1,2.7E1,1E0,1.3E1,1.4E1,1E1,3E0,5E0,9E0],"tree_param":{"num_deleted":"0","num_feature":"5","num_nodes":"9","size_leaf_vector":"1"}},{"base_weights":[5.4132488E-2,1.9211993E-1,-1.2057986E-1,1.2403077E0,-1.024822E-1,2.0721844E-1,6.594955E-2,-4.333542E-2,8.520689E-2],"categories":[],"categories_nodes":[],"categories_segments":[],"categories_sizes":[],"default_left":[1,0,0,0,1,0,0,0,0],"id":12,"left_children":[1,3,-1,5,7,-1,-1,-1,-1],"loss_changes":[5.2734437E0,8.464665E0,0E0,1.5323877E0,7.3176003E0,0E0,0E0,0E0,0E0],"parents":[2147483647,0,0,1,1,3,3,4,4],"right_children":[2,4,-1,6,8,-1,-1,-1,-1],"split_conditions":[5.44E0,3.4E0,-1.2057986E-1,3.09E0,3.99E0,2.0721844E-1,6.594955E-2,-4.333542E-2,8.520689E-2],"split_indices":[0,3,0,0,0,0,0,0,0],"split_type":[0,0,0,0,0,0,0,0,0],"sum_hessian":[2.8E1,2.6E1,2E0,5E0,2.1E1,1E0,4E0,1.6E1,5E0],"tree_param":{"num_deleted":"0","num_feature":"5","num_nodes":"9","size_leaf_vector":"1"}},{"base_weights":[5.5424746E-2,-5.5167206E-2,1.5759997E-1,-5.68584E-1,4.2769963E-1,-2.540797E-2,-1.291325E-1,9.273381E-2,-7.5704485E-2],"categories":[],"categories_nodes":[],"categories_segments":[],"categories_sizes":[],"default_left":[0,0,0,0,0,0,0,0,0],"id":13,"left_children":[1,3,-1,5,7,-1,-1,-1,-1],"loss_changes":[4.9636807E0,7.184718E0,0E0,2.8541722E0,9.581194E0,0E0,0E0,0E0,0E0],"parents":[2147483647,0,0,1,1,3,3,4,4],"right_children":[2,4,-1,6,8,-1,-1,-1,-1],"split_conditions":[8.444445E0,4.06E0,1.5759997E-1,3.97E0,5.6E0,-2.540797E-2,-1.291325E-1,9.273381E-2,-7.5704485E-2],"split_indices":[4,2,0,2,3,0,0,0,0],"split_type":[0,0,0,0,0,0,0,0,0],"sum_hessian":[2.8E1,2.7E1,1E0,1.3E1,1.4E1,1E1,3E0,1E1,4E0],"tree_param":{"num_deleted":"0","num_feature":"5","num_nodes":"9","size_leaf_vector":"1"}},{"base_weights":[5.0574977E-2,-5.4561615E-2,1.4971998E-1,-5.2276427E-1,3.8606498E-1,-2.3098161E-2,-1.1944755E-1,1.3555728E-1,-2.3424625E-2],"categories":[],"categories_nodes":[],"categories_segments":[],"categories_sizes":[],"default_left":[0,0,0,0,0,0,0,0,0],"id":14,"left_children":[1,3,-1,5,7,-1,-1,-1,-1],"loss_changes":[4.4923925E0,5.978292E0,0E0,2.4680097E0,9.338488E0,0E0,0E0,0E0,0E0],"parents":[2147483647,0,0,1,1,3,3,4,4],"right_children":[2,4,-1,6,8,-1,-1,-1,-1],"split_conditions":[8.444445E0,4.06E0,1.4971998E-1,3.97E0,4.6E0,-2.3098161E-2,-1.1944755E-1,1.3555728E-1,-2.3424625E-2],"split_indices":[4,2,0,2,2,0,0,0,0],"split_type":[0,0,0,0,0,0,0,0,0],"sum_hessian":[2.8E1,2.7E1,1E0,1.3E1,1.4E1,1E1,3E0,5E0,9E0],"tree_param":{"num_deleted":"0","num_feature":"5","num_nodes":"9","size_leaf_vector":"1"}},{"base_weights":[4.9631506E-2,-5.0191633E-2,1.4223397E-1,1.813206E-1,-9.292899E-1,-3.6062118E-2,7.081523E-2,-1.0403736E-1,-1.869359E-2],"categories":[],"categories_nodes":[],"categories_segments":[],"categories_sizes":[],"default_left":[0,0,0,0,0,0,0,0,0],"id":15,"left_children":[1,3,-1,5,7,-1,-1,-1,-1],"loss_changes":[4.0452023E0,5.867115E0,0E0,6.822153E0,3.0029726E-1,0E0,0E0,0E0,0E0],"parents":[2147483647,0,0,1,1,3,3,4,4],"right_children":[2,4,-1,6,8,-1,-1,-1,-1],"split_conditions":[8.444445E0,5.4444447E0,1.4223397E-1,4.06E0,4.84E0,-3.6062118E-2,7.081523E-2,-1.0403736E-1,-1.869359E-2],"split_indices":[4,4,0,2,2,0,0,0,0],"split_type":[0,0,0,0,0,0,0,0,0],"sum_hessian":[2.8E1,2.7E1,1E0,2.2E1,5E0,1.1E1,1.1E1,4E0,1E0],"tree_param":{"num_deleted":"0","num_feature":"5","num_nodes":"9","size_leaf_vector":"1"}},{"base_weights":[4.653928E-2,-4.831451E-2,1.3512228E-1,1.6469958E-1,-8.568161E-1,-3.275643E-2,6.432385E-2,-9.6118264E-2,-1.6749192E-2],"categories":[],"categories_nodes":[],"categories_segments":[],"categories_sizes":[],"default_left":[0,0,0,0,0,0,0,0,0],"id":16,"left_children":[1,3,-1,5,7,-1,-1,-1,-1],"loss_changes":[3.6541548E0,4.9633403E0,0E0,5.6287518E0,2.7066374E-1,0E0,0E0,0E0,0E0],"parents":[2147483647,0,0,1,1,3,3,4,4],"right_children":[2,4,-1,6,8,-1,-1,-1,-1],"split_conditions":[8.444445E0,5.4444447E0,1.3512228E-1,4.06E0,9.4E0,-3.275643E-2,6.432385E-2,-9.6118264E-2,-1.6749192E-2],"split_indices":[4,4,0,2,3,0,0,0,0],"split_type":[0,0,0,0,0,0,0,0,0],"sum_hessian":[2.8E1,2.7E1,1E0,2.2E1,5E0,1.1E1,1.1E1,4E0,1E0],"tree_param":{"num_deleted":"0","num_feature":"5","num_nodes":"9","size_leaf_vector":"1"}},{"base_weights":[4.374126E-2,-4.6386667E-2,1.2836616E-1,1.4960207E-1,-7.899457E-1,-2.9753763E-2,5.8427494E-2,-8.961229E-2,-1.29529955E-2],"categories":[],"categories_nodes":[],"categories_segments":[],"categories_sizes":[],"default_left":[0,0,0,0,0,0,0,0,0],"id":17,"left_children":[1,3,-1,5,7,-1,-1,-1,-1],"loss_changes":[3.3003366E0,4.198595E0,0E0,4.6441116E0,3.0465174E-1,0E0,0E0,0E0,0E0],"parents":[2147483647,0,0,1,1,3,3,4,4],"right_children":[2,4,-1,6,8,-1,-1,-1,-1],"split_conditions":[8.444445E0,5.4444447E0,1.2836616E-1,4.06E0,4.84E0,-2.9753763E-2,5.8427494E-2,-8.961229E-2,-1.29529955E-2],"split_indices":[4,4,0,2,2,0,0,0,0],"split_type":[0,0,0,0,0,0,0,0,0],"sum_hessian":[2.8E1,2.7E1,1E0,2.2E1,5E0,1.1E1,1.1E1,4E0,1E0],"tree_param":{"num_deleted":"0","num_feature":"5","num_nodes":"9","size_leaf_vector":"1"}},{"base_weights":[4.1245576E-2,-4.4386983E-2,1.2194786E-1,5.9760845E-1,-2.4664067E-1,1.7576467E-1,1.1132765E-2,-7.1852095E-2,2.1471533E-3],"categories":[],"categories_nodes":[],"categories_segments":[],"categories_sizes":[],"default_left":[0,0,0,0,0,0,0,0,0],"id":18,"left_children":[1,3,-1,5,7,-1,-1,-1,-1],"loss_changes":[2.980087E0,3.7830806E0,0E0,3.753055E0,2.798799E0,0E0,0E0,0E0,0E0],"parents":[2147483647,0,0,1,1,3,3,4,4],"right_children":[2,4,-1,6,8,-1,-1,-1,-1],"split_conditions":[8.444445E0,3.4E0,1.2194786E-1,3.09E0,3.35E0,1.7576467E-1,1.1132765E-2,-7.1852095E-2,2.1471533E-3],"split_indices":[4,3,0,0,0,0,0,0,0],"split_type":[0,0,0,0,0,0,0,0,0],"sum_hessian":[2.8E1,2.7E1,1E0,6E0,2.1E1,1E0,5E0,7E0,1.4E1],"tree_param":{"num_deleted":"0","num_feature":"5","num_nodes":"9","size_leaf_vector":"1"}},{"base_weights":[4.536724E-2,2.0223849E-1,-5.8967894E-1,4.9710938E-1,-3.444474E-1,-1.05929874E-1,-9.004432E-2,1.1493544E-2,1.11491E-1,-6.41969E-2,1.879468E-2,-6.433777E-2,3.0885935E-2],"categories":[],"categories_nodes":[],"categories_segments":[],"categories_sizes":[],"default_left":[0,0,0,0,0,0,0,0,0,0,0,0,0],"id":19,"left_children":[1,3,5,7,9,-1,11,-1,-1,-1,-1,-1,-1],"loss_changes":[3.0082495E0,4.04007E0,1.3124461E0,3.6495745E0,1.5462447E0,0E0,1.08162E0,0E0,0E0,0E0,0E0,0E0,0E0],"parents":[2147483647,0,0,1,1,2,2,3,3,4,4,6,6],"right_children":[2,4,6,8,10,-1,12,-1,-1,-1,-1,-1,-1],"split_conditions":[5.44E0,4.6E0,3.6E0,4.02E0,4.26E0,-1.05929874E-1,1.5720011E1,1.1493544E-2,1.11491E-1,-6.41969E-2,1.879468E-2,-6.433777E-2,3.0885935E-2],"split_indices":[0,2,3,2,0,0,0,0,0,0,0,0,0],"split_type":[0,0,0,0,0,0,0,0,0,0,0,0,0],"sum_hessian":[2.8E1,2.3E1,5E0,1.5E1,8E0,2E0,3E0,1E1,5E0,5E0,3E0,1E0,2E0],"tree_param":{"num_deleted":"0","num_feature":"5","num_nodes":"13","size_leaf_vector":"1"}},{"base_weights":[3.8699478E-2,-4.2258244E-2,1.1527579E-1,1.3630533E-1,-7.197089E-1,-2.4781065E-2,5.0906252E-2,-8.1024095E-2,-1.3352442E-2],"categories":[],"categories_nodes":[],"categories_segments":[],"categories_sizes":[],"default_left":[0,0,0,0,0,0,0,0,0],"id":20,"left_children":[1,3,-1,5,7,-1,-1,-1,-1],"loss_changes":[2.6642709E0,3.4852047E0,0E0,3.4193368E0,2.1022415E-1,0E0,0E0,0E0,0E0],"parents":[2147483647,0,0,1,1,3,3,4,4],"right_children":[2,4,-1,6,8,-1,-1,-1,-1],"split_conditions":[8.444445E0,5.4444447E0,1.1527579E-1,4.06E0,4.84E0,-2.4781065E-2,5.0906252E-2,-8.1024095E-2,-1.3352442E-2],"split_indices":[4,4,0,2,2,0,0,0,0],"split_type":[0,0,0,0,0,0,0,0,0],"sum_hessian":[2.8E1,2.7E1,1E0,2.2E1,5E0,1.1E1,1.1E1,4E0,1E0],"tree_param":{"num_deleted":"0","num_feature":"5","num_nodes":"9","size_leaf_vector":"1"}},{"base_weights":[3.64511E-2,1.7817788E-1,-5.365312E-1,4.5767218E-1,-3.3849844E-1,-9.7215824E-2,-7.567817E-2,1.5517105E-2,1.09214045E-1,-6.922585E-2,8.296127E-3,-5.706967E-2,2.7956024E-2],"categories":[],"categories_nodes":[],"categories_segments":[],"categories_sizes":[],"default_left":[0,0,0,0,0,0,0,0,0,0,0,0,0],"id":21,"left_children":[1,3,5,7,9,-1,11,-1,-1,-1,-1,-1,-1],"loss_changes":[2.4505992E0,3.6207156E0,1.130989E0,2.9013696E0,1.399291E0,0E0,8.629425E-1,0E0,0E0,0E0,0E0,0E0,0E0],"parents":[2147483647,0,0,1,1,2,2,3,3,4,4,6,6],"right_children":[2,4,6,8,10,-1,12,-1,-1,-1,-1,-1,-1],"split_conditions":[5.44E0,4.6E0,3.6E0,3.99E0,4.84E0,-9.7215824E-2,1.5720011E1,1.5517105E-2,1.09214045E-1,-6.922585E-2,8.296127E-3,-5.706967E-2,2.7956024E-2],"split_indices":[0,2,3,0,2,0,0,0,0,0,0,0,0],"split_type":[0,0,0,0,0,0,0,0,0,0,0,0,0],"sum_hessian":[2.8E1,2.3E1,5E0,1.5E1,8E0,2E0,3E0,1.1E1,4E0,4E0,4E0,1E0,2E0],"tree_param":{"num_deleted":"0","num_feature":"5","num_nodes":"13","size_leaf_vector":"1"}},{"base_weights":[3.0649893E-2,-4.257783E-2,1.0405131E-1,1.1746348E-1,-6.4897317E-1,-2.371825E-2,4.6232086E-2,-7.263693E-2,-1.3099623E-2],"categories":[],"categories_nodes":[],"categories_segments":[],"categories_sizes":[],"default_left":[0,0,0,0,0,0,0,0,0],"id":22,"left_children":[1,3,-1,5,7,-1,-1,-1,-1],"loss_changes":[2.188852E0,2.7935832E0,0E0,2.922607E0,1.4538479E-1,0E0,0E0,0E0,0E0],"parents":[2147483647,0,0,1,1,3,3,4,4],"right_children":[2,4,-1,6,8,-1,-1,-1,-1],"split_conditions":[8.444445E0,5.4444447E0,1.0405131E-1,4.06E0,4.84E0,-2.371825E-2,4.6232086E-2,-7.263693E-2,-1.3099623E-2],"split_indices":[4,4,0,2,2,0,0,0,0],"split_type":[0,0,0,0,0,0,0,0,0],"sum_hessian":[2.8E1,2.7E1,1E0,2.2E1,5E0,1.1E1,1.1E1,4E0,1E0],"tree_param":{"num_deleted":"0","num_feature":"5","num_nodes":"9","size_leaf_vector":"1"}},{"base_weights":[2.8992768E-2,-6.4357126E-1,1.3134906E-1,-9.023445E-2,6.637418E-3,2.5835806E-1,-6.3179E-1,3.8664818E-2,-7.257921E-2,-1.0205817E-2,-7.7434786E-2],"categories":[],"categories_nodes":[],"categories_segments":[],"categories_sizes":[],"default_left":[0,1,0,0,0,1,0,0,0,0,0],"id":23,"left_children":[1,3,5,-1,-1,7,9,-1,-1,-1,-1],"loss_changes":[2.080926E0,7.9475164E-1,2.6832914E0,0E0,0E0,3.184531E0,2.230413E-1,0E0,0E0,0E0,0E0],"parents":[2147483647,0,0,1,1,2,2,5,5,6,6],"right_children":[2,4,6,-1,-1,8,10,-1,-1,-1,-1],"split_conditions":[3.3333333E0,3.35E0,7.2E0,-9.023445E-2,6.637418E-3,5.44E0,4.19E0,3.8664818E-2,-7.257921E-2,-1.0205817E-2,-7.7434786E-2],"split_indices":[4,0,3,0,0,0,2,0,0,0,0],"split_type":[0,0,0,0,0,0,0,0,0,0,0],"sum_hessian":[2.8E1,3E0,2.5E1,2E0,1E0,2.2E1,3E0,2E1,2E0,1E0,2E0],"tree_param":{"num_deleted":"0","num_feature":"5","num_nodes":"11","size_leaf_vector":"1"}},{"base_weights":[1.9019283E-2,-4.9526803E-2,9.691548E-2,4.568112E-1,-2.0838313E-1,1.5383582E-1,2.0160319E-3,-6.109969E-2,2.0236429E-3],"categories":[],"categories_nodes":[],"categories_segments":[],"categories_sizes":[],"default_left":[0,0,0,0,0,0,0,0,0],"id":24,"left_children":[1,3,-1,5,7,-1,-1,-1,-1],"loss_changes":[1.9367132E0,2.3473716E0,0E0,3.274795E0,2.0373628E0,0E0,0E0,0E0,0E0],"parents":[2147483647,0,0,1,1,3,3,4,4],"right_children":[2,4,-1,6,8,-1,-1,-1,-1],"split_conditions":[8.444445E0,3.4E0,9.691548E-2,3.09E0,3.35E0,1.5383582E-1,2.0160319E-3,-6.109969E-2,2.0236429E-3],"split_indices":[4,3,0,0,0,0,0,0,0],"split_type":[0,0,0,0,0,0,0,0,0],"sum_hessian":[2.8E1,2.7E1,1E0,6E0,2.1E1,1E0,5E0,7E0,1.4E1],"tree_param":{"num_deleted":"0","num_feature":"5","num_nodes":"9","size_leaf_vector":"1"}},{"base_weights":[2.3796327E-2,1.4450747E-1,-4.6301427E-1,8.330797E-1,-3.486097E-2,-8.3861075E-2,-6.556338E-2,-2.3695922E-2,1.1598293E-1,6.881481E-2,-3.217405E-2,-4.7056567E-2,2.2629261E-2],"categories":[],"categories_nodes":[],"categories_segments":[],"categories_sizes":[],"default_left":[0,0,0,0,0,0,0,0,0,0,0,0,0],"id":25,"left_children":[1,3,5,7,9,-1,11,-1,-1,-1,-1,-1,-1],"loss_changes":[1.7710495E0,2.9932373E0,8.407048E-1,2.0230057E0,4.369735E0,0E0,5.792949E-1,0E0,0E0,0E0,0E0,0E0,0E0],"parents":[2147483647,0,0,1,1,2,2,3,3,4,4,6,6],"right_children":[2,4,6,8,10,-1,12,-1,-1,-1,-1,-1,-1],"split_conditions":[5.44E0,3.73E0,3.6E0,3.7777777E0,3.4E0,-8.3861075E-2,1.5720011E1,-2.3695922E-2,1.1598293E-1,6.881481E-2,-3.217405E-2,-4.7056567E-2,2.2629261E-2],"split_indices":[0,2,3,4,3,0,0,0,0,0,0,0,0],"split_type":[0,0,0,0,0,0,0,0,0,0,0,0,0],"sum_hessian":[2.8E1,2.3E1,5E0,4E0,1.9E1,2E0,3E0,1E0,3E0,5E0,1.4E1,1E0,2E0],"tree_param":{"num_deleted":"0","num_feature":"5","num_nodes":"13","size_leaf_vector":"1"}},{"base_weights":[2.2128418E-2,1.3542873E-1,-4.347609E-1,7.682291E-1,-2.9542804E-2,-7.827034E-2,-6.511384E-2,-2.2511125E-2,1.072842E-1,6.308024E-2,-2.9171133E-2,-4.4703733E-2,2.1120643E-2],"categories":[],"categories_nodes":[],"categories_segments":[],"categories_sizes":[],"default_left":[0,0,0,0,0,0,0,0,0,0,0,0,0],"id":26,"left_children":[1,3,5,7,9,-1,11,-1,-1,-1,-1,-1,-1],"loss_changes":[1.5600845E0,2.528153E0,7.207304E-1,1.7544305E0,3.6464462E0,0E0,5.1655E-1,0E0,0E0,0E0,0E0,0E0,0E0],"parents":[2147483647,0,0,1,1,2,2,3,3,4,4,6,6],"right_children":[2,4,6,8,10,-1,12,-1,-1,-1,-1,-1,-1],"split_conditions":[5.44E0,3.73E0,3.6E0,3.7777777E0,3.4E0,-7.827034E-2,1.5720011E1,-2.2511125E-2,1.072842E-1,6.308024E-2,-2.9171133E-2,-4.4703733E-2,2.1120643E-2],"split_indices":[0,2,3,4,3,0,0,0,0,0,0,0,0],"split_type":[0,0,0,0,0,0,0,0,0,0,0,0,0],"sum_hessian":[2.8E1,2.3E1,5E0,4E0,1.9E1,2E0,3E0,1E0,3E0,5E0,1.4E1,1E0,2E0],"tree_param":{"num_deleted":"0","num_feature":"5","num_nodes":"13","size_leaf_vector":"1"}},{"base_weights":[2.0495864E-2,1.0443756E-1,-5.302491E-1,-1.467664E-1,4.0973938E-1,-6.72946E-3,-6.621358E-2,2.4587685E-2,-5.2106388E-2,1.7336659E-1,-2.8412533E-3],"categories":[],"categories_nodes":[],"categories_segments":[],"categories_sizes":[],"default_left":[0,0,0,0,0,0,0,0,0,0,0],"id":27,"left_children":[1,3,5,7,9,-1,-1,-1,-1,-1,-1],"loss_changes":[1.3960615E0,2.0541546E0,1.9967186E-1,2.332598E0,7.01023E0,0E0,0E0,0E0,0E0,0E0,0E0],"parents":[2147483647,0,0,1,1,2,2,3,3,4,4],"right_children":[2,4,6,8,10,-1,-1,-1,-1,-1,-1],"split_conditions":[7.2E0,4.06E0,4.19E0,3.73E0,4.25E0,-6.72946E-3,-6.621358E-2,2.4587685E-2,-5.2106388E-2,1.7336659E-1,-2.8412533E-3],"split_indices":[3,2,2,2,2,0,0,0,0,0,0],"split_type":[0,0,0,0,0,0,0,0,0,0,0],"sum_hessian":[2.8E1,2.5E1,3E0,1.4E1,1.1E1,1E0,2E0,7E0,7E0,2E0,9E0],"tree_param":{"num_deleted":"0","num_feature":"5","num_nodes":"11","size_leaf_vector":"1"}},{"base_weights":[2.0862328E-2,1.2805769E-1,-4.1139618E-1,3.7478432E-1,-1.9759963E-1,-7.213502E-2,-7.608163E-2,4.7325026E-3,1.1816013E-1,1.40705425E-2,-5.029714E-2,-4.369793E-2,1.8987736E-2],"categories":[],"categories_nodes":[],"categories_segments":[],"categories_sizes":[],"default_left":[0,0,0,0,0,0,0,0,0,0,0,0,0],"id":28,"left_children":[1,3,5,7,9,-1,11,-1,-1,-1,-1,-1,-1],"loss_changes":[1.3964295E0,2.0024173E0,5.687109E-1,3.6428766E0,1.2071677E0,0E0,4.6690837E-1,0E0,0E0,0E0,0E0,0E0,0E0],"parents":[2147483647,0,0,1,1,2,2,3,3,4,4,6,6],"right_children":[2,4,6,8,10,-1,12,-1,-1,-1,-1,-1,-1],"split_conditions":[5.44E0,4.25E0,3.6E0,4.02E0,4E0,-7.213502E-2,1.5720011E1,4.7325026E-3,1.1816013E-1,1.40705425E-2,-5.029714E-2,-4.369793E-2,1.8987736E-2],"split_indices":[0,2,3,2,4,0,0,0,0,0,0,0,0],"split_type":[0,0,0,0,0,0,0,0,0,0,0,0,0],"sum_hessian":[2.8E1,2.3E1,5E0,1.3E1,1E1,2E0,3E0,1E1,3E0,5E0,5E0,1E0,2E0],"tree_param":{"num_deleted":"0","num_feature":"5","num_nodes":"13","size_leaf_vector":"1"}},{"base_weights":[1.8425083E-2,-3.765999E-2,7.9440355E-2,8.425969E-2,-4.987421E-1,-1.9170938E-2,3.532071E-2,-5.6347102E-2,-8.754874E-3],"categories":[],"categories_nodes":[],"categories_segments":[],"categories_sizes":[],"default_left":[0,0,0,0,0,0,0,0,0],"id":29,"left_children":[1,3,-1,5,7,-1,-1,-1,-1],"loss_changes":[1.2920207E0,1.6160434E0,0E0,1.7748E0,1.1036539E-1,0E0,0E0,0E0,0E0],"parents":[2147483647,0,0,1,1,3,3,4,4],"right_children":[2,4,-1,6,8,-1,-1,-1,-1],"split_conditions":[8.444445E0,5.4444447E0,7.9440355E-2,4.06E0,4.84E0,-1.9170938E-2,3.532071E-2,-5.6347102E-2,-8.754874E-3],"split_indices":[4,4,0,2,2,0,0,0,0],"split_type":[0,0,0,0,0,0,0,0,0],"sum_hessian":[2.8E1,2.7E1,1E0,2.2E1,5E0,1.1E1,1.1E1,4E0,1E0],"tree_param":{"num_deleted":"0","num_feature":"5","num_nodes":"9","size_leaf_vector":"1"}},{"base_weights":[1.7633867E-2,-4.9296653E-1,9.5509544E-2,-7.412812E-2,1.2598872E-2,1.9153392E-1,-4.8050803E-1,2.8422747E-2,-5.2116543E-2,-9.4836475E-3,-5.7745308E-2],"categories":[],"categories_nodes":[],"categories_segments":[],"categories_sizes":[],"default_left":[0,1,0,0,0,1,0,0,0,0,0],"id":30,"left_children":[1,3,5,-1,-1,7,9,-1,-1,-1,-1],"loss_changes":[1.2002203E0,7.0817566E-1,1.5301386E0,0E0,0E0,1.66757E0,9.479219E-2,0E0,0E0,0E0,0E0],"parents":[2147483647,0,0,1,1,2,2,5,5,6,6],"right_children":[2,4,6,-1,-1,8,10,-1,-1,-1,-1],"split_conditions":[3.3333333E0,3.35E0,7.2E0,-7.412812E-2,1.2598872E-2,5.44E0,4.19E0,2.8422747E-2,-5.2116543E-2,-9.4836475E-3,-5.7745308E-2],"split_indices":[4,0,3,0,0,0,2,0,0,0,0],"split_type":[0,0,0,0,0,0,0,0,0,0,0],"sum_hessian":[2.8E1,3E0,2.5E1,2E0,1E0,2.2E1,3E0,2E1,2E0,1E0,2E0],"tree_param":{"num_deleted":"0","num_feature":"5","num_nodes":"11","size_leaf_vector":"1"}},{"base_weights":[1.0613495E-2,-4.1898333E-2,7.404723E-2,6.620245E-2,-4.493016E-1,-1.8361416E-2,3.1050218E-2,-5.031241E-2,-9.009457E-3],"categories":[],"categories_nodes":[],"categories_segments":[],"categories_sizes":[],"default_left":[0,0,0,0,0,0,0,0,0],"id":31,"left_children":[1,3,-1,5,7,-1,-1,-1,-1],"loss_changes":[1.142485E0,1.262882E0,0E0,1.4607054E0,7.067168E-2,0E0,0E0,0E0,0E0],"parents":[2147483647,0,0,1,1,3,3,4,4],"right_children":[2,4,-1,6,8,-1,-1,-1,-1],"split_conditions":[8.444445E0,5.4444447E0,7.404723E-2,4.06E0,9.4E0,-1.8361416E-2,3.1050218E-2,-5.031241E-2,-9.009457E-3],"split_indices":[4,4,0,2,3,0,0,0,0],"split_type":[0,0,0,0,0,0,0,0,0],"sum_hessian":[2.8E1,2.7E1,1E0,2.2E1,5E0,1.1E1,1.1E1,4E0,1E0],"tree_param":{"num_deleted":"0","num_feature":"5","num_nodes":"9","size_leaf_vector":"1"}},{"base_weights":[1.049748E-2,-2.1511227E-1,1.8240508E-1,6.499621E-1,-4.3148598E-1,2.994317E-1,-4.6352975E-2,1.2023325E-1,-2.2738934E-2,4.9479835E-2,-6.923046E-2,5.0709087E-2,-1.0334594E-3],"categories":[],"categories_nodes":[],"categories_segments":[],"categories_sizes":[],"default_left":[1,0,0,0,0,0,0,0,0,0,0,0,0],"id":32,"left_children":[1,3,5,7,9,11,-1,-1,-1,-1,-1,-1,-1],"loss_changes":[1.1639743E0,2.713781E0,1.4238524E0,1.7272667E0,3.0000646E0,9.701277E-1,0E0,0E0,0E0,0E0,0E0,0E0,0E0],"parents":[2147483647,0,0,1,1,2,2,3,3,4,4,5,5],"right_children":[2,4,6,8,10,12,-1,-1,-1,-1,-1,-1,-1],"split_conditions":[3.35E0,3.2E0,5.44E0,3.09E0,3.34E0,5.6E0,-4.6352975E-2,1.2023325E-1,-2.2738934E-2,4.9479835E-2,-6.923046E-2,5.0709087E-2,-1.0334594E-3],"split_indices":[0,3,0,0,2,3,0,0,0,0,0,0,0],"split_type":[0,0,0,0,0,0,0,0,0,0,0,0,0],"sum_hessian":[2.8E1,1.2E1,1.6E1,2E0,1E1,1.4E1,2E0,1E0,1E0,2E0,8E0,8E0,6E0],"tree_param":{"num_deleted":"0","num_feature":"5","num_nodes":"13","size_leaf_vector":"1"}},{"base_weights":[1.2243094E-2,-3.7602913E-2,7.0396565E-2,7.1972094E-2,-3.7660965E-1,-5.468516E-3,6.55601E-2,-4.1547466E-2,-7.1709873E-3],"categories":[],"categories_nodes":[],"categories_segments":[],"categories_sizes":[],"default_left":[0,0,0,0,0,0,0,0,0],"id":33,"left_children":[1,3,-1,5,7,-1,-1,-1,-1],"loss_changes":[1.0263798E0,1.0672121E0,0E0,1.6621101E0,5.315584E-2,0E0,0E0,0E0,0E0],"parents":[2147483647,0,0,1,1,3,3,4,4],"right_children":[2,4,-1,6,8,-1,-1,-1,-1],"split_conditions":[8.444445E0,5.6E0,7.0396565E-2,4.8E0,4.26E0,-5.468516E-3,6.55601E-2,-4.1547466E-2,-7.1709873E-3],"split_indices":[4,3,0,3,0,0,0,0,0],"split_type":[0,0,0,0,0,0,0,0,0],"sum_hessian":[2.8E1,2.7E1,1E0,2.1E1,6E0,1.8E1,3E0,5E0,1E0],"tree_param":{"num_deleted":"0","num_feature":"5","num_nodes":"9","size_leaf_vector":"1"}},{"base_weights":[1.3838414E-2,-3.343646E-2,6.687675E-2,5.9321404E-2,-3.8343552E-1,-1.685757E-2,2.8227506E-2,-4.344028E-2,-6.4299586E-3],"categories":[],"categories_nodes":[],"categories_segments":[],"categories_sizes":[],"default_left":[0,0,0,0,0,0,0,0,0],"id":34,"left_children":[1,3,-1,5,7,-1,-1,-1,-1],"loss_changes":[9.2025024E-1,9.3177056E-1,0E0,1.2162259E0,6.966102E-2,0E0,0E0,0E0,0E0],"parents":[2147483647,0,0,1,1,3,3,4,4],"right_children":[2,4,-1,6,8,-1,-1,-1,-1],"split_conditions":[8.444445E0,5.4444447E0,6.687675E-2,4.06E0,9.4E0,-1.685757E-2,2.8227506E-2,-4.344028E-2,-6.4299586E-3],"split_indices":[4,4,0,2,3,0,0,0,0],"split_type":[0,0,0,0,0,0,0,0,0],"sum_hessian":[2.8E1,2.7E1,1E0,2.2E1,5E0,1.1E1,1.1E1,4E0,1E0],"tree_param":{"num_deleted":"0","num_feature":"5","num_nodes":"9","size_leaf_vector":"1"}},{"base_weights":[1.3433152E-2,-4.302227E-1,8.117124E-2,-6.500826E-2,1.1467851E-2,1.5920243E-1,-3.8780087E-1,2.361587E-2,-4.3255903E-2,-6.108451E-3,-4.7634482E-2],"categories":[],"categories_nodes":[],"categories_segments":[],"categories_sizes":[],"default_left":[0,1,0,0,0,1,0,0,0,0,0],"id":35,"left_children":[1,3,5,-1,-1,7,9,-1,-1,-1,-1],"loss_changes":[9.064413E-1,5.537582E-1,1.0131946E0,0E0,0E0,1.1495671E0,8.661771E-2,0E0,0E0,0E0,0E0],"parents":[2147483647,0,0,1,1,2,2,5,5,6,6],"right_children":[2,4,6,-1,-1,8,10,-1,-1,-1,-1],"split_conditions":[3.3333333E0,3.35E0,7.2E0,-6.500826E-2,1.1467851E-2,5.44E0,4.19E0,2.361587E-2,-4.3255903E-2,-6.108451E-3,-4.7634482E-2],"split_indices":[4,0,3,0,0,0,2,0,0,0,0],"split_type":[0,0,0,0,0,0,0,0,0,0,0],"sum_hessian":[2.8E1,3E0,2.5E1,2E0,1E0,2.2E1,3E0,2E1,2E0,1E0,2E0],"tree_param":{"num_deleted":"0","num_feature":"5","num_nodes":"11","size_leaf_vector":"1"}},{"base_weights":[7.713174E-3,-1.8568435E-1,1.5515168E-1,8.526103E-2,-8.166268E-2,2.5658292E-1,-4.0372178E-2,-6.067438E-2,3.3410523E-2,6.911563E-2,1.3655962E-2],"categories":[],"categories_nodes":[],"categories_segments":[],"categories_sizes":[],"default_left":[1,0,0,0,0,0,0,0,0,0,0],"id":36,"left_children":[1,3,5,7,-1,9,-1,-1,-1,-1,-1],"loss_changes":[8.5572225E-1,2.2919886E0,1.0672711E0,1.9247301E0,0E0,6.880001E-1,0E0,0E0,0E0,0E0,0E0],"parents":[2147483647,0,0,1,1,2,2,3,3,5,5],"right_children":[2,4,6,8,-1,10,-1,-1,-1,-1,-1],"split_conditions":[3.35E0,4.4E0,5.44E0,3.3333333E0,-8.166268E-2,3.74E0,-4.0372178E-2,-6.067438E-2,3.3410523E-2,6.911563E-2,1.3655962E-2],"split_indices":[0,3,0,4,0,0,0,0,0,0,0],"split_type":[0,0,0,0,0,0,0,0,0,0,0],"sum_hessian":[2.8E1,1.2E1,1.6E1,9E0,3E0,1.4E1,2E0,2E0,7E0,2E0,1.2E1],"tree_param":{"num_deleted":"0","num_feature":"5","num_nodes":"11","size_leaf_vector":"1"}},{"base_weights":[4.647777E-3,-3.9235767E-2,6.166935E-2,2.535538E-1,-1.3061264E-1,1.1023231E-1,-7.162824E-3,-3.6129583E-2,9.173133E-3],"categories":[],"categories_nodes":[],"categories_segments":[],"categories_sizes":[],"default_left":[0,0,0,0,1,0,0,0,0],"id":37,"left_children":[1,3,-1,5,7,-1,-1,-1,-1],"loss_changes":[8.0309975E-1,7.8223485E-1,0E0,2.0109892E0,1.1615446E0,0E0,0E0,0E0,0E0],"parents":[2147483647,0,0,1,1,3,3,4,4],"right_children":[2,4,-1,6,8,-1,-1,-1,-1],"split_conditions":[8.444445E0,3.4E0,6.166935E-2,3.09E0,3.35E0,1.1023231E-1,-7.162824E-3,-3.6129583E-2,9.173133E-3],"split_indices":[4,3,0,0,0,0,0,0,0],"split_type":[0,0,0,0,0,0,0,0,0],"sum_hessian":[2.8E1,2.7E1,1E0,6E0,2.1E1,1E0,5E0,1E1,1.1E1],"tree_param":{"num_deleted":"0","num_feature":"5","num_nodes":"9","size_leaf_vector":"1"}},{"base_weights":[8.934169E-3,-3.2593813E-2,5.8585882E-2,6.132612E-2,-3.2311448E-1,-5.445925E-3,5.959751E-2,-3.538186E-2,-6.9444897E-3],"categories":[],"categories_nodes":[],"categories_segments":[],"categories_sizes":[],"default_left":[0,0,0,0,0,0,0,0,0],"id":38,"left_children":[1,3,-1,5,7,-1,-1,-1,-1],"loss_changes":[7.1389234E-1,7.8381443E-1,0E0,1.394356E0,2.9949963E-2,0E0,0E0,0E0,0E0],"parents":[2147483647,0,0,1,1,3,3,4,4],"right_children":[2,4,-1,6,8,-1,-1,-1,-1],"split_conditions":[8.444445E0,5.6E0,5.8585882E-2,4.8E0,9.4E0,-5.445925E-3,5.959751E-2,-3.538186E-2,-6.9444897E-3],"split_indices":[4,3,0,3,3,0,0,0,0],"split_type":[0,0,0,0,0,0,0,0,0],"sum_hessian":[2.8E1,2.7E1,1E0,2.1E1,6E0,1.8E1,3E0,5E0,1E0],"tree_param":{"num_deleted":"0","num_feature":"5","num_nodes":"9","size_leaf_vector":"1"}},{"base_weights":[1.0468718E-2,-3.6767137E-1,6.824147E-2,-5.3857725E-2,7.252312E-3,3.546324E-1,-3.540743E-2,5.1913686E-2,-3.1619705E-2,-4.694317E-2,1.8413378E-2],"categories":[],"categories_nodes":[],"categories_segments":[],"categories_sizes":[],"default_left":[0,1,0,0,0,1,0,0,0,0,0],"id":39,"left_children":[1,3,5,-1,-1,7,9,-1,-1,-1,-1],"loss_changes":[6.586301E-1,3.3998662E-1,7.8434336E-1,0E0,0E0,9.3663037E-1,1.9921625E0,0E0,0E0,0E0,0E0],"parents":[2147483647,0,0,1,1,2,2,5,5,6,6],"right_children":[2,4,6,-1,-1,8,10,-1,-1,-1,-1],"split_conditions":[3.3333333E0,3.35E0,3.73E0,-5.3857725E-2,7.252312E-3,7.86E0,4.06E0,5.1913686E-2,-3.1619705E-2,-4.694317E-2,1.8413378E-2],"split_indices":[4,0,2,0,0,0,2,0,0,0,0],"split_type":[0,0,0,0,0,0,0,0,0,0,0],"sum_hessian":[2.8E1,3E0,2.5E1,2E0,1E0,6E0,1.9E1,5E0,1E0,6E0,1.3E1],"tree_param":{"num_deleted":"0","num_feature":"5","num_nodes":"11","size_leaf_vector":"1"}},{"base_weights":[7.53073E-3,1.2397686E-1,-1.6776602E-1,-9.325226E-2,9.075918E-1,3.951076E-2,-3.8162795E-1,1.8347308E-2,-3.5832107E-2,1.260242E-1,-7.517934E-3,-3.6066115E-2,1.6631627E-2,-4.3349653E-2,-6.1142445E-3],"categories":[],"categories_nodes":[],"categories_segments":[],"categories_sizes":[],"default_left":[0,0,0,0,0,0,0,0,0,0,0,0,0,0,0],"id":40,"left_children":[1,3,5,7,9,11,13,-1,-1,-1,-1,-1,-1,-1,-1],"loss_changes":[6.127653E-1,3.1486666E0,5.4702175E-1,1.1660111E0,1.4810421E0,4.1519186E-1,7.323378E-2,0E0,0E0,0E0,0E0,0E0,0E0,0E0,0E0],"parents":[2147483647,0,0,1,1,2,2,3,3,4,4,5,5,6,6],"right_children":[2,4,6,8,10,12,14,-1,-1,-1,-1,-1,-1,-1,-1],"split_conditions":[4.25E0,4.06E0,4E0,3.73E0,3.74E0,2.54E0,4.26E0,1.8347308E-2,-3.5832107E-2,1.260242E-1,-7.517934E-3,-3.6066115E-2,1.6631627E-2,-4.3349653E-2,-6.1142445E-3],"split_indices":[2,2,4,2,0,0,0,0,0,0,0,0,0,0,0],"split_type":[0,0,0,0,0,0,0,0,0,0,0,0,0,0,0],"sum_hessian":[2.8E1,1.7E1,1.1E1,1.4E1,3E0,6E0,5E0,7E0,7E0,2E0,1E0,1E0,5E0,4E0,1E0],"tree_param":{"num_deleted":"0","num_feature":"5","num_nodes":"15","size_leaf_vector":"1"}},{"base_weights":[7.885333E-3,-2.9078424E-2,5.2143525E-2,2.4415615E-1,-1.1469495E-1,9.777107E-2,-4.1054725E-3,-3.0893803E-2,7.2919107E-3],"categories":[],"categories_nodes":[],"categories_segments":[],"categories_sizes":[],"default_left":[0,0,0,0,1,0,0,0,0],"id":41,"left_children":[1,3,-1,5,7,-1,-1,-1,-1],"loss_changes":[5.6566185E-1,6.8301857E-1,0E0,1.504664E0,8.2426757E-1,0E0,0E0,0E0,0E0],"parents":[2147483647,0,0,1,1,3,3,4,4],"right_children":[2,4,-1,6,8,-1,-1,-1,-1],"split_conditions":[8.444445E0,3.4E0,5.2143525E-2,3.09E0,3.35E0,9.777107E-2,-4.1054725E-3,-3.0893803E-2,7.2919107E-3],"split_indices":[4,3,0,0,0,0,0,0,0],"split_type":[0,0,0,0,0,0,0,0,0],"sum_hessian":[2.8E1,2.7E1,1E0,6E0,2.1E1,1E0,5E0,1E1,1.1E1],"tree_param":{"num_deleted":"0","num_feature":"5","num_nodes":"9","size_leaf_vector":"1"}},{"base_weights":[1.1310927E-2,-2.3668233E-2,4.9536373E-2,4.407777E-2,-3.441154E-1,-1.2107066E-2,2.1931542E-2,-3.992786E-2,-6.173134E-3],"categories":[],"categories_nodes":[],"categories_segments":[],"categories_sizes":[],"default_left":[0,0,0,0,0,0,0,0,0],"id":42,"left_children":[1,3,-1,5,7,-1,-1,-1,-1],"loss_changes":[5.0274545E-1,6.230203E-1,0E0,7.211179E-1,5.3237975E-2,0E0,0E0,0E0,0E0],"parents":[2147483647,0,0,1,1,3,3,4,4],"right_children":[2,4,-1,6,8,-1,-1,-1,-1],"split_conditions":[8.444445E0,5.8E0,4.9536373E-2,4.06E0,4.84E0,-1.2107066E-2,2.1931542E-2,-3.992786E-2,-6.173134E-3],"split_indices":[4,4,0,2,2,0,0,0,0],"split_type":[0,0,0,0,0,0,0,0,0],"sum_hessian":[2.8E1,2.7E1,1E0,2.3E1,4E0,1.2E1,1.1E1,3E0,1E0],"tree_param":{"num_deleted":"0","num_feature":"5","num_nodes":"9","size_leaf_vector":"1"}},{"base_weights":[1.0637008E-2,1.2197879E-1,-1.5726207E-1,-7.159526E-2,8.1738675E-1,-3.2292584E-1,6.222264E-2,-2.6264852E-2,2.587594E-2,1.126584E-1,-5.5102347E-3,-4.6834324E-2,2.7078472E-3,2.7811114E-2,-1.152494E-2],"categories":[],"categories_nodes":[],"categories_segments":[],"categories_sizes":[],"default_left":[0,0,0,1,0,0,0,0,0,0,0,0,0,0,0],"id":43,"left_children":[1,3,5,7,9,11,13,-1,-1,-1,-1,-1,-1,-1,-1],"loss_changes":[5.613139E-1,2.4815538E0,4.5642123E-1,1.0146929E0,1.1411622E0,3.6895907E-1,2.619372E-1,0E0,0E0,0E0,0E0,0E0,0E0,0E0,0E0],"parents":[2147483647,0,0,1,1,2,2,3,3,4,4,5,5,6,6],"right_children":[2,4,6,8,10,12,14,-1,-1,-1,-1,-1,-1,-1,-1],"split_conditions":[4.25E0,4.06E0,4.84E0,3.99E0,3.74E0,3.35E0,3.7777777E0,-2.6264852E-2,2.587594E-2,1.126584E-1,-5.5102347E-3,-4.6834324E-2,2.7078472E-3,2.7811114E-2,-1.152494E-2],"split_indices":[2,2,2,0,0,0,4,0,0,0,0,0,0,0,0],"split_type":[0,0,0,0,0,0,0,0,0,0,0,0,0,0,0],"sum_hessian":[2.8E1,1.7E1,1.1E1,1.4E1,3E0,6E0,5E0,9E0,5E0,2E0,1E0,4E0,2E0,2E0,3E0],"tree_param":{"num_deleted":"0","num_feature":"5","num_nodes":"15","size_leaf_vector":"1"}},{"base_weights":[1.2294642E-2,1.15711935E-1,-1.4385585E-1,-6.44617E-2,7.624351E-1,-2.9693705E-1,5.8714867E-2,8.368234E-3,-4.927784E-2,1.0514783E-1,-5.2347183E-3,-4.308758E-2,2.5273166E-3,2.5957046E-2,-1.0660553E-2],"categories":[],"categories_nodes":[],"categories_segments":[],"categories_sizes":[],"default_left":[0,0,0,0,0,0,0,0,0,0,0,0,0,0,0],"id":44,"left_children":[1,3,5,7,9,11,13,-1,-1,-1,-1,-1,-1,-1,-1],"loss_changes":[4.84957E-1,2.146552E0,3.8955188E-1,9.930253E-1,9.97071E-1,3.1298453E-1,2.2690478E-1,0E0,0E0,0E0,0E0,0E0,0E0,0E0,0E0],"parents":[2147483647,0,0,1,1,2,2,3,3,4,4,5,5,6,6],"right_children":[2,4,6,8,10,12,14,-1,-1,-1,-1,-1,-1,-1,-1],"split_conditions":[4.25E0,4.06E0,4.84E0,3.97E0,3.74E0,3.35E0,3.7777777E0,8.368234E-3,-4.927784E-2,1.0514783E-1,-5.2347183E-3,-4.308758E-2,2.5273166E-3,2.5957046E-2,-1.0660553E-2],"split_indices":[2,2,2,2,0,0,4,0,0,0,0,0,0,0,0],"split_type":[0,0,0,0,0,0,0,0,0,0,0,0,0,0,0],"sum_hessian":[2.8E1,1.7E1,1.1E1,1.4E1,3E0,6E0,5E0,1.1E1,3E0,2E0,1E0,4E0,2E0,2E0,3E0],"tree_param":{"num_deleted":"0","num_feature":"5","num_nodes":"15","size_leaf_vector":"1"}},{"base_weights":[1.2228654E-2,4.6686795E-2,-2.0682318E-2,-4.787527E-2,3.296743E-2,4.513508E-2,-4.1228267E-3],"categories":[],"categories_nodes":[],"categories_segments":[],"categories_sizes":[],"default_left":[0,0,0,0,0,0,0],"id":45,"left_children":[1,-1,3,-1,5,-1,-1],"loss_changes":[4.435719E-1,0E0,7.0389336E-1,0E0,8.257067E-1,0E0,0E0],"parents":[2147483647,0,0,2,2,4,4],"right_children":[2,-1,4,-1,6,-1,-1],"split_conditions":[1.9E0,4.6686795E-2,2.54E0,-4.787527E-2,3.09E0,4.513508E-2,-4.1228267E-3],"split_indices":[0,0,0,0,0,0,0],"split_type":[0,0,0,0,0,0,0],"sum_hessian":[2.8E1,1E0,2.7E1,2E0,2.5E1,3E0,2.2E1],"tree_param":{"num_deleted":"0","num_feature":"5","num_nodes":"7","size_leaf_vector":"1"}},{"base_weights":[1.2378948E-2,5.197307E-2,-3.4809448E-2,1.8697454E-1,-1.3235998E-1,1.413868E-3,7.019474E-2,6.0142954E-3,-2.7845392E-2],"categories":[],"categories_nodes":[],"categories_segments":[],"categories_sizes":[],"default_left":[1,0,0,0,0,0,0,0,0],"id":46,"left_children":[1,3,-1,5,7,-1,-1,-1,-1],"loss_changes":[4.3199775E-1,6.9664925E-1,0E0,1.414168E0,3.542292E-1,0E0,0E0,0E0,0E0],"parents":[2147483647,0,0,1,1,3,3,4,4],"right_children":[2,4,-1,6,8,-1,-1,-1,-1],"split_conditions":[5.44E0,4.25E0,-3.4809448E-2,4.02E0,3.8888888E0,1.413868E-3,7.019474E-2,6.0142954E-3,-2.7845392E-2],"split_indices":[0,2,0,2,4,0,0,0,0],"split_type":[0,0,0,0,0,0,0,0,0],"sum_hessian":[2.8E1,2.6E1,2E0,1.5E1,1.1E1,1.2E1,3E0,5E0,6E0],"tree_param":{"num_deleted":"0","num_feature":"5","num_nodes":"9","size_leaf_vector":"1"}},{"base_weights":[1.1657168E-2,-2.041417E-2,4.5482732E-2,4.428177E-2,-5.397156E-2,2.0107089E-2,-1.3641563E-2],"categories":[],"categories_nodes":[],"categories_segments":[],"categories_sizes":[],"default_left":[0,0,0,0,0,0,0],"id":47,"left_children":[1,3,-1,-1,5,-1,-1],"loss_changes":[4.2146364E-1,4.5915544E-1,0E0,0E0,5.9515107E-1,0E0,0E0],"parents":[2147483647,0,0,1,1,4,4],"right_children":[2,4,-1,-1,6,-1,-1],"split_conditions":[8.444445E0,1.9E0,4.5482732E-2,4.428177E-2,3.4E0,2.0107089E-2,-1.3641563E-2],"split_indices":[4,0,0,0,3,0,0],"split_type":[0,0,0,0,0,0,0],"sum_hessian":[2.8E1,2.7E1,1E0,1E0,2.6E1,6E0,2E1],"tree_param":{"num_deleted":"0","num_feature":"5","num_nodes":"7","size_leaf_vector":"1"}},{"base_weights":[1.3809635E-2,5.117072E-2,-3.2704335E-2,-5.775695E-2,2.754435E-1,4.3480888E-2,-1.4128287E-2,6.1192203E-2,5.217234E-4],"categories":[],"categories_nodes":[],"categories_segments":[],"categories_sizes":[],"default_left":[1,1,0,0,0,0,0,0,0],"id":48,"left_children":[1,3,-1,5,7,-1,-1,-1,-1],"loss_changes":[3.860395E-1,6.755056E-1,0E0,8.431293E-1,8.151355E-1,0E0,0E0,0E0,0E0],"parents":[2147483647,0,0,1,1,3,3,4,4],"right_children":[2,4,-1,6,8,-1,-1,-1,-1],"split_conditions":[5.44E0,3.99E0,-3.2704335E-2,3.34E0,3.97E0,4.3480888E-2,-1.4128287E-2,6.1192203E-2,5.217234E-4],"split_indices":[0,0,0,2,2,0,0,0,0],"split_type":[0,0,0,0,0,0,0,0,0],"sum_hessian":[2.8E1,2.6E1,2E0,1.8E1,8E0,2E0,1.6E1,3E0,5E0],"tree_param":{"num_deleted":"0","num_feature":"5","num_nodes":"9","size_leaf_vector":"1"}},{"base_weights":[1.4441153E-2,-1.1202925E-1,1.1030433E-1,8.828814E-2,-5.848154E-2,-3.5660896E-2,1.9633336E-1,-6.8191397E-3,7.48302E-2,5.92752E-2,8.974958E-3],"categories":[],"categories_nodes":[],"categories_segments":[],"categories_sizes":[],"default_left":[1,1,0,1,0,0,0,0,0,0,0],"id":49,"left_children":[1,3,5,7,-1,-1,9,-1,-1,-1,-1],"loss_changes":[3.639491E-1,1.282827E0,7.528719E-1,1.0838143E0,0E0,0E0,5.8057773E-1,0E0,0E0,0E0,0E0],"parents":[2147483647,0,0,1,1,2,2,3,3,6,6],"right_children":[2,4,6,8,-1,-1,10,-1,-1,-1,-1],"split_conditions":[3.35E0,3.09E0,3.48E0,2.81E0,-5.848154E-2,-3.5660896E-2,3.73E0,-6.8191397E-3,7.48302E-2,5.92752E-2,8.974958E-3],"split_indices":[0,0,2,0,0,0,2,0,0,0,0],"split_type":[0,0,0,0,0,0,0,0,0,0,0],"sum_hessian":[2.8E1,1.2E1,1.6E1,9E0,3E0,2E0,1.4E1,8E0,1E0,2E0,1.2E1],"tree_param":{"num_deleted":"0","num_feature":"5","num_nodes":"11","size_leaf_vector":"1"}},{"base_weights":[1.4449407E-2,6.5891646E-2,-1.9372778E-1,3.931365E-1,-1.9214153E-2,-3.6536336E-2,-1.6569138E-2,-2.4935722E-2,6.1609924E-2,2.7042914E-2,-1.3379052E-2,-2.4989534E-2,1.4450471E-2],"categories":[],"categories_nodes":[],"categories_segments":[],"categories_sizes":[],"default_left":[0,0,0,0,0,0,0,0,0,0,0,0,0],"id":50,"left_children":[1,3,5,7,9,-1,11,-1,-1,-1,-1,-1,-1],"loss_changes":[3.233289E-1,6.759642E-1,1.7638664E-1,8.6988956E-1,6.999064E-1,0E0,1.8644205E-1,0E0,0E0,0E0,0E0,0E0,0E0],"parents":[2147483647,0,0,1,1,2,2,3,3,4,4,6,6],"right_children":[2,4,6,8,10,-1,12,-1,-1,-1,-1,-1,-1],"split_conditions":[5.44E0,3.73E0,3.6E0,3.7777777E0,3.4E0,-3.6536336E-2,1.5720011E1,-2.4935722E-2,6.1609924E-2,2.7042914E-2,-1.3379052E-2,-2.4989534E-2,1.4450471E-2],"split_indices":[0,2,3,4,3,0,0,0,0,0,0,0,0],"split_type":[0,0,0,0,0,0,0,0,0,0,0,0,0],"sum_hessian":[2.8E1,2.3E1,5E0,4E0,1.9E1,2E0,3E0,1E0,3E0,5E0,1.4E1,1E0,2E0],"tree_param":{"num_deleted":"0","num_feature":"5","num_nodes":"13","size_leaf_vector":"1"}},{"base_weights":[1.3116988E-2,-1.02230586E-1,1.0055237E-1,8.35104E-2,-5.410254E-2,5.0784963E-1,1.238943E-2,-6.2180734E-3,6.973653E-2,1.1561048E-2,6.46164E-2,-3.1619325E-2,8.726317E-3],"categories":[],"categories_nodes":[],"categories_segments":[],"categories_sizes":[],"default_left":[1,1,0,1,0,0,0,0,0,0,0,0,0],"id":51,"left_children":[1,3,5,7,-1,9,11,-1,-1,-1,-1,-1,-1],"loss_changes":[3.0275783E-1,1.1047096E0,6.041529E-1,9.3769485E-1,0E0,8.8053524E-2,3.9662525E-1,0E0,0E0,0E0,0E0,0E0,0E0],"parents":[2147483647,0,0,1,1,2,2,3,3,5,5,6,6],"right_children":[2,4,6,8,-1,10,12,-1,-1,-1,-1,-1,-1],"split_conditions":[3.35E0,3.09E0,3.74E0,2.81E0,-5.410254E-2,3.72E0,3.48E0,-6.2180734E-3,6.973653E-2,1.1561048E-2,6.46164E-2,-3.1619325E-2,8.726317E-3],"split_indices":[0,0,0,0,0,0,2,0,0,0,0,0,0],"split_type":[0,0,0,0,0,0,0,0,0,0,0,0,0],"sum_hessian":[2.8E1,1.2E1,1.6E1,9E0,3E0,2E0,1.4E1,8E0,1E0,1E0,1E0,2E0,1.2E1],"tree_param":{"num_deleted":"0","num_feature":"5","num_nodes":"13","size_leaf_vector":"1"}},{"base_weights":[1.3967407E-2,-2.3368919E-1,5.1531214E-2,-3.8480554E-2,1.098299E-2,2.4619097E-1,-3.3142954E-2,5.18291E-2,-2.0727252E-3,-5.004486E-2,8.575488E-3],"categories":[],"categories_nodes":[],"categories_segments":[],"categories_sizes":[],"default_left":[0,1,1,0,0,0,0,0,0,0,0],"id":52,"left_children":[1,3,5,-1,-1,7,9,-1,-1,-1,-1],"loss_changes":[2.818271E-1,2.4990855E-1,4.3670848E-1,0E0,0E0,5.917704E-1,1.0985868E0,0E0,0E0,0E0,0E0],"parents":[2147483647,0,0,1,1,2,2,5,5,6,6],"right_children":[2,4,6,-1,-1,8,10,-1,-1,-1,-1],"split_conditions":[3.3333333E0,3.35E0,3.09E0,-3.8480554E-2,1.098299E-2,4E0,3.35E0,5.18291E-2,-2.0727252E-3,-5.004486E-2,8.575488E-3],"split_indices":[4,0,0,0,0,3,0,0,0,0,0],"split_type":[0,0,0,0,0,0,0,0,0,0,0],"sum_hessian":[2.8E1,3E0,2.5E1,2E0,1E0,7E0,1.8E1,3E0,4E0,3E0,1.5E1],"tree_param":{"num_deleted":"0","num_feature":"5","num_nodes":"11","size_leaf_vector":"1"}},{"base_weights":[1.1908247E-2,5.939269E-2,-1.8001424E-1,3.4972364E-1,-1.6159678E-2,-3.3187356E-2,-2.1116197E-2,-2.253673E-2,5.498382E-2,-2.7016774E-2,8.652086E-3,-2.258786E-2,1.224308E-2],"categories":[],"categories_nodes":[],"categories_segments":[],"categories_sizes":[],"default_left":[0,0,0,0,0,0,0,0,0,0,0,0,0],"id":53,"left_children":[1,3,5,7,9,-1,11,-1,-1,-1,-1,-1,-1],"loss_changes":[2.7497816E-1,5.320959E-1,1.3777296E-1,6.9933593E-1,5.450089E-1,0E0,1.452266E-1,0E0,0E0,0E0,0E0,0E0,0E0],"parents":[2147483647,0,0,1,1,2,2,3,3,4,4,6,6],"right_children":[2,4,6,8,10,-1,12,-1,-1,-1,-1,-1,-1],"split_conditions":[5.44E0,3.73E0,3.6E0,3.7777777E0,3.98E0,-3.3187356E-2,1.5720011E1,-2.253673E-2,5.498382E-2,-2.7016774E-2,8.652086E-3,-2.258786E-2,1.224308E-2],"split_indices":[0,2,3,4,2,0,0,0,0,0,0,0,0],"split_type":[0,0,0,0,0,0,0,0,0,0,0,0,0],"sum_hessian":[2.8E1,2.3E1,5E0,4E0,1.9E1,2E0,3E0,1E0,3E0,5E0,1.4E1,1E0,2E0],"tree_param":{"num_deleted":"0","num_feature":"5","num_nodes":"13","size_leaf_vector":"1"}},{"base_weights":[9.701901E-3,5.404018E-2,-1.6926819E-1,1.7256996E-1,-1.0172865E-1,-3.0974863E-2,-2.1590829E-2,9.1176474E-4,5.7892133E-2,7.9772575E-3,-2.168397E-2,-2.1458471E-2,1.142687E-2],"categories":[],"categories_nodes":[],"categories_segments":[],"categories_sizes":[],"default_left":[0,0,0,0,0,0,0,0,0,0,0,0,0],"id":54,"left_children":[1,3,5,7,9,-1,11,-1,-1,-1,-1,-1,-1],"loss_changes":[2.3926884E-1,4.6067318E-1,1.177869E-1,9.2458856E-1,2.471186E-1,0E0,1.2940054E-1,0E0,0E0,0E0,0E0,0E0,0E0],"parents":[2147483647,0,0,1,1,2,2,3,3,4,4,6,6],"right_children":[2,4,6,8,10,-1,12,-1,-1,-1,-1,-1,-1],"split_conditions":[5.44E0,4.25E0,3.6E0,4.02E0,3.8888888E0,-3.0974863E-2,1.5720011E1,9.1176474E-4,5.7892133E-2,7.9772575E-3,-2.168397E-2,-2.1458471E-2,1.142687E-2],"split_indices":[0,2,3,2,4,0,0,0,0,0,0,0,0],"split_type":[0,0,0,0,0,0,0,0,0,0,0,0,0],"sum_hessian":[2.8E1,2.3E1,5E0,1.3E1,1E1,2E0,3E0,1E1,3E0,4E0,6E0,1E0,2E0],"tree_param":{"num_deleted":"0","num_feature":"5","num_nodes":"13","size_leaf_vector":"1"}},{"base_weights":[8.87278E-3,4.4037484E-2,-2.2191599E-2,-3.0860342E-2,2.1641514E-1,4.672821E-3,-4.6024203E-2,3.6481895E-2,-1.5253084E-2],"categories":[],"categories_nodes":[],"categories_segments":[],"categories_sizes":[],"default_left":[0,0,0,0,0,0,0,0,0],"id":55,"left_children":[1,3,-1,5,7,-1,-1,-1,-1],"loss_changes":[2.4512556E-1,3.4235713E-1,0E0,6.544933E-1,4.9367E-1,0E0,0E0,0E0,0E0],"parents":[2147483647,0,0,1,1,3,3,4,4],"right_children":[2,4,-1,6,8,-1,-1,-1,-1],"split_conditions":[7.2E0,4.8E0,-2.2191599E-2,4.4E0,4.21E0,4.672821E-3,-4.6024203E-2,3.6481895E-2,-1.5253084E-2],"split_indices":[3,3,0,3,0,0,0,0,0],"split_type":[0,0,0,0,0,0,0,0,0],"sum_hessian":[2.8E1,2.5E1,3E0,1.8E1,7E0,1.6E1,2E0,5E0,2E0],"tree_param":{"num_deleted":"0","num_feature":"5","num_nodes":"9","size_leaf_vector":"1"}},{"base_weights":[6.5263426E-3,3.184512E-2,-1.5987085E-2,-3.9962664E-2,2.8893907E-2,3.6781754E-2,-3.1305589E-3],"categories":[],"categories_nodes":[],"categories_segments":[],"categories_sizes":[],"default_left":[0,0,0,0,0,0,0],"id":56,"left_children":[1,-1,3,-1,5,-1,-1],"loss_changes":[2.0874353E-1,0E0,4.9365425E-1,0E0,5.4199356E-1,0E0,0E0],"parents":[2147483647,0,0,2,2,4,4],"right_children":[2,-1,4,-1,6,-1,-1],"split_conditions":[1.9E0,3.184512E-2,2.54E0,-3.9962664E-2,3.09E0,3.6781754E-2,-3.1305589E-3],"split_indices":[0,0,0,0,0,0,0],"split_type":[0,0,0,0,0,0,0],"sum_hessian":[2.8E1,1E0,2.7E1,2E0,2.5E1,3E0,2.2E1],"tree_param":{"num_deleted":"0","num_feature":"5","num_nodes":"7","size_leaf_vector":"1"}},{"base_weights":[6.7541804E-3,3.8752656E-2,-2.0292446E-2,-3.973227E-2,1.9141667E-1,3.7946745E-3,-4.4077627E-2,-3.4288514E-2,3.0106504E-2],"categories":[],"categories_nodes":[],"categories_segments":[],"categories_sizes":[],"default_left":[0,0,0,0,0,0,0,0,0],"id":57,"left_children":[1,3,-1,5,7,-1,-1,-1,-1],"loss_changes":[2.0243639E-1,3.1913283E-1,0E0,5.774747E-1,6.304986E-1,0E0,0E0,0E0,0E0],"parents":[2147483647,0,0,1,1,3,3,4,4],"right_children":[2,4,-1,6,8,-1,-1,-1,-1],"split_conditions":[7.2E0,4.7E0,-2.0292446E-2,4.2E0,2.41E0,3.7946745E-3,-4.4077627E-2,-3.4288514E-2,3.0106504E-2],"split_indices":[3,4,0,4,0,0,0,0,0],"split_type":[0,0,0,0,0,0,0,0,0],"sum_hessian":[2.8E1,2.5E1,3E0,1.7E1,8E0,1.5E1,2E0,1E0,7E0],"tree_param":{"num_deleted":"0","num_feature":"5","num_nodes":"9","size_leaf_vector":"1"}},{"base_weights":[3.8457245E-3,4.6915133E-2,-1.6907287E-1,2.8599826E-1,-1.5201402E-2,-2.9265657E-2,-3.4116864E-2,-2.1722341E-2,4.661095E-2,8.887397E-3,-2.2118052E-2,-2.0971691E-2,9.432212E-3],"categories":[],"categories_nodes":[],"categories_segments":[],"categories_sizes":[],"default_left":[0,0,0,0,0,0,0,0,0,0,0,0,0],"id":58,"left_children":[1,3,5,7,9,-1,11,-1,-1,-1,-1,-1,-1],"loss_changes":[2.2390962E-1,3.6077192E-1,9.0085655E-2,5.544294E-1,4.484042E-1,0E0,1.0999651E-1,0E0,0E0,0E0,0E0,0E0,0E0],"parents":[2147483647,0,0,1,1,2,2,3,3,4,4,6,6],"right_children":[2,4,6,8,10,-1,12,-1,-1,-1,-1,-1,-1],"split_conditions":[5.44E0,3.73E0,3.6E0,3.7777777E0,5E0,-2.9265657E-2,1.5720011E1,-2.1722341E-2,4.661095E-2,8.887397E-3,-2.2118052E-2,-2.0971691E-2,9.432212E-3],"split_indices":[0,2,3,4,4,0,0,0,0,0,0,0,0],"split_type":[0,0,0,0,0,0,0,0,0,0,0,0,0],"sum_hessian":[2.8E1,2.3E1,5E0,4E0,1.9E1,2E0,3E0,1E0,3E0,1.3E1,6E0,1E0,2E0],"tree_param":{"num_deleted":"0","num_feature":"5","num_nodes":"13","size_leaf_vector":"1"}},{"base_weights":[2.4561388E-3,4.270945E-2,-1.5896647E-1,2.6237622E-1,-1.4342713E-2,-2.7314616E-2,-3.359008E-2,-2.0636225E-2,4.311514E-2,-3.5841E-2,4.3798643E-3,-1.9923104E-2,8.803392E-3],"categories":[],"categories_nodes":[],"categories_segments":[],"categories_sizes":[],"default_left":[0,0,0,0,0,0,0,0,0,0,0,0,0],"id":59,"left_children":[1,3,5,7,9,-1,11,-1,-1,-1,-1,-1,-1],"loss_changes":[1.952254E-1,3.0454233E-1,7.671763E-2,4.8453045E-1,4.1578862E-1,0E0,9.812274E-2,0E0,0E0,0E0,0E0,0E0,0E0],"parents":[2147483647,0,0,1,1,2,2,3,3,4,4,6,6],"right_children":[2,4,6,8,10,-1,12,-1,-1,-1,-1,-1,-1],"split_conditions":[5.44E0,3.73E0,3.6E0,3.7777777E0,2.54E0,-2.7314616E-2,1.5720011E1,-2.0636225E-2,4.311514E-2,-3.5841E-2,4.3798643E-3,-1.9923104E-2,8.803392E-3],"split_indices":[0,2,3,4,0,0,0,0,0,0,0,0,0],"split_type":[0,0,0,0,0,0,0,0,0,0,0,0,0],"sum_hessian":[2.8E1,2.3E1,5E0,4E0,1.9E1,2E0,3E0,1E0,3E0,2E0,1.7E1,1E0,2E0],"tree_param":{"num_deleted":"0","num_feature":"5","num_nodes":"13","size_leaf_vector":"1"}},{"base_weights":[5.755383E-4,1.3902609E-1,-4.158661E-2,5.608964E-2,-2.4768353E-2,-1.7952812E-1,7.83321E-2,2.2001838E-2,-1.1772938E-2,2.8607806E-2,-3.1478263E-2,4.3945227E-2,-2.7276322E-3],"categories":[],"categories_nodes":[],"categories_segments":[],"categories_sizes":[],"default_left":[0,0,1,0,0,0,0,0,0,0,0,0,0],"id":60,"left_children":[1,3,5,-1,7,9,11,-1,-1,-1,-1,-1,-1],"loss_changes":[1.7506544E-1,4.9759257E-1,3.9452344E-1,0E0,1.624364E-1,7.82781E-1,5.0777185E-1,0E0,0E0,0E0,0E0,0E0,0E0],"parents":[2147483647,0,0,1,1,2,2,4,4,5,5,6,6],"right_children":[2,4,6,-1,8,10,12,-1,-1,-1,-1,-1,-1],"split_conditions":[3.4E0,3.09E0,3.35E0,5.608964E-2,3.97E0,3.34E0,3.74E0,2.2001838E-2,-1.1772938E-2,2.8607806E-2,-3.1478263E-2,4.3945227E-2,-2.7276322E-3],"split_indices":[3,0,0,0,2,2,0,0,0,0,0,0,0],"split_type":[0,0,0,0,0,0,0,0,0,0,0,0,0],"sum_hessian":[2.8E1,6E0,2.2E1,1E0,5E0,1E1,1.2E1,1E0,4E0,2E0,8E0,2E0,1E1],"tree_param":{"num_deleted":"0","num_feature":"5","num_nodes":"13","size_leaf_vector":"1"}},{"base_weights":[4.1271364E-3,-6.875234E-2,7.673147E-2,-1.9198568E-1,1.4809527E-1,4.9320316E-1,-6.848671E-2,2.6700616E-2,-3.4010943E-2,3.7680354E-2,-2.0621415E-2,7.079789E-2,-7.5562E-3,-1.7194303E-2,6.3626766E-3],"categories":[],"categories_nodes":[],"categories_segments":[],"categories_sizes":[],"default_left":[0,1,0,0,0,0,0,0,0,0,0,0,0,0,0],"id":61,"left_children":[1,3,5,7,9,11,13,-1,-1,-1,-1,-1,-1,-1,-1],"loss_changes":[1.587251E-1,4.29275E-1,9.409668E-1,7.706871E-1,5.639031E-1,5.4212403E-1,1.7495583E-1,0E0,0E0,0E0,0E0,0E0,0E0,0E0,0E0],"parents":[2147483647,0,0,1,1,2,2,3,3,4,4,5,5,6,6],"right_children":[2,4,6,8,10,12,14,-1,-1,-1,-1,-1,-1,-1,-1],"split_conditions":[4.06E0,3.99E0,4.25E0,3.34E0,4.27E0,3.74E0,4.84E0,2.6700616E-2,-3.4010943E-2,3.7680354E-2,-2.0621415E-2,7.079789E-2,-7.5562E-3,-1.7194303E-2,6.3626766E-3],"split_indices":[2,0,2,2,0,0,2,0,0,0,0,0,0,0,0],"split_type":[0,0,0,0,0,0,0,0,0,0,0,0,0,0,0],"sum_hessian":[2.8E1,1.4E1,1.4E1,9E0,5E0,3E0,1.1E1,2E0,7E0,3E0,2E0,2E0,1E0,6E0,5E0],"tree_param":{"num_deleted":"0","num_feature":"5","num_nodes":"15","size_leaf_vector":"1"}},{"base_weights":[5.8577885E-3,4.0653706E-2,-1.3430218E-1,2.229393E-1,-6.9503784E-3,-2.2230856E-2,-3.472185E-2,-1.7767502E-2,3.6751162E-2,-2.1208318E-2,7.55661E-3,-1.775949E-2,7.2100796E-3],"categories":[],"categories_nodes":[],"categories_segments":[],"categories_sizes":[],"default_left":[0,0,0,0,0,0,0,0,0,0,0,0,0],"id":62,"left_children":[1,3,5,7,9,-1,11,-1,-1,-1,-1,-1,-1],"loss_changes":[1.4689273E-1,2.0981047E-1,4.486327E-2,3.5488632E-1,3.5456303E-1,0E0,7.3853046E-2,0E0,0E0,0E0,0E0,0E0,0E0],"parents":[2147483647,0,0,1,1,2,2,3,3,4,4,6,6],"right_children":[2,4,6,8,10,-1,12,-1,-1,-1,-1,-1,-1],"split_conditions":[5.44E0,3.73E0,3.6E0,3.7777777E0,3.98E0,-2.2230856E-2,1.5720011E1,-1.7767502E-2,3.6751162E-2,-2.1208318E-2,7.55661E-3,-1.775949E-2,7.2100796E-3],"split_indices":[0,2,3,4,2,0,0,0,0,0,0,0,0],"split_type":[0,0,0,0,0,0,0,0,0,0,0,0,0],"sum_hessian":[2.8E1,2.3E1,5E0,4E0,1.9E1,2E0,3E0,1E0,3E0,5E0,1.4E1,1E0,2E0],"tree_param":{"num_deleted":"0","num_feature":"5","num_nodes":"13","size_leaf_vector":"1"}},{"base_weights":[4.32555E-3,1.3130328E-1,-3.450791E-2,4.9367428E-2,-1.1370937E-2,-1.5540546E-1,7.044447E-2,2.0078158E-2,-9.395776E-3,2.3455199E-2,-2.6812403E-2,4.0244367E-2,-2.6504798E-3],"categories":[],"categories_nodes":[],"categories_segments":[],"categories_sizes":[],"default_left":[0,0,1,0,0,0,0,0,0,0,0,0,0],"id":63,"left_children":[1,3,5,-1,7,9,11,-1,-1,-1,-1,-1,-1],"loss_changes":[1.4752956E-1,3.675205E-1,3.0278265E-1,0E0,1.23991E-1,5.463988E-1,4.290987E-1,0E0,0E0,0E0,0E0,0E0,0E0],"parents":[2147483647,0,0,1,1,2,2,4,4,5,5,6,6],"right_children":[2,4,6,-1,8,10,12,-1,-1,-1,-1,-1,-1],"split_conditions":[3.4E0,3.09E0,3.35E0,4.9367428E-2,3.97E0,3.34E0,3.74E0,2.0078158E-2,-9.395776E-3,2.3455199E-2,-2.6812403E-2,4.0244367E-2,-2.6504798E-3],"split_indices":[3,0,0,0,2,2,0,0,0,0,0,0,0],"split_type":[0,0,0,0,0,0,0,0,0,0,0,0,0],"sum_hessian":[2.8E1,6E0,2.2E1,1E0,5E0,1E1,1.2E1,1E0,4E0,2E0,8E0,2E0,1E1],"tree_param":{"num_deleted":"0","num_feature":"5","num_nodes":"13","size_leaf_vector":"1"}},{"base_weights":[7.144155E-3,1.2675133E-1,-2.9568646E-2,4.689903E-2,-8.453548E-3,-1.4017011E-1,6.629172E-2,1.907425E-2,-8.644125E-3,2.1891523E-2,-2.4429077E-2,3.75614E-2,-2.4095427E-3],"categories":[],"categories_nodes":[],"categories_segments":[],"categories_sizes":[],"default_left":[0,0,1,0,0,0,0,0,0,0,0,0,0],"id":64,"left_children":[1,3,5,-1,7,9,11,-1,-1,-1,-1,-1,-1],"loss_changes":[1.310902E-1,3.2787132E-1,2.5314495E-1,0E0,1.0969707E-1,4.6474922E-1,3.7251443E-1,0E0,0E0,0E0,0E0,0E0,0E0],"parents":[2147483647,0,0,1,1,2,2,4,4,5,5,6,6],"right_children":[2,4,6,-1,8,10,12,-1,-1,-1,-1,-1,-1],"split_conditions":[3.4E0,3.09E0,3.35E0,4.689903E-2,3.97E0,3.34E0,3.74E0,1.907425E-2,-8.644125E-3,2.1891523E-2,-2.4429077E-2,3.75614E-2,-2.4095427E-3],"split_indices":[3,0,0,0,2,2,0,0,0,0,0,0,0],"split_type":[0,0,0,0,0,0,0,0,0,0,0,0,0],"sum_hessian":[2.8E1,6E0,2.2E1,1E0,5E0,1E1,1.2E1,1E0,4E0,2E0,8E0,2E0,1E1],"tree_param":{"num_deleted":"0","num_feature":"5","num_nodes":"13","size_leaf_vector":"1"}},{"base_weights":[9.531202E-3,-5.7528447E-2,7.5955436E-2,-1.6614638E-1,1.3308953E-1,4.117725E-1,-4.23132E-2,2.0432083E-2,-2.8430331E-2,3.2821167E-2,-1.714365E-2,5.9771825E-2,-7.303238E-3,8.218304E-3,-1.4297952E-2],"categories":[],"categories_nodes":[],"categories_segments":[],"categories_sizes":[],"default_left":[0,1,0,0,0,0,0,0,0,0,0,0,0,0,0],"id":65,"left_children":[1,3,5,7,9,11,13,-1,-1,-1,-1,-1,-1,-1,-1],"loss_changes":[1.335468E-1,3.326803E-1,6.1317277E-1,4.9582165E-1,4.1278613E-1,4.042424E-1,1.6214144E-1,0E0,0E0,0E0,0E0,0E0,0E0,0E0,0E0],"parents":[2147483647,0,0,1,1,2,2,3,3,4,4,5,5,6,6],"right_children":[2,4,6,8,10,12,14,-1,-1,-1,-1,-1,-1,-1,-1],"split_conditions":[4.06E0,3.99E0,4.25E0,3.34E0,4.27E0,3.74E0,3.8888888E0,2.0432083E-2,-2.8430331E-2,3.2821167E-2,-1.714365E-2,5.9771825E-2,-7.303238E-3,8.218304E-3,-1.4297952E-2],"split_indices":[2,0,2,2,0,0,4,0,0,0,0,0,0,0,0],"split_type":[0,0,0,0,0,0,0,0,0,0,0,0,0,0,0],"sum_hessian":[2.8E1,1.4E1,1.4E1,9E0,5E0,3E0,1.1E1,2E0,7E0,3E0,2E0,2E0,1E0,5E0,6E0],"tree_param":{"num_deleted":"0","num_feature":"5","num_nodes":"15","size_leaf_vector":"1"}},{"base_weights":[1.0442528E-2,-5.126362E-2,7.1452506E-2,-1.5033157E-1,1.2239357E-1,3.837124E-1,-3.8588505E-2,1.9069951E-2,-2.5942678E-2,3.035959E-2,-1.600074E-2,5.5787038E-2,-6.938076E-3,7.533447E-3,-1.30724115E-2],"categories":[],"categories_nodes":[],"categories_segments":[],"categories_sizes":[],"default_left":[0,1,0,0,0,0,0,0,0,0,0,0,0,0,0],"id":66,"left_children":[1,3,5,7,9,11,13,-1,-1,-1,-1,-1,-1,-1,-1],"loss_changes":[1.1283894E-1,2.7645755E-1,5.3022784E-1,4.215211E-1,3.5560787E-1,3.5434467E-1,1.3580438E-1,0E0,0E0,0E0,0E0,0E0,0E0,0E0,0E0],"parents":[2147483647,0,0,1,1,2,2,3,3,4,4,5,5,6,6],"right_children":[2,4,6,8,10,12,14,-1,-1,-1,-1,-1,-1,-1,-1],"split_conditions":[4.06E0,3.99E0,4.25E0,3.34E0,4.27E0,3.74E0,3.8888888E0,1.9069951E-2,-2.5942678E-2,3.035959E-2,-1.600074E-2,5.5787038E-2,-6.938076E-3,7.533447E-3,-1.30724115E-2],"split_indices":[2,0,2,2,0,0,4,0,0,0,0,0,0,0,0],"split_type":[0,0,0,0,0,0,0,0,0,0,0,0,0,0,0],"sum_hessian":[2.8E1,1.4E1,1.4E1,9E0,5E0,3E0,1.1E1,2E0,7E0,3E0,2E0,2E0,1E0,5E0,6E0],"tree_param":{"num_deleted":"0","num_feature":"5","num_nodes":"15","size_leaf_vector":"1"}},{"base_weights":[1.1149842E-2,-5.4035313E-2,6.0341444E-2,5.934565E-2,-3.239789E-1,3.3017763E-1,2.351443E-3,-8.062152E-3,2.8945178E-2,-4.2884797E-2,-1.4607322E-2,1.0200954E-2,3.932569E-2,-1.9245846E-2,4.7126696E-3],"categories":[],"categories_nodes":[],"categories_segments":[],"categories_sizes":[],"default_left":[1,1,0,1,0,0,0,0,0,0,0,0,0,0,0],"id":67,"left_children":[1,3,5,7,9,11,13,-1,-1,-1,-1,-1,-1,-1,-1],"loss_changes":[9.625087E-2,4.1711077E-1,2.652362E-1,3.4540904E-1,1.19840205E-2,3.0620694E-3,1.3990988E-1,0E0,0E0,0E0,0E0,0E0,0E0,0E0,0E0],"parents":[2147483647,0,0,1,1,2,2,3,3,4,4,5,5,6,6],"right_children":[2,4,6,8,10,12,14,-1,-1,-1,-1,-1,-1,-1,-1],"split_conditions":[3.35E0,3.09E0,3.74E0,2.54E0,3.15E0,3.72E0,3.48E0,-8.062152E-3,2.8945178E-2,-4.2884797E-2,-1.4607322E-2,1.0200954E-2,3.932569E-2,-1.9245846E-2,4.7126696E-3],"split_indices":[0,0,0,0,0,0,2,0,0,0,0,0,0,0,0],"split_type":[0,0,0,0,0,0,0,0,0,0,0,0,0,0,0],"sum_hessian":[2.8E1,1.2E1,1.6E1,9E0,3E0,2E0,1.4E1,6E0,3E0,1E0,2E0,1E0,1E0,2E0,1.2E1],"tree_param":{"num_deleted":"0","num_feature":"5","num_nodes":"15","size_leaf_vector":"1"}},{"base_weights":[9.979182E-3,3.1493306E-2,-1.3235742E-2,-4.0628336E-2,1.1902092E-1,-1.2851042E-2,1.1261318E-2,4.979221E-2,-6.551528E-4],"categories":[],"categories_nodes":[],"categories_segments":[],"categories_sizes":[],"default_left":[0,0,0,1,0,0,0,0,0],"id":68,"left_children":[1,3,-1,5,7,-1,-1,-1,-1],"loss_changes":[9.297354E-2,1.6896415E-1,0E0,2.164797E-1,5.742167E-1,0E0,0E0,0E0,0E0],"parents":[2147483647,0,0,1,1,3,3,4,4],"right_children":[2,4,-1,6,8,-1,-1,-1,-1],"split_conditions":[7.2E0,4.06E0,-1.3235742E-2,3.99E0,4.25E0,-1.2851042E-2,1.1261318E-2,4.979221E-2,-6.551528E-4],"split_indices":[3,2,0,0,2,0,0,0,0],"split_type":[0,0,0,0,0,0,0,0,0],"sum_hessian":[2.8E1,2.5E1,3E0,1.4E1,1.1E1,9E0,5E0,2E0,9E0],"tree_param":{"num_deleted":"0","num_feature":"5","num_nodes":"9","size_leaf_vector":"1"}},{"base_weights":[1.0164426E-2,2.7806608E-2,-1.5200336E-2,-4.906515E-2,9.257503E-2,5.5922726E-3,-2.9926855E-2,3.0135497E-2,3.7273883E-3],"categories":[],"categories_nodes":[],"categories_segments":[],"categories_sizes":[],"default_left":[1,1,0,1,0,0,0,0,0],"id":69,"left_children":[1,3,-1,5,7,-1,-1,-1,-1],"loss_changes":[8.7195516E-2,1.389715E-1,0E0,3.5822412E-1,1.6195388E-1,0E0,0E0,0E0,0E0],"parents":[2147483647,0,0,1,1,3,3,4,4],"right_children":[2,4,-1,6,8,-1,-1,-1,-1],"split_conditions":[5.44E0,3.35E0,-1.5200336E-2,3.09E0,3.74E0,5.5922726E-3,-2.9926855E-2,3.0135497E-2,3.7273883E-3],"split_indices":[0,0,0,0,0,0,0,0,0],"split_type":[0,0,0,0,0,0,0,0,0],"sum_hessian":[2.8E1,2.6E1,2E0,1.2E1,1.4E1,9E0,3E0,2E0,1.2E1],"tree_param":{"num_deleted":"0","num_feature":"5","num_nodes":"9","size_leaf_vector":"1"}},{"base_weights":[8.952371E-3,3.399204E-2,-9.269837E-2,1.7696838E-1,-3.4516454E-3,-1.5037282E-2,-2.6267946E-2,-1.2489009E-2,2.8365552E-2,-1.605591E-2,5.9621446E-3,-1.3802039E-2,5.6989673E-3],"categories":[],"categories_nodes":[],"categories_segments":[],"categories_sizes":[],"default_left":[0,0,0,0,0,0,0,0,0,0,0,0,0],"id":70,"left_children":[1,3,5,7,9,-1,11,-1,-1,-1,-1,-1,-1],"loss_changes":[7.696474E-2,1.2909631E-1,1.9038048E-2,1.9644786E-1,2.0775782E-1,0E0,4.5082707E-2,0E0,0E0,0E0,0E0,0E0,0E0],"parents":[2147483647,0,0,1,1,2,2,3,3,4,4,6,6],"right_children":[2,4,6,8,10,-1,12,-1,-1,-1,-1,-1,-1],"split_conditions":[5.44E0,3.73E0,3.6E0,3.7777777E0,3.98E0,-1.5037282E-2,1.5720011E1,-1.2489009E-2,2.8365552E-2,-1.605591E-2,5.9621446E-3,-1.3802039E-2,5.6989673E-3],"split_indices":[0,2,3,4,2,0,0,0,0,0,0,0,0],"split_type":[0,0,0,0,0,0,0,0,0,0,0,0,0],"sum_hessian":[2.8E1,2.3E1,5E0,4E0,1.9E1,2E0,3E0,1E0,3E0,5E0,1.4E1,1E0,2E0],"tree_param":{"num_deleted":"0","num_feature":"5","num_nodes":"13","size_leaf_vector":"1"}},{"base_weights":[7.4585266E-3,2.6978267E-2,-1.21284425E-2,-3.4981687E-2,1.0218003E-1,2.8778135E-3,-2.1751573E-2,4.48843E-2,-1.2036873E-3],"categories":[],"categories_nodes":[],"categories_segments":[],"categories_sizes":[],"default_left":[0,0,0,0,0,0,0,0,0],"id":71,"left_children":[1,3,-1,5,7,-1,-1,-1,-1],"loss_changes":[7.614989E-2,1.2472137E-1,0E0,1.8083479E-1,4.8053992E-1,0E0,0E0,0E0,0E0],"parents":[2147483647,0,0,1,1,3,3,4,4],"right_children":[2,4,-1,6,8,-1,-1,-1,-1],"split_conditions":[7.2E0,4.06E0,-1.21284425E-2,3.97E0,4.25E0,2.8778135E-3,-2.1751573E-2,4.48843E-2,-1.2036873E-3],"split_indices":[3,2,0,2,2,0,0,0,0],"split_type":[0,0,0,0,0,0,0,0,0],"sum_hessian":[2.8E1,2.5E1,3E0,1.4E1,1.1E1,1.1E1,3E0,2E0,9E0],"tree_param":{"num_deleted":"0","num_feature":"5","num_nodes":"9","size_leaf_vector":"1"}},{"base_weights":[7.149836E-3,-4.9483307E-2,5.0036956E-2,4.2479564E-2,-2.6701966E-1,2.6870847E-2,2.966857E-3,-2.0814784E-2,1.311549E-2,-3.6711287E-2,-1.1128429E-2,-1.684285E-2,4.229141E-3],"categories":[],"categories_nodes":[],"categories_segments":[],"categories_sizes":[],"default_left":[1,1,0,0,0,0,0,0,0,0,0,0,0],"id":72,"left_children":[1,3,5,7,9,-1,11,-1,-1,-1,-1,-1,-1],"loss_changes":[7.2912134E-2,2.7141136E-1,1.7418191E-1,2.495443E-1,2.1498322E-2,0E0,1.08223766E-1,0E0,0E0,0E0,0E0,0E0,0E0],"parents":[2147483647,0,0,1,1,2,2,3,3,4,4,6,6],"right_children":[2,4,6,8,10,-1,12,-1,-1,-1,-1,-1,-1],"split_conditions":[3.35E0,3.09E0,3.74E0,3.3333333E0,3.15E0,2.6870847E-2,3.48E0,-2.0814784E-2,1.311549E-2,-3.6711287E-2,-1.1128429E-2,-1.684285E-2,4.229141E-3],"split_indices":[0,0,0,4,0,0,2,0,0,0,0,0,0],"split_type":[0,0,0,0,0,0,0,0,0,0,0,0,0],"sum_hessian":[2.8E1,1.2E1,1.6E1,9E0,3E0,2E0,1.4E1,2E0,7E0,1E0,2E0,2E0,1.2E1],"tree_param":{"num_deleted":"0","num_feature":"5","num_nodes":"13","size_leaf_vector":"1"}},{"base_weights":[5.011361E-3,9.143015E-2,-2.1507895E-2,3.136153E-2,2.1300714E-3,-1.03083916E-1,4.917242E-2,1.4423871E-2,-5.51394E-3,1.6618324E-2,-1.8138586E-2,2.5079457E-2,-1.028566E-3],"categories":[],"categories_nodes":[],"categories_segments":[],"categories_sizes":[],"default_left":[0,0,1,0,0,0,0,0,0,0,0,0,0],"id":73,"left_children":[1,3,5,-1,7,9,11,-1,-1,-1,-1,-1,-1],"loss_changes":[6.842757E-2,1.3822006E-1,1.3768272E-1,0E0,5.6784153E-2,2.6206884E-1,1.5842444E-1,0E0,0E0,0E0,0E0,0E0,0E0],"parents":[2147483647,0,0,1,1,2,2,4,4,5,5,6,6],"right_children":[2,4,6,-1,8,10,12,-1,-1,-1,-1,-1,-1],"split_conditions":[3.4E0,3.09E0,3.35E0,3.136153E-2,3.97E0,3.34E0,3.74E0,1.4423871E-2,-5.51394E-3,1.6618324E-2,-1.8138586E-2,2.5079457E-2,-1.028566E-3],"split_indices":[3,0,0,0,2,2,0,0,0,0,0,0,0],"split_type":[0,0,0,0,0,0,0,0,0,0,0,0,0],"sum_hessian":[2.8E1,6E0,2.2E1,1E0,5E0,1E1,1.2E1,1E0,4E0,2E0,8E0,2E0,1E1],"tree_param":{"num_deleted":"0","num_feature":"5","num_nodes":"13","size_leaf_vector":"1"}},{"base_weights":[6.6758436E-3,8.8040285E-2,-1.8377502E-2,2.9793454E-2,3.4021537E-3,-9.291374E-2,4.6105273E-2,1.37026785E-2,-5.072813E-3,1.551044E-2,-1.652627E-2,-1.5651425E-2,9.717376E-3],"categories":[],"categories_nodes":[],"categories_segments":[],"categories_sizes":[],"default_left":[0,0,1,0,0,0,0,0,0,0,0,0,0],"id":74,"left_children":[1,3,5,-1,7,9,11,-1,-1,-1,-1,-1,-1],"loss_changes":[6.0733046E-2,1.2334179E-1,1.14828795E-1,0E0,5.034995E-2,2.2301537E-1,1.4972621E-1,0E0,0E0,0E0,0E0,0E0,0E0],"parents":[2147483647,0,0,1,1,2,2,4,4,5,5,6,6],"right_children":[2,4,6,-1,8,10,12,-1,-1,-1,-1,-1,-1],"split_conditions":[3.4E0,3.09E0,3.35E0,2.9793454E-2,3.97E0,3.34E0,3.48E0,1.37026785E-2,-5.072813E-3,1.551044E-2,-1.652627E-2,-1.5651425E-2,9.717376E-3],"split_indices":[3,0,0,0,2,2,2,0,0,0,0,0,0],"split_type":[0,0,0,0,0,0,0,0,0,0,0,0,0],"sum_hessian":[2.8E1,6E0,2.2E1,1E0,5E0,1E1,1.2E1,1E0,4E0,2E0,8E0,2E0,1E1],"tree_param":{"num_deleted":"0","num_feature":"5","num_nodes":"13","size_leaf_vector":"1"}},{"base_weights":[7.093479E-3,2.4404086E-2,-1.0719883E-2,-3.3700068E-2,9.50006E-2,-1.1241865E-2,1.0311425E-2,3.7360717E-2,1.9185782E-4],"categories":[],"categories_nodes":[],"categories_segments":[],"categories_sizes":[],"default_left":[0,0,0,1,0,0,0,0,0],"id":75,"left_children":[1,3,-1,5,7,-1,-1,-1,-1],"loss_changes":[5.99917E-2,1.09852254E-1,0E0,1.731394E-1,3.1048235E-1,0E0,0E0,0E0,0E0],"parents":[2147483647,0,0,1,1,3,3,4,4],"right_children":[2,4,-1,6,8,-1,-1,-1,-1],"split_conditions":[7.2E0,4.06E0,-1.0719883E-2,3.99E0,4.25E0,-1.1241865E-2,1.0311425E-2,3.7360717E-2,1.9185782E-4],"split_indices":[3,2,0,0,2,0,0,0,0],"split_type":[0,0,0,0,0,0,0,0,0],"sum_hessian":[2.8E1,2.5E1,3E0,1.4E1,1.1E1,9E0,5E0,2E0,9E0],"tree_param":{"num_deleted":"0","num_feature":"5","num_nodes":"9","size_leaf_vector":"1"}},{"base_weights":[7.277345E-3,2.1099316E-2,-1.1954618E-2,-1.6560761E-2,9.825955E-2,-1.1817005E-2,6.807964E-3,2.1258669E-2,-3.5719492E-3],"categories":[],"categories_nodes":[],"categories_segments":[],"categories_sizes":[],"default_left":[1,1,0,0,0,0,0,0,0],"id":76,"left_children":[1,3,-1,5,7,-1,-1,-1,-1],"loss_changes":[5.335792E-2,8.0085486E-2,0E0,1.7144972E-1,1.4545044E-1,0E0,0E0,0E0,0E0],"parents":[2147483647,0,0,1,1,3,3,4,4],"right_children":[2,4,-1,6,8,-1,-1,-1,-1],"split_conditions":[5.44E0,3.99E0,-1.1954618E-2,3.98E0,4.6E0,-1.1817005E-2,6.807964E-3,2.1258669E-2,-3.5719492E-3],"split_indices":[0,0,0,2,2,0,0,0,0],"split_type":[0,0,0,0,0,0,0,0,0],"sum_hessian":[2.8E1,2.6E1,2E0,1.8E1,8E0,8E0,1E1,4E0,4E0],"tree_param":{"num_deleted":"0","num_feature":"5","num_nodes":"9","size_leaf_vector":"1"}},{"base_weights":[6.5745446E-3,2.297467E-2,-1.0166991E-2,-2.7201327E-2,8.378011E-2,-1.1353991E-2,6.2537417E-3,3.441612E-2,-2.712226E-4],"categories":[],"categories_nodes":[],"categories_segments":[],"categories_sizes":[],"default_left":[0,0,0,0,0,0,0,0,0],"id":77,"left_children":[1,3,-1,5,7,-1,-1,-1,-1],"loss_changes":[5.3817287E-2,8.160424E-2,0E0,1.2331922E-1,2.7118507E-1,0E0,0E0,0E0,0E0],"parents":[2147483647,0,0,1,1,3,3,4,4],"right_children":[2,4,-1,6,8,-1,-1,-1,-1],"split_conditions":[7.2E0,4.06E0,-1.0166991E-2,3.99E0,4.25E0,-1.1353991E-2,6.2537417E-3,3.441612E-2,-2.712226E-4],"split_indices":[3,2,0,0,2,0,0,0,0],"split_type":[0,0,0,0,0,0,0,0,0],"sum_hessian":[2.8E1,2.5E1,3E0,1.4E1,1.1E1,7E0,7E0,2E0,9E0],"tree_param":{"num_deleted":"0","num_feature":"5","num_nodes":"9","size_leaf_vector":"1"}},{"base_weights":[6.568062E-3,1.9915206E-2,-1.1574558E-2,1.618368E-2,2.088008E-3,-1.7070284E-2,4.312926E-3],"categories":[],"categories_nodes":[],"categories_segments":[],"categories_sizes":[],"default_left":[1,0,0,0,1,0,0],"id":78,"left_children":[1,3,-1,-1,5,-1,-1],"loss_changes":[4.9648695E-2,6.7973815E-2,0E0,0E0,1.846511E-1,0E0,0E0],"parents":[2147483647,0,0,1,1,4,4],"right_children":[2,4,-1,-1,6,-1,-1],"split_conditions":[5.44E0,3.34E0,-1.1574558E-2,1.618368E-2,2.54E0,-1.7070284E-2,4.312926E-3],"split_indices":[0,2,0,0,0,0,0],"split_type":[0,0,0,0,0,0,0],"sum_hessian":[2.8E1,2.6E1,2E0,2E0,2.4E1,4E0,2E1],"tree_param":{"num_deleted":"0","num_feature":"5","num_nodes":"7","size_leaf_vector":"1"}},{"base_weights":[5.630271E-3,2.1245966E-2,-9.727932E-3,-2.5459988E-2,7.785791E-2,2.5796155E-3,-1.7286344E-2,3.183419E-2,-2.0730733E-4],"categories":[],"categories_nodes":[],"categories_segments":[],"categories_sizes":[],"default_left":[0,0,0,0,0,0,0,0,0],"id":79,"left_children":[1,3,-1,5,7,-1,-1,-1,-1],"loss_changes":[4.8669927E-2,7.072925E-2,0E0,1.1778919E-1,2.3132539E-1,0E0,0E0,0E0,0E0],"parents":[2147483647,0,0,1,1,3,3,4,4],"right_children":[2,4,-1,6,8,-1,-1,-1,-1],"split_conditions":[7.2E0,4.06E0,-9.727932E-3,3.97E0,4.25E0,2.5796155E-3,-1.7286344E-2,3.183419E-2,-2.0730733E-4],"split_indices":[3,2,0,2,2,0,0,0,0],"split_type":[0,0,0,0,0,0,0,0,0],"sum_hessian":[2.8E1,2.5E1,3E0,1.4E1,1.1E1,1.1E1,3E0,2E0,9E0],"tree_param":{"num_deleted":"0","num_feature":"5","num_nodes":"9","size_leaf_vector":"1"}},{"base_weights":[5.315246E-3,3.8407587E-2,-3.8368218E-2,3.2483975E-3,2.01401E-2,-2.1599934E-1,3.6521055E-2,-8.347774E-3,5.495924E-3,-3.0773168E-2,-8.284465E-3,1.0813921E-2,-9.794098E-3],"categories":[],"categories_nodes":[],"categories_segments":[],"categories_sizes":[],"default_left":[0,0,0,1,0,0,0,0,0,0,0,0,0],"id":80,"left_children":[1,3,5,7,-1,9,11,-1,-1,-1,-1,-1,-1],"loss_changes":[4.339568E-2,9.676794E-2,1.8082318E-1,7.185809E-2,0E0,2.336444E-2,1.0689049E-1,0E0,0E0,0E0,0E0,0E0,0E0],"parents":[2147483647,0,0,1,1,2,2,3,3,5,5,6,6],"right_children":[2,4,6,8,-1,10,12,-1,-1,-1,-1,-1,-1],"split_conditions":[4.4E0,4.2E0,3.35E0,2.81E0,2.01401E-2,3.98E0,4.21E0,-8.347774E-3,5.495924E-3,-3.0773168E-2,-8.284465E-3,1.0813921E-2,-9.794098E-3],"split_indices":[3,3,0,0,0,2,0,0,0,0,0,0,0],"split_type":[0,0,0,0,0,0,0,0,0,0,0,0,0],"sum_hessian":[2.8E1,1.6E1,1.2E1,1.4E1,2E0,3E0,9E0,5E0,9E0,1E0,2E0,6E0,3E0],"tree_param":{"num_deleted":"0","num_feature":"5","num_nodes":"13","size_leaf_vector":"1"}},{"base_weights":[4.0682433E-3,1.4872956E-2,-6.4100027E-3,-1.8486278E-2,1.442724E-2,1.9010598E-2,-1.6752854E-3],"categories":[],"categories_nodes":[],"categories_segments":[],"categories_sizes":[],"default_left":[0,0,0,0,0,0,0],"id":81,"left_children":[1,-1,3,-1,5,-1,-1],"loss_changes":[4.4911467E-2,0E0,1.0678404E-1,0E0,1.4560449E-1,0E0,0E0],"parents":[2147483647,0,0,2,2,4,4],"right_children":[2,-1,4,-1,6,-1,-1],"split_conditions":[1.9E0,1.4872956E-2,2.54E0,-1.8486278E-2,3.09E0,1.9010598E-2,-1.6752854E-3],"split_indices":[0,0,0,0,0,0,0],"split_type":[0,0,0,0,0,0,0],"sum_hessian":[2.8E1,1E0,2.7E1,2E0,2.5E1,3E0,2.2E1],"tree_param":{"num_deleted":"0","num_feature":"5","num_nodes":"7","size_leaf_vector":"1"}},{"base_weights":[4.134544E-3,4.990223E-2,-2.6606943E-2,9.816297E-2,-7.115999E-2,1.0266175E-1,-7.087384E-2,-3.0148984E-3,1.3913052E-2,-9.286138E-3,-3.027916E-4,1.822622E-2,-1.0786998E-2,-2.753228E-2,9.914312E-4],"categories":[],"categories_nodes":[],"categories_segments":[],"categories_sizes":[],"default_left":[0,0,0,0,0,1,0,0,0,0,0,0,0,0,0],"id":82,"left_children":[1,3,5,7,9,11,13,-1,-1,-1,-1,-1,-1,-1,-1],"loss_changes":[4.212978E-2,7.70959E-2,1.1027786E-1,5.1504284E-2,5.6330655E-3,1.0345269E-1,2.3396838E-1,0E0,0E0,0E0,0E0,0E0,0E0,0E0,0E0],"parents":[2147483647,0,0,1,1,2,2,3,3,4,4,5,5,6,6],"right_children":[2,4,6,8,10,12,14,-1,-1,-1,-1,-1,-1,-1,-1],"split_conditions":[3.8888888E0,5.44E0,3.73E0,3.3E0,4.06E0,7.86E0,3.98E0,-3.0148984E-3,1.3913052E-2,-9.286138E-3,-3.027916E-4,1.822622E-2,-1.0786998E-2,-2.753228E-2,9.914312E-4],"split_indices":[4,0,2,4,2,0,2,0,0,0,0,0,0,0,0],"split_type":[0,0,0,0,0,0,0,0,0,0,0,0,0,0,0],"sum_hessian":[2.8E1,1.1E1,1.7E1,8E0,3E0,4E0,1.3E1,2E0,6E0,2E0,1E0,3E0,1E0,3E0,1E1],"tree_param":{"num_deleted":"0","num_feature":"5","num_nodes":"15","size_leaf_vector":"1"}},{"base_weights":[3.1075312E-3,1.6951364E-2,-8.765426E-3,-2.2460548E-2,6.480364E-2,-8.053373E-3,7.80715E-3,2.8524289E-2,-7.808494E-4],"categories":[],"categories_nodes":[],"categories_segments":[],"categories_sizes":[],"default_left":[0,0,0,1,0,0,0,0,0],"id":83,"left_children":[1,3,-1,5,7,-1,-1,-1,-1],"loss_changes":[3.79241E-2,5.0490223E-2,0E0,9.3860604E-2,1.9430608E-1,0E0,0E0,0E0,0E0],"parents":[2147483647,0,0,1,1,3,3,4,4],"right_children":[2,4,-1,6,8,-1,-1,-1,-1],"split_conditions":[7.2E0,4.06E0,-8.765426E-3,3.99E0,4.25E0,-8.053373E-3,7.80715E-3,2.8524289E-2,-7.808494E-4],"split_indices":[3,2,0,0,2,0,0,0,0],"split_type":[0,0,0,0,0,0,0,0,0],"sum_hessian":[2.8E1,2.5E1,3E0,1.4E1,1.1E1,9E0,5E0,2E0,9E0],"tree_param":{"num_deleted":"0","num_feature":"5","num_nodes":"9","size_leaf_vector":"1"}},{"base_weights":[3.442715E-3,1.3836312E-2,-6.317411E-3,-1.594115E-2,1.159027E-2,1.6513336E-2,-1.5616801E-3],"categories":[],"categories_nodes":[],"categories_segments":[],"categories_sizes":[],"default_left":[0,0,0,0,0,0,0],"id":84,"left_children":[1,-1,3,-1,5,-1,-1],"loss_changes":[3.9062463E-2,0E0,7.8611314E-2,0E0,1.11192755E-1,0E0,0E0],"parents":[2147483647,0,0,2,2,4,4],"right_children":[2,-1,4,-1,6,-1,-1],"split_conditions":[1.9E0,1.3836312E-2,2.54E0,-1.594115E-2,3.09E0,1.6513336E-2,-1.5616801E-3],"split_indices":[0,0,0,0,0,0,0],"split_type":[0,0,0,0,0,0,0],"sum_hessian":[2.8E1,1E0,2.7E1,2E0,2.5E1,3E0,2.2E1],"tree_param":{"num_deleted":"0","num_feature":"5","num_nodes":"7","size_leaf_vector":"1"}},{"base_weights":[3.5414367E-3,4.657008E-2,-2.5341073E-2,9.098819E-2,-6.501317E-2,9.205918E-2,-6.545966E-2,-1.9360146E-3,1.25282025E-2,-8.5547445E-3,-1.7051697E-4,1.6787363E-2,-1.0559929E-2,-2.4386749E-2,5.366792E-4],"categories":[],"categories_nodes":[],"categories_segments":[],"categories_sizes":[],"default_left":[0,0,0,0,0,1,0,0,0,0,0,0,0,0,0],"id":85,"left_children":[1,3,5,7,9,11,13,-1,-1,-1,-1,-1,-1,-1,-1],"loss_changes":[3.722062E-2,6.539123E-2,9.080494E-2,3.6483876E-2,5.054062E-3,9.265417E-2,1.7821269E-1,0E0,0E0,0E0,0E0,0E0,0E0,0E0,0E0],"parents":[2147483647,0,0,1,1,2,2,3,3,4,4,5,5,6,6],"right_children":[2,4,6,8,10,12,14,-1,-1,-1,-1,-1,-1,-1,-1],"split_conditions":[3.8888888E0,5.44E0,3.73E0,3.3E0,4.06E0,7.86E0,3.98E0,-1.9360146E-3,1.25282025E-2,-8.5547445E-3,-1.7051697E-4,1.6787363E-2,-1.0559929E-2,-2.4386749E-2,5.366792E-4],"split_indices":[4,0,2,4,2,0,2,0,0,0,0,0,0,0,0],"split_type":[0,0,0,0,0,0,0,0,0,0,0,0,0,0,0],"sum_hessian":[2.8E1,1.1E1,1.7E1,8E0,3E0,4E0,1.3E1,2E0,6E0,2E0,1E0,3E0,1E0,3E0,1E1],"tree_param":{"num_deleted":"0","num_feature":"5","num_nodes":"15","size_leaf_vector":"1"}},{"base_weights":[2.643984E-3,1.25180725E-2,-6.203068E-3,-1.4000989E-2,9.474759E-3,1.4934796E-2,-1.5262961E-3],"categories":[],"categories_nodes":[],"categories_segments":[],"categories_sizes":[],"default_left":[0,0,0,0,0,0,0],"id":86,"left_children":[1,-1,3,-1,5,-1,-1],"loss_changes":[3.221508E-2,0E0,6.0064964E-2,0E0,9.224324E-2,0E0,0E0],"parents":[2147483647,0,0,2,2,4,4],"right_children":[2,-1,4,-1,6,-1,-1],"split_conditions":[1.9E0,1.25180725E-2,2.54E0,-1.4000989E-2,3.09E0,1.4934796E-2,-1.5262961E-3],"split_indices":[0,0,0,0,0,0,0],"split_type":[0,0,0,0,0,0,0],"sum_hessian":[2.8E1,1E0,2.7E1,2E0,2.5E1,3E0,2.2E1],"tree_param":{"num_deleted":"0","num_feature":"5","num_nodes":"7","size_leaf_vector":"1"}},{"base_weights":[2.7908375E-3,1.5292351E-2,-7.916671E-3,-1.2922446E-2,7.002279E-2,2.8073087E-3,-2.2725781E-2,1.2343573E-2,-7.7948333E-3],"categories":[],"categories_nodes":[],"categories_segments":[],"categories_sizes":[],"default_left":[0,0,0,0,1,0,0,0,0],"id":87,"left_children":[1,3,-1,5,7,-1,-1,-1,-1],"loss_changes":[3.0923853E-2,4.1054286E-2,0E0,1.6454208E-1,8.075376E-2,0E0,0E0,0E0,0E0],"parents":[2147483647,0,0,1,1,3,3,4,4],"right_children":[2,4,-1,6,8,-1,-1,-1,-1],"split_conditions":[7.2E0,4.7E0,-7.916671E-3,4.2E0,4.4E0,2.8073087E-3,-2.2725781E-2,1.2343573E-2,-7.7948333E-3],"split_indices":[3,4,0,4,0,0,0,0,0],"split_type":[0,0,0,0,0,0,0,0,0],"sum_hessian":[2.8E1,2.5E1,3E0,1.7E1,8E0,1.5E1,2E0,6E0,2E0],"tree_param":{"num_deleted":"0","num_feature":"5","num_nodes":"9","size_leaf_vector":"1"}},{"base_weights":[1.7088323E-3,1.17518185E-2,-6.624294E-3,-1.3572629E-2,8.526871E-3,1.4004069E-2,-1.4715833E-3],"categories":[],"categories_nodes":[],"categories_segments":[],"categories_sizes":[],"default_left":[0,0,0,0,0,0,0],"id":88,"left_children":[1,-1,3,-1,5,-1,-1],"loss_changes":[2.876504E-2,0E0,5.59266E-2,0E0,8.1535965E-2,0E0,0E0],"parents":[2147483647,0,0,2,2,4,4],"right_children":[2,-1,4,-1,6,-1,-1],"split_conditions":[1.9E0,1.17518185E-2,2.54E0,-1.3572629E-2,3.09E0,1.4004069E-2,-1.4715833E-3],"split_indices":[0,0,0,0,0,0,0],"split_type":[0,0,0,0,0,0,0],"sum_hessian":[2.8E1,1E0,2.7E1,2E0,2.5E1,3E0,2.2E1],"tree_param":{"num_deleted":"0","num_feature":"5","num_nodes":"7","size_leaf_vector":"1"}},{"base_weights":[1.9072993E-3,3.9357584E-2,-2.3165517E-2,7.9387955E-2,-6.0550153E-2,-1.03567734E-1,2.5666237E-2,-9.7506045E-4,1.0624906E-2,-7.9717245E-3,-1.5244485E-4,6.937504E-3,-1.8661985E-2,9.480956E-3,-9.009633E-3],"categories":[],"categories_nodes":[],"categories_segments":[],"categories_sizes":[],"default_left":[0,0,0,0,0,0,1,0,0,0,0,0,0,0,0],"id":89,"left_children":[1,3,5,7,9,11,13,-1,-1,-1,-1,-1,-1,-1,-1],"loss_changes":[2.8142277E-2,5.2799083E-2,7.332945E-2,2.258524E-2,4.403877E-3,1.1348961E-1,1.045925E-1,0E0,0E0,0E0,0E0,0E0,0E0,0E0,0E0],"parents":[2147483647,0,0,1,1,2,2,3,3,4,4,5,5,6,6],"right_children":[2,4,6,8,10,12,14,-1,-1,-1,-1,-1,-1,-1,-1],"split_conditions":[3.8888888E0,5.44E0,3.35E0,3.3E0,4.06E0,3.2E0,4.21E0,-9.7506045E-4,1.0624906E-2,-7.9717245E-3,-1.5244485E-4,6.937504E-3,-1.8661985E-2,9.480956E-3,-9.009633E-3],"split_indices":[4,0,0,4,2,3,0,0,0,0,0,0,0,0,0],"split_type":[0,0,0,0,0,0,0,0,0,0,0,0,0,0,0],"sum_hessian":[2.8E1,1.1E1,1.7E1,8E0,3E0,6E0,1.1E1,2E0,6E0,2E0,1E0,2E0,4E0,7E0,4E0],"tree_param":{"num_deleted":"0","num_feature":"5","num_nodes":"15","size_leaf_vector":"1"}},{"base_weights":[1.3811424E-3,5.307334E-2,-1.4411314E-2,-3.6934137E-2,1.2981248E-1,-2.0496523E-2,1.3496927E-2,1.0632992E-2,-1.2013213E-2,2.1789504E-2,-6.7217587E-3,-9.036708E-3,4.325123E-3],"categories":[],"categories_nodes":[],"categories_segments":[],"categories_sizes":[],"default_left":[0,0,0,0,0,0,0,0,0,0,0,0,0],"id":90,"left_children":[1,3,5,7,9,-1,11,-1,-1,-1,-1,-1,-1],"loss_changes":[2.4438914E-2,5.3144187E-2,1.2508097E-1,6.0450763E-2,8.406602E-2,0E0,6.880691E-2,0E0,0E0,0E0,0E0,0E0,0E0],"parents":[2147483647,0,0,1,1,2,2,3,3,4,4,6,6],"right_children":[2,4,6,8,10,-1,12,-1,-1,-1,-1,-1,-1],"split_conditions":[3.09E0,2.54E0,3.32E0,1.9E0,4.4E0,-2.0496523E-2,3.51E0,1.0632992E-2,-1.2013213E-2,2.1789504E-2,-6.7217587E-3,-9.036708E-3,4.325123E-3],"split_indices":[0,0,0,0,3,0,2,0,0,0,0,0,0],"split_type":[0,0,0,0,0,0,0,0,0,0,0,0,0],"sum_hessian":[2.8E1,6E0,2.2E1,3E0,3E0,2E0,2E1,1E0,2E0,2E0,1E0,4E0,1.6E1],"tree_param":{"num_deleted":"0","num_feature":"5","num_nodes":"13","size_leaf_vector":"1"}},{"base_weights":[8.458392E-4,1.6511606E-2,-5.074823E-2,-9.847227E-3,1.1337285E-1,7.1881297E-3,-8.3166696E-2,2.3365568E-3,-1.9477066E-2,2.3494227E-2,-4.598753E-3,-9.564374E-3,-1.0390759E-3],"categories":[],"categories_nodes":[],"categories_segments":[],"categories_sizes":[],"default_left":[0,0,0,0,0,0,0,0,0,0,0,0,0],"id":91,"left_children":[1,3,5,7,9,-1,11,-1,-1,-1,-1,-1,-1],"loss_changes":[2.4277495E-2,5.9838843E-2,3.380636E-2,1.2124558E-1,1.07671164E-1,0E0,4.4543557E-3,0E0,0E0,0E0,0E0,0E0,0E0],"parents":[2147483647,0,0,1,1,2,2,3,3,4,4,6,6],"right_children":[2,4,6,8,10,-1,12,-1,-1,-1,-1,-1,-1],"split_conditions":[5.8E0,4.8E0,3.73E0,4.4E0,5.111111E0,7.1881297E-3,4.26E0,2.3365568E-3,-1.9477066E-2,2.3494227E-2,-4.598753E-3,-9.564374E-3,-1.0390759E-3],"split_indices":[3,3,2,3,4,0,0,0,0,0,0,0,0],"split_type":[0,0,0,0,0,0,0,0,0,0,0,0,0],"sum_hessian":[2.8E1,2.2E1,6E0,1.8E1,4E0,1E0,5E0,1.6E1,2E0,2E0,2E0,4E0,1E0],"tree_param":{"num_deleted":"0","num_feature":"5","num_nodes":"13","size_leaf_vector":"1"}},{"base_weights":[7.0405006E-4,5.083486E-2,-1.4583764E-2,-3.5338163E-2,1.2429917E-1,-1.8558746E-2,1.0539798E-2,9.9845175E-3,-1.13681E-2,2.01811E-2,-5.411816E-3,-8.361983E-3,3.761382E-3],"categories":[],"categories_nodes":[],"categories_segments":[],"categories_sizes":[],"default_left":[0,0,0,0,0,0,0,0,0,0,0,0,0],"id":92,"left_children":[1,3,5,7,9,-1,11,-1,-1,-1,-1,-1,-1],"loss_changes":[2.2966688E-2,4.8706993E-2,1.00769155E-1,5.3713083E-2,6.623945E-2,0E0,5.6680135E-2,0E0,0E0,0E0,0E0,0E0,0E0],"parents":[2147483647,0,0,1,1,2,2,3,3,4,4,6,6],"right_children":[2,4,6,8,10,-1,12,-1,-1,-1,-1,-1,-1],"split_conditions":[3.09E0,2.54E0,3.32E0,1.9E0,4.4E0,-1.8558746E-2,3.51E0,9.9845175E-3,-1.13681E-2,2.01811E-2,-5.411816E-3,-8.361983E-3,3.761382E-3],"split_indices":[0,0,0,0,3,0,2,0,0,0,0,0,0],"split_type":[0,0,0,0,0,0,0,0,0,0,0,0,0],"sum_hessian":[2.8E1,6E0,2.2E1,3E0,3E0,2E0,2E1,1E0,2E0,2E0,1E0,4E0,1.6E1],"tree_param":{"num_deleted":"0","num_feature":"5","num_nodes":"13","size_leaf_vector":"1"}},{"base_weights":[2.9668314E-4,1.540437E-2,-4.9385242E-2,-9.044798E-3,1.0523033E-1,6.6406727E-3,-7.975169E-2,2.0560946E-3,-1.7379574E-2,2.1677192E-2,-4.1388036E-3,-9.100127E-3,-1.175189E-3],"categories":[],"categories_nodes":[],"categories_segments":[],"categories_sizes":[],"default_left":[0,0,0,0,0,0,0,0,0,0,0,0,0],"id":93,"left_children":[1,3,5,7,9,-1,11,-1,-1,-1,-1,-1,-1],"loss_changes":[2.2527538E-2,5.1463693E-2,2.9909385E-2,9.624731E-2,9.074199E-2,0E0,3.5203807E-3,0E0,0E0,0E0,0E0,0E0,0E0],"parents":[2147483647,0,0,1,1,2,2,3,3,4,4,6,6],"right_children":[2,4,6,8,10,-1,12,-1,-1,-1,-1,-1,-1],"split_conditions":[5.8E0,4.8E0,3.73E0,4.4E0,5.111111E0,6.6406727E-3,4.26E0,2.0560946E-3,-1.7379574E-2,2.1677192E-2,-4.1388036E-3,-9.100127E-3,-1.175189E-3],"split_indices":[3,3,2,3,4,0,0,0,0,0,0,0,0],"split_type":[0,0,0,0,0,0,0,0,0,0,0,0,0],"sum_hessian":[2.8E1,2.2E1,6E0,1.8E1,4E0,1E0,5E0,1.6E1,2E0,2E0,2E0,4E0,1E0],"tree_param":{"num_deleted":"0","num_feature":"5","num_nodes":"13","size_leaf_vector":"1"}},{"base_weights":[2.1804201E-4,4.8677783E-2,-1.4540056E-2,-3.369236E-2,1.18878484E-1,-1.6810708E-1,8.090474E-3,9.382486E-3,-1.0747305E-2,1.8698629E-2,-4.2722463E-3,-2.0059163E-2,-5.1568984E-3,1.0602752E-2,-1.4122784E-3],"categories":[],"categories_nodes":[],"categories_segments":[],"categories_sizes":[],"default_left":[0,0,0,0,0,0,0,0,0,0,0,0,0,0,0],"id":94,"left_children":[1,3,5,7,9,11,13,-1,-1,-1,-1,-1,-1,-1,-1],"loss_changes":[2.1447813E-2,4.4482388E-2,8.129204E-2,4.7716882E-2,5.2013665E-2,1.01275E-3,4.7182918E-2,0E0,0E0,0E0,0E0,0E0,0E0,0E0,0E0],"parents":[2147483647,0,0,1,1,2,2,3,3,4,4,5,5,6,6],"right_children":[2,4,6,8,10,12,14,-1,-1,-1,-1,-1,-1,-1,-1],"split_conditions":[3.09E0,2.54E0,3.32E0,1.9E0,4.4E0,3.15E0,3.74E0,9.382486E-3,-1.0747305E-2,1.8698629E-2,-4.2722463E-3,-2.0059163E-2,-5.1568984E-3,1.0602752E-2,-1.4122784E-3],"split_indices":[0,0,0,0,3,0,0,0,0,0,0,0,0,0,0],"split_type":[0,0,0,0,0,0,0,0,0,0,0,0,0,0,0],"sum_hessian":[2.8E1,6E0,2.2E1,3E0,3E0,2E0,2E1,1E0,2E0,2E0,1E0,1E0,1E0,3E0,1.7E1],"tree_param":{"num_deleted":"0","num_feature":"5","num_nodes":"15","size_leaf_vector":"1"}},{"base_weights":[9.4084906E-5,8.641385E-3,-7.686297E-3,-1.3072165E-2,5.3520944E-2,-6.674537E-3,3.2030658E-3,1.2328005E-2,-2.694235E-3],"categories":[],"categories_nodes":[],"categories_segments":[],"categories_sizes":[],"default_left":[1,1,0,0,0,0,0,0,0],"id":95,"left_children":[1,3,-1,5,7,-1,-1,-1,-1],"loss_changes":[1.9739676E-2,2.7010987E-2,0E0,4.813335E-2,5.3838886E-2,0E0,0E0,0E0,0E0],"parents":[2147483647,0,0,1,1,3,3,4,4],"right_children":[2,4,-1,6,8,-1,-1,-1,-1],"split_conditions":[5.44E0,3.99E0,-7.686297E-3,3.98E0,4.6E0,-6.674537E-3,3.2030658E-3,1.2328005E-2,-2.694235E-3],"split_indices":[0,0,0,2,2,0,0,0,0],"split_type":[0,0,0,0,0,0,0,0,0],"sum_hessian":[2.8E1,2.6E1,2E0,1.8E1,8E0,8E0,1E1,4E0,4E0],"tree_param":{"num_deleted":"0","num_feature":"5","num_nodes":"9","size_leaf_vector":"1"}},{"base_weights":[3.2120737E-5,1.4169786E-2,-4.64248E-2,-7.776649E-3,9.4732285E-2,5.7628634E-3,-7.3371805E-2,1.8298185E-3,-1.5294182E-2,1.9408004E-2,-3.6192895E-3,-8.440181E-3,-9.110928E-4],"categories":[],"categories_nodes":[],"categories_segments":[],"categories_sizes":[],"default_left":[0,0,0,0,0,0,0,0,0,0,0,0,0],"id":96,"left_children":[1,3,5,7,9,-1,11,-1,-1,-1,-1,-1,-1],"loss_changes":[1.9704808E-2,4.1402075E-2,2.3855817E-2,7.4716546E-2,7.205993E-2,0E0,3.483802E-3,0E0,0E0,0E0,0E0,0E0,0E0],"parents":[2147483647,0,0,1,1,2,2,3,3,4,4,6,6],"right_children":[2,4,6,8,10,-1,12,-1,-1,-1,-1,-1,-1],"split_conditions":[5.8E0,4.8E0,3.73E0,4.4E0,5.111111E0,5.7628634E-3,4.26E0,1.8298185E-3,-1.5294182E-2,1.9408004E-2,-3.6192895E-3,-8.440181E-3,-9.110928E-4],"split_indices":[3,3,2,3,4,0,0,0,0,0,0,0,0],"split_type":[0,0,0,0,0,0,0,0,0,0,0,0,0],"sum_hessian":[2.8E1,2.2E1,6E0,1.8E1,4E0,1E0,5E0,1.6E1,2E0,2E0,2E0,4E0,1E0],"tree_param":{"num_deleted":"0","num_feature":"5","num_nodes":"13","size_leaf_vector":"1"}},{"base_weights":[-1.4683296E-5,4.663045E-2,-1.421039E-2,-8.503675E-3,8.274778E-2,-1.3456443E-1,1.0570938E-2,1.2550525E-2,-6.551981E-3,-1.7957771E-2,-5.970077E-3,1.519537E-2,-1.358013E-3],"categories":[],"categories_nodes":[],"categories_segments":[],"categories_sizes":[],"default_left":[0,0,0,0,0,0,0,0,0,0,0,0,0],"id":97,"left_children":[1,3,5,-1,7,9,11,-1,-1,-1,-1,-1,-1],"loss_changes":[1.9865295E-2,4.0324874E-2,7.002072E-2,0E0,4.6260368E-2,2.7585104E-3,7.035445E-2,0E0,0E0,0E0,0E0,0E0,0E0],"parents":[2147483647,0,0,1,1,2,2,4,4,5,5,6,6],"right_children":[2,4,6,-1,8,10,12,-1,-1,-1,-1,-1,-1],"split_conditions":[3.09E0,3.3E0,3.35E0,-8.503675E-3,5E0,3.15E0,3.74E0,1.2550525E-2,-6.551981E-3,-1.7957771E-2,-5.970077E-3,1.519537E-2,-1.358013E-3],"split_indices":[0,4,0,0,4,0,0,0,0,0,0,0,0],"split_type":[0,0,0,0,0,0,0,0,0,0,0,0,0],"sum_hessian":[2.8E1,6E0,2.2E1,1E0,5E0,3E0,1.9E1,4E0,1E0,1E0,2E0,2E0,1.7E1],"tree_param":{"num_deleted":"0","num_feature":"5","num_nodes":"13","size_leaf_vector":"1"}},{"base_weights":[-4.4751988E-4,7.3234374E-3,-7.023696E-3,9.578864E-3,-3.5853244E-3,-8.800941E-3,1.6686376E-3],"categories":[],"categories_nodes":[],"categories_segments":[],"categories_sizes":[],"default_left":[1,0,0,0,1,0,0],"id":98,"left_children":[1,3,-1,-1,5,-1,-1],"loss_changes":[1.6241968E-2,2.6399668E-2,0E0,0E0,4.425405E-2,0E0,0E0],"parents":[2147483647,0,0,1,1,4,4],"right_children":[2,4,-1,-1,6,-1,-1],"split_conditions":[5.44E0,3.34E0,-7.023696E-3,9.578864E-3,2.54E0,-8.800941E-3,1.6686376E-3],"split_indices":[0,2,0,0,0,0,0],"split_type":[0,0,0,0,0,0,0],"sum_hessian":[2.8E1,2.6E1,2E0,2E0,2.4E1,4E0,2E1],"tree_param":{"num_deleted":"0","num_feature":"5","num_nodes":"7","size_leaf_vector":"1"}},{"base_weights":[-5.605344E-4,4.204062E-2,-1.3501733E-2,-7.638443E-3,7.450887E-2,-1.283414E-1,1.0141289E-2,1.1254798E-2,-5.7843328E-3,-1.7143315E-2,-5.683311E-3,1.4071107E-2,-1.2183746E-3],"categories":[],"categories_nodes":[],"categories_segments":[],"categories_sizes":[],"default_left":[0,0,0,0,0,0,0,0,0,0,0,0,0],"id":99,"left_children":[1,3,5,-1,7,9,11,-1,-1,-1,-1,-1,-1],"loss_changes":[1.6555611E-2,3.260669E-2,6.375015E-2,0E0,3.67175E-2,2.5825948E-3,6.0013887E-2,0E0,0E0,0E0,0E0,0E0,0E0],"parents":[2147483647,0,0,1,1,2,2,4,4,5,5,6,6],"right_children":[2,4,6,-1,8,10,12,-1,-1,-1,-1,-1,-1],"split_conditions":[3.09E0,3.3E0,3.35E0,-7.638443E-3,5E0,3.15E0,3.74E0,1.1254798E-2,-5.7843328E-3,-1.7143315E-2,-5.683311E-3,1.4071107E-2,-1.2183746E-3],"split_indices":[0,4,0,0,4,0,0,0,0,0,0,0,0],"split_type":[0,0,0,0,0,0,0,0,0,0,0,0,0],"sum_hessian":[2.8E1,6E0,2.2E1,1E0,5E0,3E0,1.9E1,4E0,1E0,1E0,2E0,2E0,1.7E1],"tree_param":{"num_deleted":"0","num_feature":"5","num_nodes":"13","size_leaf_vector":"1"}}]},"name":"gbtree"},"learner_model_param":{"base_score":"4.714286E0","boost_from_average":"1","num_class":"0","num_feature":"5","num_target":"1"},"objective":{"name":"reg:squarederror","reg_loss_param":{"scale_pos_weight":"1"}}},"version":[3,0,0]}